SVM-light Version V6.02
2 # kernel type
3 # kernel parameter -d 
2 # kernel parameter -g 
1 # kernel parameter -s 
1 # kernel parameter -r 
empty# kernel parameter -u 
57 # highest feature index 
526 # number of training documents 
517 # number of support vectors plus 1 
0.77056346 # threshold b, each following line is a SV (starting with alpha*y)
-0.22995722036848242897377758708899 19:6.4499998 45:3.22 55:1.5 56:4 57:18 #
-0.22966696850790857542534695312497 1:0.97000003 3:0.97000003 19:2.9100001 27:0.97000003 52:0.16599999 55:2.1849999 56:11 57:59 #
-0.22964360925850912931167613351136 7:0.46000001 12:0.46000001 19:0.46000001 25:0.46000001 27:0.92000002 33:2.3 37:0.92000002 39:0.92000002 43:0.92000002 45:0.46000001 49:0.163 50:0.163 52:0.163 54:0.081 55:2.3429999 56:13 57:150 #
-0.22957716669591610170186868344899 5:0.54000002 6:0.54000002 12:1.09 19:1.63 21:0.54000002 42:0.54000002 49:0.29899999 50:0.199 55:1 56:1 57:14 #
-0.22943654336176777519540337380022 2:0.07 3:0.14 5:0.14 6:0.07 12:1.34 13:0.07 14:0.14 17:0.63 19:0.14 23:0.07 25:3.03 36:0.07 37:0.20999999 49:0.083999999 50:0.177 55:2.25 56:26 57:855 #
0.49999999999999367172875963660772 1:0.17 3:0.079999998 5:0.41999999 6:0.079999998 7:0.079999998 8:0.41999999 9:0.079999998 10:0.079999998 12:0.60000002 13:0.17 14:0.17 17:0.17 18:0.079999998 19:1.2 21:3.1700001 23:0.34 24:0.079999998 50:0.081 51:0.027000001 52:0.108 53:0.013 55:4.0700002 56:48 57:574 #
0.49999999999999367172875963660772 1:0.52999997 3:1.0700001 5:0.52999997 7:1.0700001 12:0.52999997 16:0.52999997 17:0.52999997 19:4.3000002 21:1.0700001 23:1.61 45:0.52999997 52:1.183 53:0.25299999 55:5.454 56:68 57:180 #
0.49999999999999367172875963660772 1:0.50999999 2:0.50999999 7:0.50999999 10:0.50999999 15:0.50999999 16:2.0699999 18:2.0699999 19:1.03 21:1.03 50:0.13500001 52:0.067000002 55:2.6760001 56:17 57:91 #
0.49999999999999367172875963660772 2:0.54000002 3:0.54000002 5:2.1900001 7:1.09 12:0.54000002 13:0.54000002 16:0.54000002 17:3.29 19:3.8399999 21:1.64 50:0.241 52:1.045 53:0.32100001 55:5.0469999 56:140 57:212 #
0.49999999999999367172875963660772 3:0.38 5:1.15 10:0.76999998 12:0.38 16:0.38 17:0.76999998 19:2.7 21:1.15 23:0.38 45:1.15 50:0.061000001 52:0.98500001 53:0.184 55:3.9230001 56:78 57:255 #
-0.22943654336176777519540337380022 5:5 55:3.5 56:9 57:21 #
-0.22943654336176777519540337380022 12:0.99000001 25:2.97 26:3.96 35:0.49000001 50:0.20999999 55:1.7359999 56:12 57:125 #
-0.2296332695555565184264423805871 19:1.49 21:4.4699998 27:1.49 55:1 56:1 57:16 #
0.49999999999999367172875963660772 1:0.43000001 3:0.43000001 5:0.43000001 7:0.86000001 12:0.43000001 17:0.86000001 18:0.43000001 19:1.29 21:4.7600002 24:1.29 49:0.14 52:0.91500002 55:3.891 56:47 57:144 #
0.49999999999999367172875963660772 1:0.44999999 5:0.68000001 6:0.44999999 8:0.44999999 10:0.22 11:0.22 13:1.6 15:0.44999999 17:0.91000003 18:1.83 19:1.83 21:0.68000001 23:1.6 40:0.91000003 50:0.037 52:0.18700001 53:0.112 55:3.184 56:30 57:363 #
0.49999999999999367172875963660772 3:1.12 5:0.56 10:0.56 16:0.56 19:2.25 21:1.12 45:0.56 50:0.102 52:0.61500001 55:2.4030001 56:19 57:137 #
-0.22848467536513883402449209825136 19:0.5 25:1.01 27:0.5 45:0.5 49:0.079999998 50:0.56400001 53:0.161 55:1.712 56:20 57:137 #
-0.23034408432102759789472656848375 1:0.52999997 12:1.0700001 19:0.25999999 21:0.25999999 25:1.61 26:0.80000001 27:1.88 28:0.52999997 29:0.52999997 30:0.52999997 31:0.52999997 32:0.52999997 33:1.88 34:0.52999997 35:0.52999997 36:0.52999997 37:0.80000001 39:0.80000001 40:0.52999997 43:0.80000001 45:0.80000001 50:0.412 52:0.090999998 55:2.2249999 56:12 57:227 #
-0.22995722036848242897377758708899 10:0.93000001 27:0.93000001 33:0.93000001 50:0.47499999 51:0.15800001 55:4.3930001 56:33 57:145 #
0.49999999999999367172875963660772 3:0.55000001 5:0.55000001 10:0.55000001 16:0.55000001 19:1.67 21:0.55000001 45:0.55000001 50:0.098999999 52:0.89300001 55:2.122 56:16 57:121 #
0.49999999999999367172875963660772 3:1.3099999 5:0.64999998 12:0.64999998 19:5.2600002 20:1.97 21:4.5999999 24:1.3099999 40:0.64999998 52:0.81599998 53:0.068000004 55:3.1730001 56:43 57:165 #
0.49999999999999367172875963660772 3:0.61000001 7:0.61000001 17:1.23 18:1.85 19:2.46 21:1.23 50:0.176 52:0.35299999 55:2.25 56:13 57:81 #
-0.22991528251885184896963210121612 3:0.58999997 5:0.28999999 6:0.58999997 7:0.58999997 8:0.28999999 10:0.28999999 11:0.28999999 18:0.88999999 19:3.5799999 21:1.49 25:0.28999999 26:0.28999999 45:0.28999999 49:0.089000002 52:0.044 53:0.134 55:1.6 56:15 57:120 #
-0.22873551869124952862222244220902 1:0.57999998 12:0.57999998 19:0.57999998 25:1.76 26:1.17 27:1.76 28:0.57999998 29:0.57999998 30:0.57999998 31:0.57999998 32:0.57999998 33:1.76 34:0.57999998 35:0.57999998 36:0.57999998 37:0.57999998 39:0.57999998 40:0.57999998 43:0.57999998 45:0.57999998 50:0.414 52:0.103 55:2 56:12 57:94 #
-0.22958652210439556284882200998254 1:0.31 2:0.31 3:0.94 6:0.62 12:0.31 19:2.8299999 21:0.31 25:1.88 41:0.31 45:0.31 52:0.096000001 55:2.368 56:45 57:180 #
0.49999999999999367172875963660772 1:0.22 2:0.22 3:0.22 5:1.77 6:0.22 7:0.44 8:0.44 9:0.22 10:2.8800001 12:0.88 13:0.22 15:1.11 16:0.44 18:0.44 19:3.3299999 21:3.3299999 23:0.44 24:0.44 40:0.44 52:0.56300002 53:0.15000001 55:86.650002 56:1038 57:1733 #
0.49999999999999367172875963660772 1:0.34 2:0.41999999 3:0.25 5:0.079999998 6:0.41999999 7:0.079999998 8:0.25 9:0.079999998 10:1.63 11:0.34 12:0.50999999 13:0.94 15:0.17 16:0.079999998 19:3 21:0.94 23:0.34 24:0.34 45:0.17 50:0.063000001 52:0.287 53:0.223 54:0.079000004 55:3.3139999 56:62 57:537 #
0.49999999999999367172875963660772 7:1.04 16:2.0799999 19:2.0799999 21:2.0799999 55:3.812 56:11 57:61 #
-0.2301426466395900538586261063756 1:0.12 3:0.12 5:0.12 6:0.12 9:1.08 12:0.36000001 19:0.47999999 21:0.23999999 25:0.60000002 26:0.72000003 27:0.12 33:0.36000001 37:0.12 49:0.117 50:0.15099999 51:0.033 53:0.033 55:4.1339998 56:78 57:645 #
-0.22966696850790857542534695312497 1:0.050000001 3:0.1 6:0.1 8:0.050000001 9:0.49000001 12:0.27000001 17:0.38 19:0.20999999 21:0.1 25:0.49000001 26:0.54000002 27:0.050000001 33:0.38 36:0.38 37:0.20999999 49:0.308 50:0.13600001 51:0.078000002 53:0.014 55:3.7149999 56:107 57:1386 #
-0.2302381957971362247405977541348 12:1.0700001 33:1.0700001 50:0.21600001 52:0.21600001 54:0.21600001 55:2.1659999 56:6 57:39 #
0.49999999999999367172875963660772 7:1.33 19:1.33 21:5.3299999 52:0.20200001 53:1.4170001 55:29.125 56:223 57:233 #
0.49999999999999367172875963660772 5:2.5 12:0.62 17:1.25 19:3.1199999 21:0.62 52:0.079999998 55:2.1110001 56:18 57:57 #
0.49999999999999367172875963660772 2:0.89999998 16:0.89999998 18:1.8099999 19:3.6300001 21:2.72 45:0.89999998 52:0.16500001 53:0.16500001 55:6.2659998 56:41 57:94 #
-0.22951479352005665912628273872542 1:0.75 3:0.37 13:0.37 19:1.12 21:1.87 25:0.75 26:0.37 27:1.87 28:0.37 29:0.37 30:0.37 31:0.37 32:0.37 34:0.37 35:0.37 36:0.37 37:0.75 39:0.37 40:0.37 43:2.6300001 45:0.75 50:0.30500001 52:0.061000001 55:1.903 56:13 57:118 #
-0.22966696850790857542534695312497 10:0.73000002 25:2.2 26:2.2 27:1.47 28:2.2 29:1.47 30:0.73000002 31:0.73000002 32:0.73000002 34:0.73000002 35:2.2 36:0.73000002 37:0.73000002 39:0.73000002 40:0.73000002 42:0.73000002 43:0.73000002 45:0.73000002 50:0.55500001 51:0.66600001 54:0.111 55:2.3510001 56:12 57:127 #
-0.2296332695555565184264423805871 1:0.68000001 13:0.68000001 19:1.37 21:2.0599999 27:1.37 43:3.4400001 50:0.33199999 55:1.125 56:2 57:18 #
0.49999999999999367172875963660772 1:0.07 2:0.02 3:0.15000001 5:0.25 6:0.2 8:0.02 9:0.15000001 12:0.25 13:0.25 14:0.07 16:0.050000001 17:0.22 19:0.050000001 21:0.02 23:0.37 24:0.02 29:0.02 36:0.050000001 37:0.30000001 38:0.02 40:0.02 43:0.02 45:0.02 49:0.011 50:0.022 53:0.022 55:1.423 56:20 57:965 #
0.49999999999999367172875963660772 1:0.17 2:0.25999999 3:1.0700001 5:0.34999999 6:0.62 7:0.52999997 8:0.17 9:0.62 10:0.80000001 11:0.25999999 12:1.25 13:0.17 15:0.62 16:0.62 17:0.079999998 18:1.4299999 19:2.5 20:0.17 21:1.16 23:0.88999999 24:0.079999998 40:0.079999998 45:0.079999998 50:0.066 52:0.212 53:0.185 54:0.013 55:6.8150001 56:583 57:1329 #
0.49999999999999367172875963660772 1:0.07 2:0.02 3:0.15000001 5:0.25 6:0.2 8:0.02 9:0.15000001 12:0.25 13:0.25 14:0.07 16:0.050000001 17:0.22 19:0.050000001 21:0.02 23:0.37 24:0.02 29:0.02 36:0.050000001 37:0.30000001 38:0.02 40:0.02 43:0.02 45:0.02 49:0.011 50:0.022 53:0.022 55:1.423 56:20 57:965 #
-0.22865980104965577535125476060784 10:1.12 19:1.12 21:1.12 27:1.12 45:2.24 52:0.20299999 54:0.20299999 55:2.2219999 56:20 57:40 #
-0.22865980104965577535125476060784 21:4.3400002 25:8.6899996 55:2.125 56:6 57:17 #
-0.22938826536841139258626753871795 55:2 56:3 57:4 #
0.49999999999999367172875963660772 3:0.47999999 5:0.95999998 9:0.47999999 16:0.95999998 17:0.95999998 19:1.4400001 21:0.47999999 23:0.95999998 45:0.47999999 50:0.133 51:0.066 52:0.46799999 53:0.26699999 55:3.3150001 56:61 57:242 #
0.49999999999999367172875963660772 1:0.46000001 3:0.46000001 8:0.46000001 12:1.38 15:2.3099999 17:0.46000001 18:0.46000001 19:2.77 21:2.3099999 23:1.38 40:0.46000001 50:0.49000001 52:0.081 53:0.81599998 55:3.4000001 56:12 57:102 #
0.49999999999999367172875963660772 1:1.03 3:0.68000001 5:1.03 7:0.68000001 10:0.68000001 12:0.68000001 15:0.34 16:0.68000001 19:5.8600001 21:1.37 23:0.34 24:0.34 45:0.34 52:0.366 53:0.061000001 55:1.895 56:12 57:91 #
-0.22958652217535657769076351542026 1:0.38999999 5:1.17 10:0.38999999 12:1.17 18:0.38999999 19:3.1199999 20:0.38999999 21:1.17 27:0.38999999 28:0.77999997 40:0.38999999 49:0.07 50:0.07 52:0.07 55:2.069 56:13 57:89 #
-0.22964774192153203369315406234819 10:0.56999999 16:0.56999999 19:2.8699999 21:4.02 45:1.14 50:0.83999997 54:0.075999998 55:3.5829999 56:31 57:129 #
-0.2294346048484254829702422284754 1:0.23999999 3:0.49000001 10:0.23999999 12:0.23999999 13:0.23999999 19:1.23 21:0.23999999 25:0.23999999 26:0.23999999 28:0.49000001 30:0.23999999 35:0.49000001 47:0.74000001 49:0.028999999 50:0.119 51:0.119 55:3.5739999 56:75 57:336 #
0.49999999999999367172875963660772 3:0.18000001 5:0.18000001 9:0.54000002 10:0.36000001 11:0.36000001 12:0.89999998 14:0.36000001 16:0.72000003 18:0.18000001 19:2.7 20:0.18000001 21:0.72000003 24:0.54000002 38:0.36000001 43:0.18000001 52:0.63300002 53:0.063000001 55:9.0430002 56:363 57:841 #
0.49999999999999367172875963660772 1:0.25999999 2:0.25999999 3:0.51999998 5:0.38999999 7:0.38999999 8:0.13 10:0.25999999 12:0.77999997 13:0.25999999 16:1.5700001 18:0.25999999 19:2.6099999 21:1.5700001 23:0.13 24:0.38999999 37:0.13 50:0.12899999 52:0.77899998 53:0.021 54:0.021 55:2.6889999 56:49 57:476 #
0.49999999999999367172875963660772 3:0.31999999 5:0.64999998 6:0.64999998 7:0.31999999 8:0.31999999 12:0.31999999 13:0.31999999 16:0.31999999 17:0.31999999 19:2.28 21:3.25 24:0.31999999 45:0.31999999 50:0.104 53:0.15700001 54:0.052000001 55:1.5369999 56:10 57:143 #
-0.2294346048484254829702422284754 12:3.22 39:3.22 52:0.56400001 55:1.818 56:9 57:20 #
-0.2294346048484254829702422284754 6:0.49000001 19:1.47 39:0.49000001 43:0.49000001 45:0.49000001 50:0.19499999 52:0.097000003 55:2.3 56:18 57:69 #
-0.22910337140925596255414120605565 12:0.68000001 17:0.68000001 19:0.68000001 36:2.04 44:3.4000001 48:0.68000001 50:0.086000003 55:1.41 56:5 57:79 #
0.49999999999999367172875963660772 3:0.72000003 5:1.8099999 10:0.36000001 12:0.36000001 17:0.72000003 19:0.72000003 21:0.36000001 33:0.36000001 49:0.052999999 50:0.26499999 55:1.543 56:13 57:88 #
0.49999999999999367172875963660772 1:0.19 2:0.19 3:0.38999999 5:0.19 8:0.58999997 12:0.38999999 16:0.58999997 17:0.38999999 18:1.37 19:4.52 21:3.1400001 24:0.19 37:0.19 52:0.25799999 53:0.032000002 55:3.112 56:43 57:305 #
0.49999999999999367172875963660772 1:0.46000001 5:0.69 6:0.46000001 8:0.46000001 10:0.23 11:0.23 13:1.61 15:0.46000001 17:0.92000002 18:1.84 19:1.84 21:0.69 23:1.61 40:0.92000002 50:0.037 52:0.18799999 53:0.112 55:3.105 56:30 57:354 #
-0.22955530705330462470925567686209 3:2.9100001 19:1.9400001 50:0.389 52:0.389 55:1.26 56:3 57:29 #
-0.2302381958125356842259634504444 3:0.66000003 19:2.6600001 45:0.66000003 50:0.23100001 52:0.23100001 55:1.761 56:17 57:37 #
-0.22973794696585470020977481908631 3:0.79000002 12:1.58 19:2.3800001 21:0.79000002 49:0.13699999 55:1.09 56:3 57:24 #
0.49999999999999367172875963660772 3:0.70999998 5:0.70999998 16:0.70999998 19:1.42 21:0.70999998 45:0.70999998 50:0.121 52:1.094 55:2.0209999 56:16 57:95 #
0.49999999999999367172875963660772 2:1.49 7:2.98 10:1.49 16:1.49 17:2.98 21:2.98 50:0.171 53:0.171 54:0.171 55:13 56:140 57:156 #
0.49999999999999367172875963660772 3:0.16 5:0.33000001 7:0.16 9:0.5 11:0.16 16:0.5 18:1.5 19:0.66000003 25:0.33000001 50:0.088 52:0.884 53:0.75199997 54:0.022 55:5.3280001 56:47 57:1087 #
-0.22848467424670948489051625074353 18:1.36 19:2.04 21:0.68000001 25:1.36 26:0.68000001 28:0.68000001 30:0.68000001 50:0.241 55:2.461 56:17 57:96 #
-0.20072772429593310761219981941395 27:20 55:1 56:1 57:5 #
-0.2296332695555565184264423805871 5:1.28 9:1.28 14:1.28 19:1.28 25:2.5599999 26:1.28 27:1.28 28:1.28 29:1.28 30:1.28 31:1.28 32:1.28 34:1.28 35:1.28 36:1.28 40:1.28 50:0.398 55:2.21 56:11 57:42 #
0.49999999999999367172875963660772 3:1.1 5:0.55000001 10:0.55000001 16:0.55000001 19:2.2 21:1.1 45:0.55000001 50:0.097000003 52:0.68300003 55:2.3380001 56:19 57:145 #
0.49999999999999367172875963660772 1:0.16 2:0.31999999 3:0.64999998 5:0.31999999 7:0.16 10:0.49000001 11:0.16 13:0.16 15:0.16 16:0.16 18:0.81 19:0.31999999 20:0.16 21:0.98000002 40:0.16 52:0.773 53:0.079999998 54:0.079999998 55:6.586 56:132 57:955 #
0.49999999999999367172875963660772 1:0.83999997 2:0.83999997 7:1.6900001 9:0.83999997 10:0.83999997 12:0.83999997 16:10.16 17:0.83999997 19:0.83999997 21:2.54 24:0.83999997 52:1.113 53:0.278 54:0.092 55:173 56:418 57:519 #
-0.22998423723092231707454402567237 18:0.83999997 21:2.54 25:1.6900001 26:0.83999997 27:1.6900001 28:1.6900001 30:0.83999997 35:0.83999997 45:0.83999997 55:1.777 56:11 57:64 #
-0.22848467407382200278220807376783 21:1.51 27:1.51 45:1.51 49:0.30000001 55:1.6109999 56:5 57:29 #
-0.22903748159012027318937043673941 1:0.47999999 5:0.47999999 13:0.47999999 19:4.3899999 25:0.47999999 27:0.47999999 29:2.9200001 42:0.97000003 50:0.085000001 55:1.275 56:3 57:37 #
0.49999999999999367172875963660772 19:1.29 21:0.63999999 55:1.103 56:3 57:32 #
0.49999999999999367172875963660772 1:0.17 3:0.079999998 5:0.43000001 6:0.079999998 7:0.079999998 8:0.43000001 9:0.079999998 10:0.079999998 12:0.60000002 13:0.17 14:0.17 17:0.17 18:0.079999998 19:1.2 21:3.1400001 23:0.34 24:0.079999998 50:0.081 51:0.027000001 52:0.088 53:0.013 55:4.1599998 56:48 57:1140 #
0.49999999999999367172875963660772 19:1.29 21:0.63999999 55:1.103 56:3 57:32 #
-0.22955530705335969177127708462649 19:0.99000001 21:0.99000001 27:1.98 37:0.99000001 44:0.99000001 45:0.99000001 55:1.478 56:5 57:34 #
-0.22958652210439600693803186004516 12:3.1199999 19:1.5599999 43:1.5599999 52:0.27000001 55:1.5 56:4 57:30 #
-0.22964774192153203369315406234819 1:0.12 3:0.25 8:0.38 9:1.28 12:0.38 19:0.50999999 21:0.25 25:0.63999999 26:0.75999999 27:0.12 33:0.50999999 49:0.054000001 50:0.162 51:0.035999998 53:0.035999998 55:3.1670001 56:32 57:491 #
0.49999999999999367172875963660772 2:0.54000002 3:0.54000002 5:1.09 6:0.54000002 7:2.1800001 10:0.54000002 12:0.54000002 18:0.54000002 19:3.27 21:1.09 45:0.54000002 50:0.15700001 52:0.47099999 54:0.078000002 55:15.08 56:147 57:377 #
0.49999999999999367172875963660772 3:0.41999999 12:0.85000002 16:0.85000002 18:0.85000002 19:4.6999998 21:0.85000002 22:5.5500002 37:0.41999999 50:0.082000002 53:0.082000002 54:0.248 55:7.1700001 56:42 57:294 #
0.49999999999999367172875963660772 16:1.05 21:2.0999999 44:1.05 52:1.806 55:1.293 56:5 57:75 #
-0.22998423723092364934217357586022 12:0.98000002 25:0.49000001 26:0.98000002 48:0.49000001 52:0.15899999 55:1.45 56:7 57:74 #
-0.22942664485086039505290500528645 1:0.079999998 2:0.079999998 3:0.25 6:0.25 9:0.75999999 12:0.25 19:0.33000001 21:0.16 25:0.5 26:0.58999997 27:0.079999998 33:0.41999999 36:0.25 37:0.079999998 42:0.079999998 49:0.148 50:0.13600001 51:0.045000002 53:0.022 55:3.9949999 56:55 57:807 #
-0.2296332695555565184264423805871 12:0.88999999 19:3.5699999 21:2.6700001 55:2.375 56:23 57:38 #
0.49999999999999367172875963660772 3:0.44999999 5:0.22 6:0.22 9:0.67000002 10:0.44999999 11:0.22 12:0.89999998 16:0.22 19:1.35 21:1.12 22:0.22 23:0.22 24:0.22 36:0.44999999 49:0.064000003 50:0.25799999 52:0.12899999 53:0.193 55:7.2579999 56:71 57:617 #
0.49999999999999367172875963660772 2:0.55000001 3:0.55000001 5:1.11 6:0.55000001 7:2.23 10:0.55000001 12:0.55000001 18:0.55000001 19:3.3499999 21:1.11 45:0.55000001 50:0.15899999 52:0.479 54:0.079000004 55:16.739 56:147 57:385 #
0.49999999999999367172875963660772 6:1.12 8:2.24 11:1.12 12:1.12 19:4.4899998 23:1.12 52:0.81400001 55:2.5999999 56:15 57:39 #
-0.22995722036848242897377758708899 5:0.75 19:1.5 25:3.75 26:3 27:2.25 28:0.75 29:0.75 30:0.75 31:0.75 32:0.75 34:0.75 35:0.75 36:0.75 37:0.75 39:0.75 40:0.75 42:0.75 43:0.75 45:0.75 50:0.222 55:1.8329999 56:12 57:77 #
-0.22995722036848242897377758708899 1:0.1 3:0.20999999 8:0.20999999 9:0.31 10:0.1 12:1.0599999 13:0.20999999 16:0.1 17:0.20999999 23:0.20999999 25:3.5 26:0.1 29:0.1 30:0.1 36:0.20999999 37:0.20999999 40:0.1 44:0.20999999 49:0.043000001 50:0.14300001 53:0.057 55:2.4089999 56:23 57:571 #
-0.22971742092779234845068003778579 2:3.6800001 12:0.61000001 19:0.61000001 21:1.22 25:1.22 26:0.61000001 27:3.0599999 28:0.61000001 29:0.61000001 30:0.61000001 31:0.61000001 32:0.61000001 34:0.61000001 35:0.61000001 36:0.61000001 37:1.84 39:0.61000001 40:0.61000001 43:1.84 45:1.84 50:0.189 51:0.093999997 54:0.093999997 55:2.283 56:13 57:169 #
0.49999999999999367172875963660772 3:1.4299999 5:0.70999998 8:0.70999998 10:0.70999998 17:2.8699999 18:2.8699999 19:1.4299999 21:3.5899999 52:0.93699998 55:11.888 56:116 57:214 #
0.49999999999999367172875963660772 3:0.47 5:0.94999999 9:0.47 16:0.94999999 17:0.94999999 19:1.42 21:0.47 23:0.94999999 45:0.47 50:0.131 51:0.064999998 52:0.461 53:0.26300001 55:3.493 56:61 57:255 #
0.49999999999999367172875963660772 3:0.15000001 5:0.31 7:0.15000001 9:0.63 10:0.15000001 11:0.15000001 16:1.11 18:1.27 19:0.79000002 25:0.94999999 37:0.31 40:0.15000001 50:0.088 52:0.86199999 53:0.70700002 54:0.022 55:5.4229999 56:51 57:1128 #
-0.22955530705330462470925567686209 19:1.33 21:1.33 25:4 49:0.211 52:0.211 55:1.38 56:4 57:29 #
-0.22942664485086039505290500528645 33:1.9400001 37:0.47999999 39:0.47999999 50:0.057 55:6.526 56:83 57:248 #
-0.2294346048484254829702422284754 1:0.50999999 12:1.54 17:2.0599999 19:0.50999999 25:3.5999999 26:2.0599999 30:0.50999999 36:0.50999999 45:0.50999999 55:1.574 56:4 57:74 #
0.49999999999999367172875963660772 19:0.38999999 21:0.38999999 25:3.5799999 26:0.38999999 30:0.38999999 44:0.38999999 45:0.38999999 55:2.5 56:21 57:130 #
0.49999999999999367172875963660772 6:2.3 12:0.75999999 13:0.75999999 19:2.3 21:1.53 50:0.829 52:2.766 53:0.829 55:5.6069999 56:25 57:157 #
0.49999999999999367172875963660772 1:0.079999998 2:0.16 3:0.31999999 5:1.38 6:0.16 7:0.079999998 9:0.23999999 10:0.079999998 12:1.3 14:0.079999998 16:0.47999999 17:0.079999998 18:0.079999998 19:3.5 21:0.73000002 23:0.079999998 24:0.16 35:0.079999998 50:0.085000001 51:0.061000001 52:0.38999999 53:0.097000003 54:0.012 55:5.5939999 56:119 57:1561 #
-0.22933122246054749027166508312803 6:0.77999997 12:0.77999997 19:0.77999997 25:0.77999997 26:0.77999997 28:0.77999997 35:0.77999997 36:0.77999997 44:0.77999997 50:0.45100001 54:0.112 55:2.714 56:22 57:133 #
-0.22870491693716521464097013449646 19:1.29 25:1.29 26:6.4899998 30:1.29 50:0.19 52:0.19 55:1.857 56:4 57:26 #
-0.2302381958125356842259634504444 2:7.0100002 19:1.75 21:1.75 27:3.5 37:1.75 43:1.75 45:1.75 54:0.28600001 55:1.826 56:13 57:42 #
0.49999999999999367172875963660772 1:0.47999999 2:0.2 3:0.55000001 5:0.27000001 6:0.2 8:0.27000001 9:0.27000001 10:0.97000003 11:0.41 12:1.04 13:0.13 16:1.11 17:0.69 18:0.059999999 19:2.3699999 21:1.04 23:0.059999999 24:0.69 40:0.059999999 45:0.13 50:0.105 52:0.75 53:0.30500001 55:3.401 56:94 57:966 #
0.49999999999999367172875963660772 1:0.47999999 2:0.2 3:0.55000001 5:0.27000001 6:0.2 8:0.27000001 9:0.27000001 10:0.97000003 11:0.41 12:0.97000003 13:0.13 16:1.11 17:0.69 18:0.059999999 19:2.23 21:0.97000003 23:0.059999999 24:0.69 40:0.059999999 45:0.13 50:0.105 52:0.75 53:0.30500001 55:3.401 56:94 57:966 #
0.49999999999999367172875963660772 16:4 52:2.4530001 55:4.1529999 56:26 57:54 #
-0.22910337140925596255414120605565 2:5.4699998 12:1.36 19:1.36 21:2.73 27:2.73 37:1.36 43:1.36 45:1.36 54:0.23199999 55:2.0350001 56:13 57:57 #
-0.22910337140925596255414120605565 5:0.87 7:0.87 16:2.6300001 18:0.87 19:2.6300001 52:0.79799998 53:0.15899999 55:18.454 56:136 57:203 #
-0.22897340497111007273645100212889 12:1.4 17:0.69999999 19:1.4 21:1.4 27:0.69999999 31:0.69999999 40:2.1099999 50:0.266 51:0.066 55:18 56:200 57:378 #
0.49999999999999367172875963660772 2:0.51999998 3:0.51999998 5:0.51999998 16:0.51999998 19:1.5599999 50:0.192 52:0.86699998 55:2.22 56:20 57:131 #
0.49999999999999367172875963660772 1:0.80000001 3:0.80000001 5:1.6 16:0.80000001 17:0.80000001 19:1.6 21:2.4000001 23:0.80000001 52:1.62 53:0.347 55:2.6040001 56:22 57:125 #
0.49999999999999367172875963660772 3:0.33000001 5:0.99000001 6:0.99000001 7:0.33000001 8:0.33000001 12:0.33000001 13:0.33000001 16:0.33000001 17:0.33000001 19:1.98 21:3.3 24:0.33000001 45:0.33000001 50:0.108 53:0.162 54:0.054000001 55:2.1949999 56:50 57:202 #
-0.22870481777828044478440006059827 1:0.30000001 3:0.15000001 6:0.15000001 7:0.30000001 12:0.30000001 19:0.75 21:0.30000001 25:0.75 26:0.30000001 27:0.30000001 28:0.15000001 29:0.15000001 30:0.15000001 31:0.15000001 32:0.15000001 33:0.44999999 34:0.15000001 35:0.15000001 36:0.15000001 37:0.15000001 39:0.15000001 40:0.15000001 43:0.15000001 44:0.75 45:0.15000001 50:0.32800001 51:0.046 55:1.7029999 56:12 57:155 #
-0.22910337140925596255414120605565 1:0.41 3:0.41 5:1.25 7:0.41 10:0.2 12:1.04 13:0.2 16:0.41 17:0.41 19:3.96 21:2.29 23:0.2 24:1.04 42:0.2 45:0.82999998 50:0.068999998 52:0.866 53:0.103 55:5.052 56:214 57:485 #
-0.22910337140925596255414120605565 27:0.31999999 29:0.31999999 33:0.31999999 40:0.31999999 50:0.54000002 51:0.108 54:0.054000001 55:3.7869999 56:28 57:375 #
0.49999999999999367172875963660772 1:0.07 2:0.37 3:0.81 5:0.50999999 6:0.28999999 7:0.07 9:0.07 10:0.37 11:0.07 12:1.48 13:0.14 15:0.07 17:0.14 18:0.44 19:3.55 21:1.85 24:0.14 37:0.14 49:0.048999999 50:0.068999998 52:0.15899999 53:0.15899999 54:0.0089999996 55:3.4560001 56:44 57:802 #
0.49999999999999367172875963660772 3:0.62 5:1.24 6:0.62 16:0.31 19:2.48 21:0.93000001 23:0.31 37:0.31 50:0.086000003 52:0.043000001 55:1.7410001 56:14 57:155 #
0.49999999999999367172875963660772 2:0.34 3:0.69 5:0.34 7:0.17 10:0.50999999 11:0.17 13:0.17 15:0.17 16:0.17 18:0.86000001 19:0.17 20:0.17 21:0.86000001 40:0.17 52:0.66500002 53:0.082999997 54:0.082999997 55:6.2940001 56:132 57:963 #
-0.230099940062958308040208521561 5:0.56 12:2.27 19:1.98 21:0.28 25:0.85000002 26:0.85000002 27:0.85000002 30:0.28 43:0.28 45:0.28 50:0.090000004 51:0.13500001 55:1.962 56:15 57:155 #
-0.22922723571253633689792650329764 19:3.9200001 27:5.8800001 37:1.96 39:1.96 45:1.96 55:1.785 56:6 57:25 #
-0.22995722036848242897377758708899 19:4.8699999 27:7.3099999 37:2.4300001 45:2.4300001 55:1.461 56:5 57:19 #
0.49999999999999367172875963660772 2:0.79000002 16:0.79000002 17:0.79000002 18:1.58 19:3.1700001 21:1.58 45:0.79000002 50:0.271 52:0.271 53:0.13500001 55:3.257 56:26 57:114 #
0.49999999999999367172875963660772 1:0.14 2:0.14 3:0.28999999 9:1.17 10:0.28999999 11:0.14 12:0.57999998 16:0.14 18:0.14 19:2.3499999 20:0.14 21:0.88 24:0.44 38:0.28999999 50:0.204 52:0.204 53:0.127 54:0.102 55:2.9619999 56:73 57:400 #
0.49999999999999367172875963660772 5:1.11 19:2.22 21:3.3299999 52:0.78399998 55:5.6869998 56:39 57:91 #
-0.22963139352482520028075896334485 13:2.22 19:4.4400001 27:8.8800001 37:2.22 45:2.22 55:1.3 56:5 57:26 #
-0.22865980104965577535125476060784 3:0.69999999 6:0.14 9:0.28 12:3.0799999 13:0.14 14:0.28 17:0.14 25:0.98000002 29:0.14 30:0.14 36:0.69999999 37:0.28 49:0.054000001 50:0.199 55:1.8200001 56:18 57:304 #
-0.22865980104965577535125476060784 19:9.0900002 27:9.0900002 55:1 56:1 57:5 #
0.49999999999999367172875963660772 3:1 6:0.25 8:0.25 12:1.5 13:0.25 16:0.25 17:0.5 19:2.5 21:1.5 24:0.25 52:0.20299999 53:0.20299999 55:2.8659999 56:34 57:129 #
0.49999999999999367172875963660772 1:0.57999998 5:2.3299999 7:1.16 11:0.57999998 14:0.57999998 16:0.57999998 18:0.57999998 19:2.9200001 20:1.16 21:2.9200001 50:0.27000001 52:0.090000004 53:0.090000004 55:1.829 56:9 57:75 #
0.49999999999999367172875963660772 3:0.57999998 5:1.17 7:0.57999998 12:0.57999998 16:0.57999998 19:1.76 52:0.829 55:2.529 56:8 57:86 #
-0.2296332695555565184264423805871 13:5.5500002 19:5.5500002 27:5.5500002 55:1 56:1 57:10 #
-0.16575449228211752705774983951414 19:7.6900001 27:7.6900001 55:1.285 56:2 57:9 #
0.49999999999999367172875963660772 1:0.25 2:0.25 5:0.75 9:0.25 10:0.75 12:1.51 14:1.26 17:0.5 19:3.29 21:1.01 33:0.25 50:0.082000002 52:0.041000001 53:0.124 54:0.124 55:3.181 56:32 57:210 #
0.49999999999999367172875963660772 5:6.25 7:3.1199999 12:3.1199999 19:6.25 55:9.4280005 56:60 57:66 #
0.49999999999999367172875963660772 2:0.17 7:0.17 8:0.51999998 10:0.17 11:0.34999999 12:0.51999998 17:0.17 18:0.69999999 19:0.88 21:0.69999999 22:1.9299999 23:0.34999999 49:0.028000001 50:0.14300001 51:0.028000001 52:0.085000001 53:0.057 54:0.229 55:3.5639999 56:39 57:417 #
-0.06367215256874292350630639703013 19:7.6900001 27:7.6900001 55:1.285 56:2 57:9 #
-0.22903748159012027318937043673941 10:1.4 15:1.4 25:1.4 26:1.4 37:1.4 43:1.4 50:0.205 51:0.205 55:4.533 56:21 57:68 #
-0.22955530705330462470925567686209 25:2.5599999 26:2.5599999 28:1.28 35:1.28 36:1.28 44:2.5599999 50:0.55199999 55:2.0929999 56:11 57:90 #
-0.22995722036848242897377758708899 10:0.63999999 27:0.63999999 29:0.63999999 33:0.63999999 50:0.31400001 51:0.20900001 54:0.104 55:4.0619998 56:28 57:195 #
0.49999999999999367172875963660772 2:0.34 3:0.69 5:0.34 7:0.17 10:0.50999999 11:0.17 13:0.17 15:0.17 16:0.17 18:0.86000001 19:0.34 20:0.17 21:0.50999999 52:0.315 54:0.026000001 55:6.3639998 56:149 57:942 #
0.49999999999999367172875963660772 2:1.63 7:3.27 16:1.63 17:1.63 21:1.63 37:1.63 50:0.36000001 52:0.54000002 53:0.18000001 54:0.18000001 55:14.818 56:140 57:163 #
0.49999999999999367172875963660772 3:0.14 5:0.28999999 7:0.14 9:0.57999998 11:0.28999999 16:0.87 18:1.46 19:0.57999998 28:0.43000001 37:0.28999999 50:0.079999998 52:0.764 53:0.78399998 54:0.02 55:4.9790001 56:45 57:1200 #
-0.22865980105028815838608124977327 5:1.26 12:1.26 16:1.26 19:2.53 27:1.26 29:1.26 42:1.26 45:1.26 55:1.285 56:5 57:18 #
-0.22963139352482520028075896334485 2:0.25 10:0.50999999 11:0.76999998 12:0.25 19:1.02 21:0.50999999 25:0.25 26:0.50999999 50:0.124 52:0.207 55:10.409 56:343 57:635 #
-0.22951479352399495326153555652127 25:12.5 55:5.8569999 56:18 57:41 #
0.49999999999999367172875963660772 2:0.38 3:0.75999999 5:0.38 7:0.19 10:0.56999999 11:0.19 13:0.19 15:0.19 16:0.19 18:0.94999999 19:0.19 20:0.19 21:0.94999999 40:0.19 52:0.63200003 53:0.029999999 54:0.090000004 55:6.789 56:132 57:869 #
0.49999999999999367172875963660772 1:0.40000001 3:0.60000002 5:0.2 6:0.60000002 7:0.2 8:0.60000002 9:0.2 10:0.2 11:0.2 12:1.2 16:0.40000001 17:1.61 18:0.40000001 19:2.21 20:1.8099999 21:2.6199999 23:0.2 24:0.60000002 50:0.096000001 52:1.4529999 53:0.12899999 55:3.9460001 56:64 57:513 #
0.49999999999999367172875963660772 9:0.91000003 19:0.91000003 21:2.75 50:0.132 52:0.53100002 55:2.9000001 56:28 57:87 #
-0.23014264663953765133186379898689 3:0.38 12:1.53 14:0.38 17:0.75999999 19:0.75999999 25:3.8399999 26:1.53 27:0.38 28:0.38 29:1.53 30:0.38 31:0.38 32:0.38 34:0.38 35:0.38 36:1.15 37:0.38 40:0.38 43:0.38 45:0.75999999 50:0.163 51:0.054000001 55:2.2969999 56:17 57:193 #
-0.22951479352399495326153555652127 1:2 11:2 12:2 19:2 21:8 55:5.888 56:29 57:53 #
-0.22851095843544910746203413509647 10:0.28999999 19:0.57999998 21:0.57999998 25:3.51 26:2.3399999 27:0.87 28:2.3399999 29:0.57999998 30:1.17 31:0.57999998 32:0.57999998 34:0.57999998 35:1.17 36:0.57999998 37:0.28999999 39:0.87 40:0.57999998 42:0.87 43:0.28999999 45:0.57999998 49:0.090999998 50:0.63700002 51:0.045000002 55:3.552 56:37 57:373 #
0.49999999999999367172875963660772 11:1.23 12:1.23 19:2.46 52:1.284 55:1.357 56:5 57:19 #
0.49999999999999367172875963660772 3:0.15000001 5:0.30000001 7:0.15000001 9:0.61000001 11:0.30000001 16:0.92000002 18:1.53 19:0.61000001 37:0.30000001 50:0.082999997 52:0.73199999 53:0.75300002 54:0.02 55:5.0580001 56:45 57:1128 #
0.49999999999999367172875963660772 3:0.85000002 5:0.41999999 16:0.41999999 19:2.1400001 21:1.28 45:0.41999999 50:0.15899999 52:1.117 55:1.206 56:7 57:117 #
-0.22964774192153358800538853756734 17:0.72000003 25:0.72000003 38:0.72000003 54:0.39500001 55:2.3329999 56:8 57:119 #
-0.22851095843538804519567975148675 3:1.58 12:0.79000002 19:1.58 25:0.79000002 26:0.79000002 50:0.149 52:0.149 55:1.482 56:10 57:43 #
-0.22909045414325912570774335108581 19:3.3299999 55:1.375 56:4 57:11 #
0.49999999999999367172875963660772 1:0.18000001 3:0.18000001 5:1.5700001 6:0.36000001 7:0.059999999 8:0.059999999 9:0.059999999 10:0.12 11:0.059999999 12:0.54000002 13:0.30000001 14:0.059999999 17:0.72000003 18:0.059999999 19:4.48 20:0.23999999 21:1.15 23:0.83999997 24:0.059999999 43:0.059999999 45:0.059999999 49:0.0099999998 50:0.052000001 52:0.0099999998 53:0.167 55:1.733 56:12 57:442 #
0.49999999999999367172875963660772 1:0.1 2:0.1 3:0.73000002 5:0.2 6:0.1 7:0.2 8:0.62 9:0.1 10:0.31 11:0.31 12:1.04 16:0.1 17:1.14 18:0.31 19:2.4000001 20:0.93000001 21:2.9200001 24:0.2 25:0.1 26:0.1 37:0.1 39:0.1 40:0.1 50:0.163 52:0.78500003 53:0.064999998 55:4.0640001 56:92 57:817 #
0.49999999999999367172875963660772 7:5.4000001 16:5.4000001 18:0.89999998 19:1.8 21:0.89999998 52:0.84100002 53:0.20999999 55:24.785 56:295 57:347 #
-0.22951479352399495326153555652127 5:0.33000001 12:0.33000001 16:0.33000001 18:0.33000001 19:0.33000001 21:0.33000001 25:0.99000001 26:0.33000001 28:0.66000003 30:0.33000001 35:0.33000001 44:0.33000001 50:0.13 51:0.043000001 55:2.016 56:19 57:125 #
-0.2302381958125356842259634504444 19:3.3299999 21:6.6599998 55:1.3 56:3 57:13 #
-0.22971742092779234845068003778579 1:0.34 9:0.34 10:0.68000001 12:1.02 19:1.36 21:0.68000001 25:2.3800001 26:1.7 27:0.68000001 28:1.7 29:0.68000001 30:0.34 31:0.34 32:0.34 34:0.34 35:0.34 36:0.34 37:0.68000001 39:0.68000001 40:0.34 43:0.68000001 45:0.34 49:0.052000001 50:0.41999999 51:0.052000001 54:0.052000001 55:2.6040001 56:13 57:250 #
0.49999999999999367172875963660772 1:0.17 2:0.17 3:0.70999998 5:0.52999997 6:0.17 7:0.17 8:0.88999999 9:0.17 10:0.52999997 11:0.34999999 12:1.61 17:1.79 19:1.97 20:1.61 21:4.1199999 24:0.34999999 40:0.17 50:0.115 52:1.158 53:0.057 55:5.1630001 56:63 57:599 #
0.49999999999999367172875963660772 1:0.079999998 2:0.17 3:0.34 5:1.46 6:0.17 7:0.079999998 9:0.25 10:0.079999998 12:1.37 14:0.079999998 16:0.50999999 17:0.079999998 18:0.079999998 19:3.4300001 21:0.76999998 23:0.079999998 24:0.17 50:0.077 51:0.064000003 52:0.34799999 53:0.103 54:0.012 55:5.3920002 56:119 57:1456 #
0.49999999999999367172875963660772 2:0.46000001 5:1.15 7:0.23 8:0.23 10:0.46000001 12:0.69 13:0.23 17:0.69 18:0.69 19:2.76 21:1.84 24:0.23 36:1.15 50:0.035999998 51:0.035999998 52:0.84100002 53:0.035999998 55:1.862 56:52 57:285 #
-0.22958652210439556284882200998254 5:4.54 42:4.54 44:4.54 55:2 56:5 57:16 #
-0.22951479352399495326153555652127 29:10 42:5 55:1.428 56:3 57:10 #
-0.22964360925850912931167613351136 2:1.86 10:0.93000001 25:2.8 26:1.86 27:1.86 28:0.93000001 29:0.93000001 30:0.93000001 31:0.93000001 32:0.93000001 34:0.93000001 35:0.93000001 36:0.93000001 37:0.93000001 39:0.93000001 40:0.93000001 42:0.93000001 43:0.93000001 45:0.93000001 50:0.45699999 51:0.152 55:2.0969999 56:13 57:86 #
0.49999999999999367172875963660772 3:0.38999999 5:0.77999997 8:0.059999999 9:0.059999999 10:0.19 11:0.13 12:0.25999999 13:0.13 19:0.31999999 21:0.059999999 30:0.059999999 43:0.059999999 50:0.032000002 53:0.032000002 55:1.206 56:15 57:240 #
0.49999999999999367172875963660772 8:1.05 11:0.51999998 12:1.05 13:0.51999998 16:1.05 19:3.7 20:1.05 21:1.05 23:1.58 24:0.51999998 52:0.70200002 53:0.26300001 55:6.487 56:47 57:266 #
0.49999999999999367172875963660772 1:0.54000002 3:0.54000002 5:1.63 12:0.54000002 16:0.54000002 17:0.54000002 19:2.1700001 21:5.9699998 23:0.54000002 52:0.71499997 53:0.31799999 55:2.345 56:22 57:129 #
-0.22865980104965577535125476060784 1:0.25999999 3:0.25999999 9:0.52999997 11:0.52999997 12:2.9400001 18:0.25999999 19:4.27 21:2.4000001 26:0.25999999 27:0.52999997 37:0.25999999 39:0.52999997 42:0.80000001 48:0.52999997 50:0.029999999 55:1.58 56:8 57:128 #
-0.22865980104965577535125476060784 5:0.13 8:0.55000001 12:0.13 13:0.13 17:0.27000001 23:0.41 25:2.79 36:0.13 37:0.27000001 49:0.071000002 50:0.14300001 53:0.052999999 55:2.6619999 56:22 57:418 #
-0.22873551870625852266982747096336 25:4 36:2 37:2 39:4 52:0.176 55:1.758 56:7 57:51 #
0.49999999999999367172875963660772 1:1.63 3:1.63 9:1.63 16:1.63 19:3.27 21:3.27 52:0.759 53:0.25299999 55:2 56:16 57:36 #
0.49999999999999367172875963660772 2:1.3200001 3:0.56 6:0.94 8:0.18000001 9:0.37 10:0.75 12:2.0699999 17:0.37 19:2.45 21:0.94 24:0.18000001 27:0.18000001 50:0.079999998 52:0.242 53:0.107 55:2.6229999 56:35 57:244 #
0.49999999999999367172875963660772 1:0.34999999 3:0.34999999 5:0.34999999 6:0.69999999 7:0.34999999 8:1.41 11:0.34999999 12:1.0599999 16:0.69999999 17:1.0599999 19:5.3000002 20:2.8199999 21:2.8199999 45:0.34999999 52:0.41100001 55:2.9170001 56:60 57:213 #
-0.2296332695555565184264423805871 3:1.23 12:2.46 18:2.46 19:1.23 21:1.23 25:2.46 26:1.23 28:1.23 30:1.23 31:1.23 35:1.23 36:1.23 37:2.46 50:0.139 52:0.278 55:1.7359999 56:10 57:66 #
-0.22964360925850912931167613351136 16:3.7 19:3.7 55:1.166 56:2 57:7 #
-0.22964360925850912931167613351136 1:0.17 2:0.34999999 10:0.34999999 12:0.17 19:1.9400001 21:0.69999999 24:0.17 25:0.17 26:0.17 27:0.88 30:0.17 32:0.17 34:0.17 37:0.34999999 45:0.52999997 46:0.17 50:0.030999999 52:0.030999999 55:1.564 56:21 57:194 #
0.49999999999999367172875963660772 1:0.34 2:1.03 3:0.34 5:1.03 7:2.4100001 8:0.34 10:1.72 11:2.0599999 12:2.0599999 13:0.68000001 15:0.34 18:3.4400001 19:4.1300001 21:2.0599999 50:0.116 55:1.888 56:6 57:68 #
0.49999999999999367172875963660772 2:1.3200001 3:0.56 6:0.94 8:0.37 9:0.37 10:0.75 12:2.0699999 17:0.37 19:2.45 21:0.94 24:0.18000001 27:0.18000001 50:0.079999998 52:0.29499999 53:0.107 55:2.5420001 56:34 57:239 #
0.49999999999999367172875963660772 1:0.63999999 3:0.63999999 5:1.28 7:0.63999999 12:0.63999999 16:0.63999999 17:0.63999999 19:1.28 21:3.2 23:0.63999999 52:0.551 53:0.45899999 55:2.3329999 56:22 57:119 #
-0.22963139352481820587570382485865 45:3.3299999 55:1.6 56:7 57:16 #
0.49999999999999367172875963660772 3:0.56 6:0.18000001 10:1.3200001 12:0.75 13:0.75 14:0.18000001 16:0.18000001 19:0.94 23:0.18000001 50:0.14 52:0.07 53:0.07 55:2.6159999 56:23 57:191 #
-0.23014264663945482869422676230897 19:3.3299999 45:3.3299999 55:1.75 56:3 57:14 #
-0.23009993986165622192885393815232 5:0.1 12:0.1 25:2.0599999 26:1.1900001 30:0.1 33:1.3 36:0.1 37:1.08 41:0.64999998 46:2.5999999 48:0.1 49:0.14 50:0.5 51:0.093000002 55:4.0599999 56:51 57:1003 #
0.49999999999999367172875963660772 12:1.8099999 21:1.8099999 52:0.30899999 55:1.3329999 56:11 57:56 #
0.49999999999999367172875963660772 5:1.29 6:0.43000001 7:0.43000001 13:0.43000001 16:0.43000001 17:0.43000001 18:0.43000001 19:1.72 21:0.86000001 50:0.12899999 52:0.12899999 55:5.8000002 56:46 57:116 #
-0.2303878969105878082856975197501 1:0.17 3:0.50999999 5:0.17 10:1.36 12:0.17 16:0.17 17:0.34 19:1.1900001 21:0.85000002 25:1.53 26:0.68000001 49:0.027000001 50:0.111 52:0.167 55:1.8940001 56:22 57:216 #
-0.23034408597104405469480070678401 6:0.44 12:0.44 13:0.44 19:1.3200001 27:0.88 45:0.44 46:0.44 50:0.15000001 55:1.613 56:11 57:71 #
-0.22910337140925352006348703071126 19:9.5200005 45:4.7600002 55:1.142 56:2 57:8 #
0.49999999999999367172875963660772 2:0.68000001 3:0.34 5:0.34 12:0.68000001 16:0.34 18:1.37 19:1.72 21:1.03 50:0.055 52:0.71799999 55:3.7179999 56:61 57:264 #
0.49999999999999367172875963660772 3:0.16 5:0.16 7:0.16 9:0.64999998 10:0.16 11:0.16 16:1.64 18:0.64999998 19:0.81999999 40:0.16 50:0.066 52:0.90600002 53:0.66299999 55:5.289 56:52 57:1116 #
0.49999999999999367172875963660772 2:0.11 3:0.23 5:0.57999998 6:0.34 7:0.11 9:0.34 11:0.23 12:0.92000002 13:0.46000001 16:0.46000001 17:0.23 18:0.34 19:0.57999998 21:0.57999998 23:0.11 43:0.11 49:0.075000003 50:0.037 52:0.322 53:0.093999997 54:0.017999999 55:2.576 56:48 57:389 #
-0.23034408597104405469480070678401 2:0.23999999 5:0.23999999 8:0.23999999 10:0.49000001 14:1.48 19:0.99000001 25:0.49000001 27:0.23999999 31:0.23999999 35:0.23999999 37:0.74000001 53:0.16 55:9.3100004 56:235 57:1108 #
-0.23034408597104405469480070678401 5:0.44 11:0.44 12:0.88999999 19:1.78 37:0.88999999 46:1.33 50:0.139 55:1.7309999 56:16 57:116 #
-0.2301426466395900538586261063756 19:4.54 21:9.0900002 55:1 56:1 57:5 #
0.49999999999999367172875963660772 5:0.91000003 7:0.91000003 10:0.91000003 50:0.134 52:0.67199999 53:0.26899999 55:4.3499999 56:31 57:87 #
0.49999999999999367172875963660772 3:1.3099999 12:1.3099999 19:1.3099999 21:5.2600002 24:1.3099999 53:0.199 55:4.8179998 56:25 57:53 #
0.49999999999999367172875963660772 2:1.3099999 3:0.56 6:0.93000001 8:0.18000001 9:0.37 10:0.75 12:2.0599999 17:0.37 19:2.4400001 21:0.93000001 24:0.18000001 27:0.18000001 50:0.079999998 52:0.26800001 53:0.107 55:2.698 56:42 57:251 #
-0.2301426466395900538586261063756 3:0.86000001 11:0.86000001 12:0.86000001 18:0.86000001 19:6.9499998 21:4.3400002 27:0.86000001 55:1.0470001 56:2 57:22 #
-0.23009993986165622192885393815232 1:0.25 5:0.25 6:0.25 12:0.50999999 14:0.25 18:0.25 19:0.50999999 21:0.25 26:0.25 33:0.25 41:0.25 46:0.25 48:0.25 50:0.082000002 54:0.041000001 55:1.2869999 56:4 57:85 #
-0.22963139353519201879549882505671 3:1.5599999 41:1.5599999 46:1.5599999 55:1.75 56:3 57:21 #
0.49999999999999367172875963660772 8:0.67000002 10:0.67000002 37:1.34 49:0.17 50:0.51099998 51:0.085000001 52:0.51099998 55:4.6170001 56:27 57:217 #
0.49999999999999367172875963660772 2:0.62 3:1.24 5:0.31 12:0.62 16:0.31 18:1.24 19:2.49 21:1.24 45:0.31 50:0.050000001 52:1.152 55:4.592 56:121 57:349 #
0.49999999999999367172875963660772 8:0.67000002 10:0.67000002 37:1.34 49:0.17 50:0.51099998 51:0.085000001 52:0.51099998 55:4.6170001 56:27 57:217 #
-0.22848356554655735450864995073061 27:0.54000002 29:0.54000002 50:0.45300001 51:0.18099999 54:0.090000004 55:4.0370002 56:28 57:214 #
-0.23009993986165622192885393815232 19:3.1199999 27:3.1199999 50:0.50199997 55:1 56:1 57:8 #
-0.23034408597104405469480070678401 2:1.61 3:3.22 12:1.61 18:3.22 19:3.22 27:1.61 45:1.61 46:1.61 55:1.0829999 56:2 57:13 #
0.49999999999999367172875963660772 3:0.17 4:0.51999998 5:0.17 7:0.17 9:0.69 10:0.17 11:0.17 16:1.74 18:0.69 19:1.04 21:0.17 25:0.17 34:0.17 37:0.34 40:0.17 50:0.071999997 52:0.75400001 53:0.68099999 55:4.7399998 56:52 57:967 #
0.49999999999999367172875963660772 2:1 3:1 5:2 7:1 17:2 18:3 19:2 21:4 23:1 24:1 52:0.27500001 53:0.13699999 55:2.5380001 56:11 57:33 #
0.49999999999999367172875963660772 16:1.05 17:1.05 19:3.1500001 21:2.0999999 45:1.05 50:0.35100001 52:0.35100001 53:0.175 55:3.3429999 56:28 57:107 #
-0.22910337140925596255414120605565 5:0.66000003 19:4.6300001 21:3.3099999 25:2.6400001 26:1.98 27:1.3200001 28:0.66000003 29:0.66000003 30:0.66000003 31:0.66000003 32:0.66000003 34:0.66000003 35:0.66000003 36:0.66000003 39:0.66000003 40:0.66000003 45:0.66000003 50:0.29300001 55:3.9679999 56:34 57:127 #
-0.22903748159012027318937043673941 8:0.76999998 18:1.55 19:2.3199999 25:3.0999999 26:3.8699999 27:3.0999999 28:0.76999998 30:0.76999998 31:0.76999998 35:1.55 36:0.76999998 50:0.198 52:0.098999999 55:2.325 56:30 57:93 #
-0.22848466201553918608624371699989 27:0.5 29:0.5 50:0.50099999 51:0.167 54:0.082999997 55:3.983 56:28 57:239 #
0.49999999999999367172875963660772 3:0.16 4:0.16 5:0.31999999 7:0.16 9:0.64999998 10:0.16 11:0.16 16:2.1300001 18:0.64999998 19:0.98000002 25:0.49000001 36:0.16 37:0.31999999 40:0.16 50:0.089000002 52:0.69300002 53:0.67000002 55:4.835 56:52 57:1030 #
0.49999999999999367172875963660772 3:1.53 11:1.53 19:3.0699999 45:1.53 52:1.434 55:7.0549998 56:75 57:127 #
0.45945361691687358618452208247618 16:1.28 19:3.8399999 21:3.8399999 45:1.28 52:0.23 53:0.23 55:5.5380001 56:41 57:72 #
-0.22903748159012027318937043673941 25:16.66 55:3.125 56:17 57:25 #
-0.22964774192153047938091958712903 12:0.68000001 19:0.34 25:0.68000001 26:0.34 28:0.68000001 30:0.34 33:0.34 35:0.34 36:0.34 49:0.048 55:2.1470001 56:11 57:131 #
-0.22955530705330462470925567686209 5:1.04 12:0.51999998 25:1.5599999 26:1.04 28:0.51999998 33:2.0799999 35:0.51999998 50:0.27399999 55:1.848 56:10 57:61 #
0.49999999999999367172875963660772 3:0.47 7:0.94 12:0.47 17:0.47 19:0.94 21:0.47 45:0.47 50:0.071999997 52:0.21699999 55:1.48 56:11 57:77 #
0.49999999999999367172875963660772 1:0.25 5:0.50999999 6:0.50999999 9:0.25 11:0.25 13:0.25 17:0.25 19:2.8099999 21:0.25 23:0.25 24:0.75999999 50:0.041000001 52:0.20900001 53:0.20900001 55:2.776 56:75 57:211 #
0.49999999999999367172875963660772 3:0.73000002 5:0.36000001 12:0.73000002 16:0.36000001 17:0.73000002 19:1.09 21:1.46 22:0.36000001 23:0.36000001 40:0.36000001 52:0.60399997 53:0.18099999 55:3.7869999 56:58 57:356 #
-0.22971741663725309123833540070336 46:0.46000001 50:0.185 55:1.904 56:11 57:80 #
-0.22943460045148655890301370163797 12:1.75 29:0.87 39:1.75 48:0.87 55:1.795 56:11 57:79 #
-0.22955530705330462470925567686209 14:0.80000001 19:5.5999999 21:4 24:1.6 49:0.122 50:0.244 55:1.909 56:6 57:21 #
0.49999999999999367172875963660772 8:1.29 10:0.43000001 16:0.43000001 18:1.73 19:0.43000001 21:0.43000001 36:0.43000001 50:0.124 52:0.31 53:0.061999999 55:1.477 56:8 57:65 #
0.49999999999999367172875963660772 6:0.60000002 7:0.60000002 11:0.60000002 18:1.21 19:1.8200001 50:0.094999999 55:1.5829999 56:11 57:38 #
0.49999999999999367172875963660772 1:0.19 2:0.19 3:0.19 4:0.19 5:1.16 9:0.57999998 10:0.38 19:0.19 20:0.38 21:0.57999998 25:0.19 28:0.19 34:0.38 50:0.07 53:1.1210001 55:1021.5 56:2042 57:2043 #
-0.22971742092829283699018105835421 5:0.75999999 6:0.25 8:1.27 12:0.75999999 55:1.14 56:5 57:65 #
-0.23009993986165644397345886318362 19:0.81 37:0.81 41:1.62 43:0.81 45:1.62 46:1.62 51:0.13699999 54:0.13699999 55:1.636 56:12 57:36 #
-0.22850851278311912206930855973042 12:1.36 19:1.36 21:5.4699998 27:1.36 55:2.3069999 56:8 57:30 #
0.49999999999999367172875963660772 1:0.079999998 3:0.079999998 5:0.16 12:0.23 16:0.079999998 17:0.23 19:0.40000001 20:0.16 21:0.23 37:0.079999998 44:0.16 50:0.228 52:0.40599999 53:0.037999999 55:2.8110001 56:67 57:1254 #
0.49999999999999367172875963660772 25:2.0599999 33:1.03 50:0.34200001 55:2.217 56:10 57:51 #
0.49999999999999367172875963660772 7:0.44999999 8:0.91000003 9:0.44999999 10:0.91000003 17:0.44999999 18:0.44999999 19:0.91000003 21:0.44999999 23:0.44999999 50:0.25400001 52:0.063000001 53:0.127 55:4.7350001 56:46 57:161 #
-0.22850851278311912206930855973042 25:5.4000001 52:0.396 54:0.396 55:2.533 56:10 57:38 #
-0.22973794696590177366601892572362 19:2.6300001 25:2.6300001 31:2.6300001 50:0.248 55:4.1659999 56:14 57:50 #
-0.22851095843544910746203413509647 2:0.28 5:0.56 9:0.28 12:0.56 18:0.56 19:3.4100001 21:1.13 25:0.56 26:0.56 27:1.7 43:0.56 45:0.85000002 49:0.046 50:0.28099999 51:0.046 55:1.834 56:15 57:200 #
0.49999999999999367172875963660772 7:1.16 16:4.6500001 17:2.3199999 19:3.48 55:1 56:1 57:21 #
0.49999999999999367172875963660772 7:1.25 16:6.25 19:3.75 55:1 56:1 57:19 #
0.49999999999999367172875963660772 2:0.56999999 3:0.56999999 5:1.14 6:0.56999999 7:2.28 10:0.56999999 12:0.56999999 18:0.56999999 19:3.4200001 21:1.14 45:0.56999999 50:0.081 52:0.48699999 54:0.081 55:16.216999 56:147 57:373 #
-0.22851095843544910746203413509647 19:4.7600002 55:50 56:99 57:100 #
-0.23014230628963561198219167636125 5:0.31999999 6:0.31999999 12:0.31999999 19:1.3 21:0.98000002 29:0.31999999 44:0.64999998 50:0.257 55:1.3 56:7 57:104 #
-0.22851095843544910746203413509647 10:1.1900001 25:1.1900001 26:1.1900001 27:3.5699999 35:1.1900001 55:4.7909999 56:71 57:115 #
0.49999999999999367172875963660772 3:0.31999999 5:0.63999999 6:0.63999999 7:0.31999999 8:0.63999999 12:0.31999999 13:0.31999999 16:0.31999999 17:0.31999999 19:2.27 21:3.24 24:0.31999999 45:0.63999999 50:0.105 53:0.15700001 55:1.494 56:10 57:139 #
0.49999999999999367172875963660772 3:0.31999999 5:0.64999998 6:0.64999998 7:0.31999999 8:0.31999999 12:0.31999999 13:0.31999999 16:0.31999999 17:0.31999999 19:2.28 21:3.26 24:0.31999999 45:0.31999999 50:0.105 53:0.15800001 55:1.494 56:10 57:139 #
0.49999999999999367172875963660772 3:0.31999999 5:0.64999998 6:0.64999998 7:0.31999999 8:0.31999999 12:0.31999999 13:0.31999999 16:0.31999999 17:0.31999999 19:2.28 21:3.26 24:0.31999999 45:0.31999999 50:0.106 53:0.15899999 55:1.494 56:10 57:139 #
-0.22873551870625852266982747096336 5:2.25 10:0.75 19:1.5 25:0.75 26:0.75 27:1.5 28:1.5 35:0.75 50:0.12800001 53:0.12800001 54:0.12800001 55:3.6570001 56:28 57:128 #
-0.22870491693716521464097013449646 2:1.96 14:0.98000002 19:1.96 21:0.98000002 25:1.96 26:1.96 27:1.96 43:0.98000002 46:3.9200001 55:3.1289999 56:17 57:97 #
-0.22870491693716521464097013449646 5:0.57999998 19:0.87 21:0.28999999 25:0.28999999 26:0.28999999 27:0.28999999 28:0.57999998 34:0.28999999 35:0.57999998 50:0.22 53:2.0380001 55:13.562 56:351 57:434 #
0.49999999999999367172875963660772 55:1.266 56:4 57:19 #
0.49999999999999367172875963660772 7:1.0700001 16:2.1500001 21:2.1500001 40:1.0700001 52:0.145 53:0.43700001 54:0.29100001 55:1.823 56:10 57:62 #
0.49999999999999367172875963660772 55:1.266 56:4 57:19 #
-0.22870494570283883550843029297539 10:1.51 27:1.51 55:1.615 56:4 57:21 #
-0.22905112712177533307311705357279 19:1.21 39:1.21 42:1.21 55:1.166 56:2 57:21 #
-0.22870491693716521464097013449646 3:0.58999997 4:0.11 9:0.11 10:0.23 12:0.11 16:0.11 19:0.94999999 21:0.47 25:0.23 27:0.70999998 34:0.11 36:0.47 49:0.227 50:0.322 51:0.113 52:0.056000002 53:0.075000003 55:2.546 56:38 57:601 #
0.49999999999999367172875963660772 1:0.63999999 3:0.63999999 5:1.9299999 12:1.29 16:1.29 17:0.63999999 19:1.9299999 21:2.5799999 23:0.63999999 52:0.46200001 53:0.37 55:2.4400001 56:22 57:122 #
0.49999999999999367172875963660772 1:0.64999998 3:0.64999998 5:1.3 12:0.64999998 16:1.3 17:0.64999998 19:1.96 21:2.6099999 23:0.64999998 52:0.83399999 53:0.463 55:2.4400001 56:22 57:122 #
0.49999999999999367172875963660772 1:0.63999999 3:0.63999999 5:1.9299999 12:1.29 16:1.29 17:0.63999999 19:1.9299999 21:2.5799999 23:0.63999999 52:0.46200001 53:0.37 55:2.4400001 56:22 57:122 #
-0.22850851278311912206930855973042 25:15.38 45:7.6900001 55:4.8000002 56:19 57:24 #
-0.2303878969105878082856975197501 12:0.51999998 19:1.05 21:1.05 25:0.51999998 26:2.1099999 27:1.58 28:1.05 30:0.51999998 35:0.51999998 45:0.51999998 50:0.164 55:2.1730001 56:11 57:113 #
-0.2303878969105878082856975197501 3:1.58 25:4.7600002 26:1.58 27:1.58 28:3.1700001 30:1.58 35:1.58 50:0.40000001 53:0.60100001 55:3.3599999 56:13 57:84 #
0.49999999999999367172875963660772 3:1.42 5:0.70999998 8:0.70999998 10:0.70999998 17:2.8499999 18:2.8499999 19:1.42 21:3.5699999 52:0.93099999 55:12.055 56:117 57:217 #
0.49999999999999367172875963660772 3:0.86000001 5:0.43000001 16:0.43000001 19:2.1700001 21:1.3 45:0.43000001 50:0.161 52:1.133 55:1.2 56:6 57:114 #
0.49999999999999367172875963660772 3:1.29 12:1.29 19:1.29 21:5.1900001 24:1.29 53:0.198 55:4.23 56:25 57:55 #
-0.22964774192153736276367226309958 3:1.49 6:0.37 12:0.74000001 13:0.37 19:2.24 21:0.74000001 36:1.49 38:0.37 50:0.059999999 55:1.79 56:5 57:111 #
-0.22850851278173567315832315216539 3:0.16 5:0.63999999 8:0.16 12:1.91 16:0.16 19:3.04 21:1.76 26:0.31999999 27:0.31999999 31:0.16 36:0.16 40:0.16 45:0.31999999 50:0.055 53:0.055 55:1.798 56:7 57:196 #
-0.22870491693571304292476042974158 16:1.49 19:2.98 27:1.49 55:1.761 56:5 57:37 #
0.49999999999999367172875963660772 1:0.63 3:0.63 5:1.27 7:0.63 12:0.63 16:0.63 17:0.63 19:1.27 21:2.54 23:0.63 49:0.1 52:0.50099999 53:0.30000001 55:2.4579999 56:22 57:118 #
0.49999999999999367172875963660772 3:0.38999999 5:1.17 10:0.77999997 12:0.38999999 16:0.38999999 17:0.77999997 19:2.73 21:1.17 23:0.38999999 45:1.17 50:0.061999999 52:0.86900002 53:0.186 55:4 56:78 57:256 #
0.49999999999999367172875963660772 3:0.47 5:0.94999999 9:0.47 16:0.94999999 17:0.94999999 19:1.42 21:0.47 23:0.94999999 45:0.47 50:0.133 51:0.066 52:0.40099999 53:0.26699999 55:3.4590001 56:61 57:256 #
-0.2303878969105878082856975197501 12:1.74 19:2.9000001 21:0.57999998 27:0.57999998 50:0.20100001 55:1.794 56:6 57:70 #
-0.22963139352482520028075896334485 50:0.34400001 55:1.88 56:13 57:47 #
-0.22873551870625852266982747096336 25:20.83 26:4.1599998 55:3.5550001 56:18 57:64 #
0.49999999999999367172875963660772 1:0.18000001 3:0.18000001 5:1.5700001 6:0.36000001 7:0.059999999 8:0.059999999 9:0.059999999 10:0.12 11:0.059999999 12:0.54000002 13:0.30000001 14:0.059999999 17:0.72000003 18:0.059999999 19:4.4899998 20:0.23999999 21:1.09 23:0.85000002 24:0.059999999 43:0.059999999 45:0.059999999 49:0.0099999998 50:0.052000001 52:0.0099999998 53:0.167 55:1.7359999 56:12 57:441 #
0.49999999999999367172875963660772 3:1.3099999 12:1.3099999 19:1.3099999 21:5.2600002 24:1.3099999 53:0.20100001 55:4.5 56:25 57:54 #
0.49999999999999367172875963660772 3:1.3099999 12:1.3099999 19:1.3099999 21:5.2600002 24:1.3099999 53:0.20100001 55:4.5 56:25 57:54 #
-0.22973794696590177366601892572362 1:0.87 2:0.43000001 10:0.43000001 12:0.87 19:3.5 21:1.3099999 25:1.3099999 26:0.43000001 35:0.43000001 50:0.19 55:2.085 56:25 57:73 #
-0.22973794696590177366601892572362 19:2.29 25:2.29 45:0.75999999 50:0.25799999 55:3.74 56:53 57:101 #
-0.22973794696590177366601892572362 2:6.3400002 19:1.58 25:1.58 26:1.58 27:1.58 28:1.58 29:1.58 30:1.58 31:1.58 32:3.1700001 34:3.1700001 35:1.58 36:1.58 40:1.58 50:0.43099999 54:0.215 55:3.461 56:12 57:90 #
0.49999999999999367172875963660772 1:0.63999999 3:0.63999999 5:1.28 7:0.63999999 12:0.63999999 16:0.63999999 17:0.63999999 19:1.28 21:2.5599999 23:0.63999999 52:0.55400002 53:0.36899999 55:2.3329999 56:22 57:119 #
0.49999999999999367172875963660772 1:0.54000002 3:1.08 5:0.54000002 7:1.08 12:0.54000002 16:0.54000002 17:0.54000002 19:4.3200002 21:1.08 23:1.62 45:0.54000002 52:1.182 53:0.25299999 55:5.454 56:68 57:180 #
0.49999999999999367172875963660772 3:0.31999999 5:0.63999999 6:0.63999999 7:0.31999999 8:0.31999999 12:0.31999999 13:0.31999999 16:0.31999999 17:0.31999999 19:2.27 21:3.24 24:0.31999999 45:0.31999999 50:0.106 53:0.15899999 54:0.052999999 55:1.5369999 56:10 57:143 #
-0.22943344495516992953554336054367 1:0.31999999 5:0.31999999 12:0.31999999 19:0.95999998 21:2.5599999 27:0.63999999 50:0.234 52:0.057999998 55:1.068 56:3 57:47 #
-0.22942664485086039505290500528645 2:1.23 10:1.23 12:0.61000001 13:2.46 19:3.0799999 21:1.23 27:0.61000001 50:0.22400001 55:1 56:1 57:20 #
-0.22704625215287299599964399021701 27:25 55:2 56:4 57:6 #
0.49999999999999367172875963660772 3:0.33000001 5:0.99000001 6:0.99000001 7:0.33000001 8:0.33000001 12:0.33000001 13:0.33000001 16:0.33000001 17:0.33000001 19:1.98 21:3.3 24:0.33000001 45:0.33000001 50:0.107 53:0.161 54:0.052999999 55:2.1949999 56:50 57:202 #
0.49999999999999367172875963660772 9:0.91000003 19:0.91000003 21:2.75 50:0.133 52:0.53200001 55:2.9000001 56:28 57:87 #
0.49999999999999367172875963660772 2:1.3200001 3:0.56 6:0.94 8:0.18000001 9:0.37 10:0.75 12:2.0699999 17:0.37 19:2.45 21:0.94 24:0.18000001 27:0.18000001 50:0.079999998 52:0.241 53:0.107 55:2.6229999 56:35 57:244 #
-0.2296332695555565184264423805871 1:0.28 5:0.28 9:0.28 11:0.28 12:3.97 19:3.97 21:0.85000002 25:0.28 26:1.13 37:0.28 39:0.28 44:0.28 48:0.28 52:0.079999998 55:2.3959999 56:16 57:139 #
-0.2296332695555565184264423805871 13:1.88 18:1.88 44:1.88 55:1.533 56:5 57:23 #
-0.22973794696590177366601892572362 12:5.71 55:1.166 56:2 57:14 #
0.49999999999999367172875963660772 8:1.29 10:0.43000001 16:0.43000001 18:1.73 19:0.43000001 21:0.43000001 36:0.43000001 50:0.124 52:0.31 53:0.061999999 55:1.477 56:8 57:65 #
0.49999999999999367172875963660772 2:0.55000001 3:0.55000001 5:1.11 6:0.55000001 7:2.23 10:0.55000001 12:0.55000001 18:0.55000001 19:3.3499999 21:1.11 45:0.55000001 50:0.15899999 52:0.479 54:0.079000004 55:16.739 56:147 57:385 #
-0.23009993986165622192885393815232 25:1.72 26:6.8899999 55:2.4660001 56:13 57:37 #
-0.22972325847426411371543508721516 25:1.53 26:6.1500001 37:1.53 55:1.714 56:6 57:36 #
-0.22972325847426411371543508721516 12:1.5599999 37:1.5599999 39:1.5599999 41:3.1199999 43:1.5599999 45:1.5599999 46:1.5599999 50:0.215 51:0.215 55:1.666 56:12 57:30 #
0.49999999999999367172875963660772 3:0.15000001 5:0.31 7:0.15000001 9:0.63 10:0.15000001 11:0.15000001 16:1.11 18:1.27 19:0.79000002 25:0.94999999 37:0.31 40:0.15000001 50:0.088 52:0.86199999 53:0.70700002 54:0.022 55:5.4229999 56:51 57:1128 #
0.49999999999999367172875963660772 1:0.14 2:0.14 3:0.28999999 9:1.17 10:0.28999999 11:0.14 12:0.57999998 16:0.14 18:0.14 19:2.3499999 20:0.14 21:0.88 24:0.44 38:0.28999999 50:0.204 52:0.204 53:0.127 54:0.102 55:2.9619999 56:73 57:400 #
-0.22972325847426411371543508721516 3:0.97000003 10:1.9400001 12:0.97000003 18:0.97000003 19:5.8200002 21:0.97000003 50:0.29300001 55:2.187 56:14 57:70 #
-0.22183553942023703786645683067036 10:1.1900001 12:2.3800001 19:1.1900001 25:1.1900001 26:1.1900001 28:2.3800001 36:1.1900001 50:0.62099999 55:2.6170001 56:11 57:89 #
-0.22972325847426411371543508721516 5:0.34 8:0.34 10:1.7 12:1.36 13:0.34 17:0.34 19:1.36 25:0.34 26:0.34 27:1.02 35:0.34 37:0.34 44:2.3800001 50:0.055 51:0.11 55:1.421 56:8 57:91 #
0.49999999999999367172875963660772 16:1.28 19:3.8399999 21:3.8399999 45:1.28 52:0.23 53:0.23 55:5.5380001 56:41 57:72 #
0.49999999999999367172875963660772 3:0.73000002 5:0.36000001 12:0.73000002 16:0.36000001 17:0.73000002 19:1.09 21:1.46 22:0.36000001 23:0.36000001 40:0.36000001 52:0.60399997 53:0.18099999 55:3.7869999 56:58 57:356 #
0.49999999999999367172875963660772 8:1.29 10:0.43000001 16:0.43000001 18:1.73 19:0.43000001 21:0.43000001 36:0.43000001 50:0.124 52:0.31 53:0.061999999 55:1.477 56:8 57:65 #
0.49999999999999367172875963660772 1:0.14 2:0.14 3:0.28999999 9:1.17 10:0.28999999 11:0.14 12:0.57999998 16:0.14 18:0.14 19:2.3499999 20:0.14 21:0.88 24:0.44 38:0.28999999 50:0.204 52:0.204 53:0.127 54:0.102 55:2.9619999 56:73 57:400 #
-0.22972325847426411371543508721516 27:4.7600002 55:1 56:1 57:4 #
-0.22972325847426411371543508721516 27:3.5699999 39:7.1399999 49:0.57800001 50:1.734 55:3.0829999 56:24 57:37 #
-0.23009993986165622192885393815232 3:1.33 10:1.33 25:1.33 26:1.33 28:2.6600001 36:1.33 50:0.41299999 55:4.3600001 56:46 57:109 #
0.49999999999999367172875963660772 2:0.56999999 3:0.56999999 5:1.14 6:0.56999999 7:2.28 10:0.56999999 12:0.56999999 18:0.56999999 19:3.4200001 21:1.14 45:0.56999999 50:0.081 52:0.48699999 54:0.081 55:16.216999 56:147 57:373 #
0.49999999999999367172875963660772 1:0.18000001 3:0.18000001 5:1.5700001 6:0.36000001 7:0.059999999 8:0.059999999 9:0.059999999 10:0.12 11:0.059999999 12:0.54000002 13:0.30000001 14:0.059999999 17:0.72000003 18:0.059999999 19:4.4899998 20:0.23999999 21:1.09 23:0.85000002 24:0.059999999 43:0.059999999 45:0.059999999 49:0.0099999998 50:0.052000001 52:0.0099999998 53:0.167 55:1.74 56:12 57:442 #
0.49999999999999367172875963660772 16:1.28 19:3.8399999 21:3.8399999 45:1.28 52:0.23 53:0.23 55:5.5380001 56:41 57:72 #
0.49999999999999367172875963660772 2:0.56999999 3:0.56999999 5:1.14 6:0.56999999 7:2.28 10:0.56999999 12:0.56999999 18:0.56999999 19:3.4200001 21:1.14 45:0.56999999 50:0.081 52:0.48699999 54:0.081 55:16.216999 56:147 57:373 #
-0.22995722036848242897377758708899 1:0.23 3:0.46000001 8:0.23 10:0.23 19:3.6900001 21:0.69 25:1.84 26:0.23 30:0.23 37:0.23 50:0.25299999 53:0.030999999 55:2.016 56:19 57:244 #
-0.22531038036168571370154722899315 25:9.5200005 26:4.7600002 27:4.7600002 28:4.7600002 29:4.7600002 30:4.7600002 31:4.7600002 32:4.7600002 34:4.7600002 35:4.7600002 36:4.7600002 40:4.7600002 50:1.257 55:3.3329999 56:11 57:30 #
-0.22995722036848242897377758708899 12:0.33000001 30:0.11 33:0.22 36:0.33000001 37:0.11 42:0.11 49:0.052999999 50:0.16 55:2.3670001 56:24 57:651 #
0.25178811435150794117987516074209 3:0.31999999 5:0.64999998 6:0.64999998 7:0.31999999 8:0.31999999 12:0.31999999 13:0.31999999 16:0.31999999 17:0.31999999 19:2.28 21:3.25 24:0.31999999 45:0.31999999 50:0.105 53:0.15700001 55:1.494 56:10 57:139 #
0.18721071508793751814181405279669 3:0.31999999 5:0.64999998 6:0.64999998 7:0.31999999 8:0.31999999 12:0.31999999 13:0.31999999 16:0.31999999 17:0.31999999 19:2.28 21:3.25 24:0.31999999 45:0.31999999 50:0.106 53:0.15899999 55:1.494 56:10 57:139 #
-0.23034408597104405469480070678401 12:3.3800001 17:1.6900001 50:0.204 52:0.40799999 55:6.1869998 56:47 57:99 #
-0.22943654336176777519540337380022 1:0.23 3:0.23 5:1.17 12:1.41 17:0.11 19:0.47 21:0.69999999 23:0.11 25:1.29 26:0.11 29:0.11 30:0.23 37:0.11 42:0.11 45:0.23 50:0.015 54:0.015 55:1.4859999 56:7 57:162 #
-0.22460059376530638886038104828913 12:1.24 33:6.2199998 55:1.6 56:7 57:64 #
0.31056214585221675328341461863602 16:1.28 19:3.8399999 21:3.8399999 45:1.28 52:0.23 53:0.23 55:5.5380001 56:41 57:72 #
-0.22964774192153203369315406234819 1:0.28999999 3:0.44 5:0.73000002 12:0.57999998 16:0.14 19:0.73000002 20:0.14 21:0.28999999 37:0.28999999 42:0.14 44:0.14 48:1.3200001 49:0.02 50:0.32100001 51:0.18000001 52:0.14 55:1.891 56:24 57:522 #
-0.2302381958125356842259634504444 3:1.09 10:1.09 12:2.1900001 25:1.09 26:1.09 28:2.1900001 36:1.09 50:0.32499999 55:4.586 56:51 57:133 #
-0.22848467076012490828418322053039 2:0.50999999 5:1.02 8:0.50999999 16:0.50999999 17:0.50999999 19:0.50999999 36:0.50999999 40:0.50999999 44:0.50999999 50:0.071000002 55:2.076 56:9 57:108 #
-0.2302381958125356842259634504444 2:0.61000001 5:1.22 10:3.6800001 15:0.61000001 19:1.84 21:1.84 25:0.61000001 26:0.61000001 30:2.45 37:0.61000001 55:1.476 56:8 57:62 #
-0.22851095843544910746203413509647 10:0.91000003 19:1.83 25:1.83 26:0.91000003 27:2.75 28:0.91000003 29:0.91000003 30:0.91000003 31:0.91000003 32:0.91000003 34:0.91000003 35:0.91000003 36:0.91000003 37:0.91000003 39:0.91000003 40:0.91000003 43:0.91000003 45:0.91000003 50:0.46000001 55:1.918 56:13 57:71 #
-0.22851095843544910746203413509647 12:4.5799999 17:0.91000003 21:0.91000003 25:1.83 30:0.91000003 36:0.91000003 39:0.91000003 50:0.12 52:0.241 55:3.5409999 56:26 57:85 #
-0.22903748159012027318937043673941 3:0.36000001 5:0.36000001 12:0.36000001 25:6.25 26:5.5100002 37:1.47 49:0.27900001 50:0.76700002 51:0.139 55:3.7219999 56:20 57:268 #
-0.22903748159012027318937043673941 3:0.18000001 6:0.090000004 12:0.94 13:0.37 17:0.28 25:1.41 33:0.83999997 36:0.47 37:0.090000004 38:0.090000004 49:0.052000001 50:0.064999998 55:2.0220001 56:19 57:451 #
-0.2294346048484254829702422284754 19:0.72000003 37:1.4400001 41:1.4400001 43:0.72000003 45:1.4400001 46:1.4400001 51:0.114 52:0.114 54:0.114 55:1.645 56:12 57:51 #
-0.23034408143564866211505659521208 45:1.36 55:1 56:1 57:8 #
-0.23009993986165622192885393815232 12:0.85000002 18:0.85000002 19:2.5599999 25:0.85000002 26:0.85000002 28:0.85000002 35:0.85000002 37:1.7 43:0.85000002 45:0.85000002 49:0.142 51:0.142 55:1.717 56:12 57:67 #
-0.23009993986165622192885393815232 10:1.22 18:0.61000001 19:1.84 25:2.45 26:1.84 27:1.22 28:1.22 29:0.61000001 30:0.61000001 31:0.61000001 32:0.61000001 34:0.61000001 35:1.22 36:0.61000001 37:0.61000001 40:0.61000001 43:0.61000001 45:0.61000001 49:0.094999999 50:0.38 51:0.19 52:0.19 55:1.857 56:12 57:104 #
-0.22848356554575199872658686217619 12:2.8099999 16:0.34999999 18:0.34999999 19:0.34999999 25:0.34999999 37:0.34999999 50:0.29300001 55:1.226 56:5 57:146 #
-0.22964360925850912931167613351136 12:0.54000002 13:0.54000002 19:0.54000002 36:0.54000002 39:0.54000002 42:2.7 44:0.54000002 50:0.086999997 52:0.086999997 55:2.3629999 56:5 57:52 #
-0.22910337140925596255414120605565 19:2.22 25:2.22 26:2.22 35:2.22 55:1.7690001 56:8 57:23 #
-0.22971742092778901778160616231617 27:1.8099999 33:3.6300001 45:1.8099999 55:1.181 56:3 57:13 #
-0.22964360925850912931167613351136 5:6.25 55:2 56:6 57:10 #
-0.22964360925850912931167613351136 10:0.89999998 12:1.8099999 25:0.89999998 26:0.89999998 28:1.8099999 36:0.89999998 39:0.89999998 50:1.2079999 55:5.1110001 56:58 57:138 #
-0.22865980009757369550982275541173 12:2.8499999 52:0.47999999 55:2 56:7 57:26 #
-0.22991528124047355685632965105469 19:0.33000001 46:0.67000002 48:0.33000001 50:0.041999999 55:2.5190001 56:46 57:131 #
-0.22991528124047355685632965105469 3:0.18000001 5:0.56 12:0.75 13:0.37 25:3.03 36:0.18000001 37:0.18000001 43:0.18000001 45:0.18000001 50:0.056000002 53:0.112 55:2.188 56:19 57:232 #
-0.22943654336176777519540337380022 1:0.20999999 3:0.20999999 4:0.20999999 5:0.63 11:0.41999999 13:0.20999999 16:0.83999997 18:0.41999999 19:1.9 23:0.20999999 37:0.20999999 50:0.030999999 52:0.37400001 53:0.061999999 55:2.892 56:71 57:405 #
-0.22943654336176777519540337380022 3:0.80000001 5:2.4200001 12:0.40000001 18:0.40000001 19:5.2600002 21:1.61 25:0.40000001 26:0.40000001 45:1.61 52:0.27000001 55:2.3599999 56:35 57:59 #
-0.22851095843544910746203413509647 12:7.6900001 25:3.8399999 26:3.8399999 29:7.6900001 42:7.6900001 52:0.58099997 55:1.615 56:4 57:21 #
-0.22851574506008187626093786093406 19:1.17 25:4.6999998 26:2.3499999 55:2.882 56:21 57:49 #
-0.2296332695555565184264423805871 3:0.22 12:0.68000001 13:0.89999998 16:0.22 17:0.22 25:1.36 31:0.22 37:0.44999999 50:0.093999997 55:2.1819999 56:42 57:203 #
-0.22955530705330462470925567686209 2:0.079999998 3:0.079999998 6:0.079999998 8:0.16 12:0.81 13:0.16 17:0.079999998 23:0.079999998 25:3.49 26:0.47999999 29:0.31999999 30:0.23999999 36:0.31999999 37:0.079999998 42:0.079999998 48:0.079999998 49:0.022 50:0.111 53:0.055 55:2.145 56:21 57:693 #
-0.23038789691058769726339505723445 1:0.22 3:0.22 5:0.44999999 13:0.68000001 16:0.22 19:0.68000001 20:0.22 37:0.22 41:0.68000001 43:0.22 44:1.83 45:0.22 46:0.91000003 50:0.26699999 51:0.037999999 55:1.649 56:13 57:94 #
-0.2296332695555565184264423805871 27:13.33 45:6.6599998 52:1.149 55:1.5 56:3 57:12 #
-0.22903081468814467935857237534947 2:1.17 9:1.17 26:1.17 27:2.3499999 37:1.17 48:1.17 49:0.37599999 55:2.925 56:16 57:117 #
-0.22903748159012027318937043673941 3:1.5599999 5:1.5599999 10:1.5599999 12:6.25 18:1.5599999 19:1.5599999 21:1.5599999 50:0.278 55:1 56:1 57:11 #
-0.22958652210439556284882200998254 33:8.3299999 50:0.68699998 55:1.903 56:17 57:59 #
-0.22958652210439556284882200998254 5:0.27000001 10:0.27000001 12:0.54000002 14:0.54000002 17:0.54000002 19:1.63 25:4.8899999 26:1.35 27:0.27000001 28:0.27000001 29:0.27000001 30:0.27000001 31:0.27000001 32:0.27000001 34:0.27000001 35:0.27000001 36:0.27000001 39:0.27000001 40:0.27000001 43:0.27000001 45:0.81 50:0.192 51:0.153 55:4.6079998 56:35 57:424 #
-0.22943654336176777519540337380022 19:2.6300001 35:2.6300001 42:2.6300001 52:0.414 55:2.7049999 56:13 57:46 #
-0.22943654336176777519540337380022 3:0.2 8:0.2 10:0.2 18:0.2 19:0.2 25:0.2 26:0.2 28:0.41 33:0.2 35:0.2 37:0.2 50:0.148 55:1.669 56:15 57:187 #
-0.22844090233739611228713783930289 2:0.22 5:0.66000003 6:0.22 8:0.44 9:0.44 10:0.88999999 13:0.22 14:0.22 16:1.33 19:0.88999999 21:0.44 24:0.22 25:3.3399999 26:3.5599999 27:0.66000003 28:0.22 29:0.22 30:0.22 31:0.22 32:0.22 34:0.22 35:0.22 36:0.22 37:1.11 40:0.22 43:0.22 45:0.22 49:0.148 50:0.37200001 51:0.111 52:0.37200001 53:0.223 55:3.425 56:42 57:411 #
-0.2294346048484254829702422284754 19:2.6600001 25:1.33 28:1.33 50:0.47799999 55:2.1659999 56:18 57:52 #
-0.22851574506008187626093786093406 2:0.039999999 3:0.25 5:0.039999999 6:0.039999999 9:0.16 10:0.079999998 11:0.2 12:0.62 16:0.16 17:0.039999999 19:0.70999998 21:0.41 23:0.12 25:2.01 26:0.41 28:0.12 30:0.079999998 31:0.12 35:0.039999999 37:0.2 44:0.079999998 45:0.079999998 48:0.039999999 49:0.012 50:0.27399999 51:0.012 52:0.030999999 53:0.056000002 55:1.83 56:23 57:1479 #
-0.22933122246053416759536958124954 12:4.3400002 17:0.62 21:0.62 25:3.0999999 30:0.62 36:0.62 39:0.62 45:0.62 50:0.16599999 52:0.333 55:4.2550001 56:34 57:200 #
-0.048338804207105345867034884577151 2:0.38999999 3:0.19 5:0.19 6:0.090000004 12:0.28999999 15:0.28999999 18:0.28999999 19:0.88999999 21:0.28999999 25:0.49000001 26:0.49000001 37:0.19 41:4.75 43:0.090000004 45:0.090000004 46:5.7399998 49:1.352 50:0.079999998 52:0.016000001 55:1.679 56:17 57:178 #
-0.18017224642729590122769423032878 2:0.38999999 3:0.19 5:0.19 6:0.090000004 12:0.28999999 15:0.28999999 18:0.28999999 19:0.88999999 21:0.28999999 25:0.49000001 26:0.49000001 37:0.19 41:4.75 43:0.090000004 45:0.090000004 46:5.7399998 49:1.353 50:0.079999998 52:0.016000001 55:1.679 56:17 57:178 #
-0.23009993986165622192885393815232 3:0.93000001 5:0.31 9:0.31 11:0.31 12:0.93000001 17:0.62 19:3.75 21:3.4300001 37:0.31 49:0.054000001 50:0.108 52:0.054000001 54:0.054000001 55:2.7349999 56:14 57:145 #
-0.22844090233739611228713783930289 10:0.83999997 12:0.83999997 19:4.1999998 25:1.6799999 51:0.119 55:1.454 56:9 57:32 #
-0.22844090233739611228713783930289 12:4.5799999 17:0.91000003 21:0.91000003 25:1.83 30:0.91000003 36:0.91000003 39:0.91000003 50:0.124 52:0.249 55:2.576 56:14 57:67 #
-0.22998423723092231707454402567237 3:0.86000001 8:0.86000001 12:1.73 25:3.47 26:5.21 47:0.86000001 50:0.125 55:1.8 56:9 57:72 #
-0.22998423723092231707454402567237 25:4.4099998 26:4.4099998 28:1.47 35:1.47 55:2.5650001 56:10 57:59 #
-0.22998423723092231707454402567237 1:0.059999999 3:0.19 5:0.25999999 6:0.059999999 8:0.19 10:0.059999999 12:1.12 13:0.059999999 14:0.19 17:0.51999998 20:0.58999997 21:0.059999999 23:0.38999999 25:3.23 33:0.059999999 36:0.19 37:0.13 44:0.059999999 49:0.071999997 50:0.117 53:0.063000001 55:2.1210001 56:25 57:751 #
-0.22848356554575199872658686217619 41:1.4400001 43:1.4400001 45:2.8900001 46:1.4400001 51:0.227 55:1.64 56:12 57:41 #
-0.22848356554575199872658686217619 4:0.14 5:0.41999999 8:0.14 12:0.98000002 14:0.14 17:0.69999999 25:1.8200001 26:0.28 29:0.28 30:0.69999999 36:0.28 37:0.14 45:0.14 50:0.077 55:1.502 56:6 57:257 #
-0.22848356554575111054816716205096 25:7.6900001 26:2.5599999 55:2 56:6 57:24 #
-0.22991528124047350134517841979687 12:4.25 19:6.3800001 27:2.1199999 55:1.133 56:3 57:17 #
-0.22873551870624175830215563109959 5:0.68000001 10:0.68000001 12:0.68000001 15:0.68000001 18:0.68000001 19:1.36 21:0.68000001 25:2.72 26:1.36 27:1.36 28:0.68000001 29:0.68000001 30:0.68000001 31:0.68000001 32:0.68000001 34:0.68000001 35:0.68000001 36:0.68000001 37:0.68000001 39:0.68000001 40:0.68000001 43:0.68000001 44:0.68000001 45:0.68000001 49:0.104 50:0.41800001 51:0.104 55:2.102 56:12 57:82 #
-0.22991528124047355685632965105469 4:0.15000001 5:0.46000001 8:0.15000001 12:0.92000002 14:0.15000001 17:0.46000001 25:2.1500001 26:0.30000001 29:0.30000001 30:0.92000002 36:0.30000001 37:0.15000001 45:0.15000001 50:0.085000001 55:1.535 56:6 57:238 #
-0.2303878969105878082856975197501 5:0.68000001 10:0.68000001 15:0.68000001 19:0.68000001 25:2.72 26:2.72 27:2.04 28:2.04 29:0.68000001 30:0.68000001 31:0.68000001 32:0.68000001 34:0.68000001 35:2.04 36:0.68000001 37:0.68000001 39:0.68000001 40:0.68000001 43:0.68000001 44:0.68000001 45:0.68000001 50:0.82800001 51:0.62099999 55:2.277 56:12 57:123 #
-0.22870491693716521464097013449646 19:1.92 21:0.63999999 26:3.2 36:0.63999999 49:0.213 52:0.106 55:2.714 56:47 57:95 #
-0.22850851278311912206930855973042 3:0.2 5:0.2 10:0.80000001 12:1 19:0.2 21:0.2 25:1.4 26:1.6 27:0.2 28:0.2 29:0.2 30:0.2 31:0.2 32:0.2 34:0.2 35:0.40000001 36:0.2 37:1 39:0.2 40:0.2 43:0.2 44:0.80000001 48:0.2 50:0.42899999 51:0.029999999 55:2.7030001 56:50 57:346 #
-0.22850851278311912206930855973042 3:0.43000001 19:0.43000001 25:6.9200001 26:3.8900001 37:2.1600001 41:1.29 44:0.43000001 49:0.31799999 50:0.71700001 51:0.15899999 52:0.079000004 55:4.4109998 56:19 57:300 #
-0.22850851278311912206930855973042 1:0.050000001 3:0.1 5:0.15000001 6:0.050000001 9:0.56999999 12:0.25999999 18:0.050000001 19:0.20999999 21:0.15000001 25:0.63 26:0.68000001 27:0.050000001 33:0.73000002 37:0.41999999 47:0.050000001 49:0.193 50:0.17 51:0.059 53:0.014 55:3.461 56:66 57:1170 #
-0.22848356554575111054816716205096 1:0.07 3:0.14 5:0.07 9:0.74000001 12:0.22 14:0.07 18:0.07 19:0.28999999 21:0.22 25:0.74000001 26:0.81 27:0.07 33:0.22 37:0.44 49:0.116 50:0.2 51:0.041999999 53:0.021 55:2.79 56:36 57:681 #
-0.22848356554575199872658686217619 1:0.12 3:0.60000002 5:0.60000002 12:0.12 13:0.12 15:0.12 17:0.73000002 19:0.60000002 21:0.47999999 25:1.58 28:0.23999999 31:0.47999999 35:0.36000001 37:0.12 42:1.33 44:0.12 45:0.12 48:0.12 49:0.016000001 50:0.148 52:0.033 53:0.016000001 55:2.056 56:65 57:364 #
-0.22848356554575199872658686217619 3:0.41999999 5:0.41999999 6:0.14 12:1.5599999 13:0.14 17:0.28 19:0.14 21:0.14 25:3.1199999 27:0.14 29:1.27 30:0.41999999 36:0.56 37:0.28 39:0.14 43:0.14 45:0.14 49:0.057999998 50:0.018999999 51:0.018999999 55:2.345 56:17 57:333 #
-0.22848356554575199872658686217619 3:2.04 5:2.04 19:2.04 42:4.0799999 50:0.722 55:1.1 56:2 57:11 #
-0.22848356554575199872658686217619 12:1.13 39:1.13 42:3.4000001 49:0.198 50:0.396 55:2.076 56:5 57:27 #
-0.22973794696590177366601892572362 12:2.77 19:2.77 25:5.5500002 26:2.77 27:2.77 28:2.77 29:5.5500002 30:2.77 31:2.77 32:2.77 34:2.77 35:2.77 36:2.77 40:2.77 50:1.229 55:3.25 56:11 57:39 #
-0.22973794696590177366601892572362 12:1.42 21:4.2800002 25:2.8499999 26:1.42 27:4.2800002 28:1.42 29:1.42 30:1.42 31:1.42 32:1.42 34:1.42 35:1.42 36:1.42 37:1.42 39:1.42 40:1.42 43:1.42 45:1.42 50:0.419 55:2.1329999 56:12 57:64 #
-0.11608054974931292235851287841797 1:0.2 2:0.059999999 3:0.2 5:0.40000001 12:0.94999999 13:0.27000001 16:0.059999999 17:0.059999999 25:3.47 33:0.059999999 36:0.34 37:0.059999999 43:0.13 44:0.059999999 45:0.059999999 48:0.13 49:0.028000001 50:0.093000002 53:0.017999999 55:2.4230001 56:26 57:693 #
-0.22971742092779234845068003778579 1:0.059999999 2:0.039999999 3:0.28999999 5:0.079999998 6:0.059999999 8:0.13 9:0.02 10:0.11 12:0.47 14:0.02 15:0.02 16:0.13 17:0.13 18:0.079999998 19:0.23999999 21:0.17 28:0.02 29:0.02 33:1.7 36:0.22 37:0.82999998 38:0.02 41:0.059999999 42:0.039999999 43:0.02 44:0.059999999 46:0.28999999 47:0.02 48:0.15000001 49:0.032000002 50:0.176 52:0.003 53:0.003 55:2.201 56:79 57:2631 #
-0.22966696850790857542534695312497 10:2.5 12:5 52:0.43599999 55:1.7 56:8 57:17 #
-0.22844090233739611228713783930289 12:4.7600002 52:0.76899999 55:1.428 56:4 57:10 #
-0.22848467407393258099546073935926 10:1.1900001 25:1.1900001 26:1.1900001 28:2.3800001 36:1.1900001 39:1.1900001 50:0.40400001 55:3.3789999 56:11 57:98 #
-0.22958652210439556284882200998254 3:0.31999999 5:0.49000001 6:0.16 12:1.48 17:0.31999999 19:0.16 21:0.16 25:1.3099999 29:1.3099999 30:0.49000001 36:0.64999998 37:0.16 45:0.16 50:0.022 55:1.638 56:6 57:154 #
-0.22848356554575199872658686217619 8:0.67000002 12:1.35 16:0.67000002 19:4.0500002 21:2.02 25:0.67000002 35:0.67000002 45:0.67000002 50:0.38600001 55:3.27 56:19 57:121 #
-0.22951479352399495326153555652127 25:9.3000002 55:3.2219999 56:9 57:29 #
-0.22951479352399495326153555652127 3:3.4400001 18:3.4400001 21:3.4400001 55:1.727 56:4 57:19 #
-0.22933122246053416759536958124954 5:0.33000001 10:0.66000003 19:0.66000003 21:0.33000001 25:7.6100001 26:2.6400001 33:0.33000001 37:1.3200001 41:2.3099999 42:0.33000001 44:0.33000001 49:0.34900001 50:0.52399999 51:0.116 55:3.6270001 56:19 57:341 #
-0.22933122246053416759536958124954 5:1.4 12:2.8099999 52:0.23899999 55:1.923 56:7 57:50 #
-0.22865980104965577535125476060784 10:0.52999997 12:2.6800001 19:0.52999997 25:0.52999997 26:0.52999997 28:1.0700001 36:0.52999997 39:1.0700001 50:0.19400001 55:3.7309999 56:21 57:153 #
-0.2302381958125356842259634504444 12:3.5699999 21:10.71 27:3.5699999 55:1 56:1 57:7 #
-0.2302381958125356842259634504444 19:8.3299999 45:16.66 52:0.92500001 55:1.8329999 56:6 57:11 #
-0.22964774192153203369315406234819 5:7.1399999 45:7.1399999 55:1.6 56:4 57:8 #
-0.22971742092779234845068003778579 3:1.96 16:1.96 42:3.9200001 45:3.9200001 55:1.647 56:4 57:28 #
-0.22971742092779234845068003778579 12:1.0599999 19:1.0599999 25:3.1900001 26:1.0599999 37:1.0599999 39:2.1199999 50:0.168 52:0.168 55:1.75 56:7 57:63 #
-0.22844090233739611228713783930289 12:3.1900001 17:1.0599999 26:1.0599999 39:1.0599999 50:0.14300001 55:2.714 56:13 57:76 #
-0.2292272764430807185931371350307 1:0.63999999 3:0.63999999 12:0.63999999 16:0.63999999 19:0.63999999 39:0.63999999 42:0.63999999 44:0.63999999 49:0.30899999 50:0.61900002 55:1.727 56:5 57:57 #
-0.22963139352482520028075896334485 45:7.6900001 55:1.3329999 56:2 57:4 #
-0.22903748159012027318937043673941 16:1.38 19:1.38 27:2.77 37:1.38 45:1.38 48:1.38 55:1.666 56:9 57:35 #
-0.22848356554575199872658686217619 10:0.28 12:0.56 25:1.13 26:0.83999997 28:0.56 30:0.83999997 35:0.56 37:0.56 48:0.28 50:0.26199999 55:3.25 56:75 57:286 #
-0.22933122246053416759536958124954 42:3.7 52:0.523 55:2.5710001 56:10 57:36 #
-0.22943577938809134320052862676675 3:1.36 5:0.68000001 6:0.68000001 19:2.05 27:1.36 37:0.68000001 50:0.35699999 55:1.294 56:5 57:44 #
-0.2294346048484254829702422284754 1:0.029999999 2:0.029999999 9:0.059999999 10:0.090000004 11:0.029999999 12:0.15000001 17:0.029999999 18:0.12 19:0.029999999 25:0.46000001 26:0.27000001 29:0.029999999 30:0.059999999 36:0.029999999 37:0.15000001 41:0.36000001 43:0.029999999 45:0.12 46:1.1900001 49:0.024 50:0.178 52:0.12800001 55:3.427 56:49 57:1827 #
-0.2294346048484254829702422284754 3:0.27000001 10:0.82999998 12:0.55000001 25:0.55000001 26:0.27000001 28:0.55000001 30:0.27000001 46:0.27000001 49:0.082000002 50:0.164 55:2.2349999 56:51 57:199 #
-0.2294346048484254829702422284754 3:2.27 12:4.54 39:2.27 52:0.296 55:5.25 56:32 57:63 #
-0.23034408597104405469480070678401 3:0.69999999 6:0.69999999 19:3.54 21:0.69999999 27:1.41 37:0.69999999 45:0.69999999 49:0.126 50:0.252 55:1.375 56:5 57:55 #
-0.22955530705330462470925567686209 3:0.63999999 6:0.63999999 19:3.8399999 21:0.63999999 25:1.28 26:0.63999999 27:1.92 28:0.63999999 29:0.63999999 30:0.63999999 31:0.63999999 32:0.63999999 34:0.63999999 35:0.63999999 36:0.63999999 37:0.63999999 39:0.63999999 40:0.63999999 43:0.63999999 45:1.28 50:0.22499999 52:0.22499999 55:1.902 56:12 57:78 #
-0.22955530705330462470925567686209 12:1.58 33:4.7600002 44:6.3400002 55:1.2589999 56:3 57:34 #
-0.22971742092779234845068003778579 19:9.0900002 27:9.0900002 45:9.0900002 55:1 56:1 57:6 #
-0.22971742093212088597908859810559 10:2.98 15:1.49 25:1.49 26:1.49 37:1.49 43:1.49 50:0.20900001 51:0.20900001 55:3.5 56:17 57:49 #
-0.22966696850790857542534695312497 29:14.28 42:14.28 52:1.123 55:1.3 56:4 57:13 #
-0.22851574506008187626093786093406 12:2.1800001 19:1.45 25:2.1800001 28:0.72000003 44:1.45 50:0.122 55:1.785 56:18 57:75 #
-0.22851574506008187626093786093406 2:0.99000001 5:0.49000001 8:0.49000001 12:0.49000001 18:1.98 19:2.97 21:1.48 36:0.49000001 52:0.081 55:1.348 56:4 57:58 #
-0.22851574506008187626093786093406 5:0.51999998 18:0.51999998 21:0.51999998 25:0.51999998 26:0.51999998 27:0.51999998 28:1.05 30:0.51999998 42:0.51999998 50:0.16599999 55:3.888 56:55 57:140 #
-0.22942664485086039505290500528645 5:0.75999999 17:0.75999999 25:2.3 26:0.75999999 30:1.53 55:2.3 56:7 57:138 #
-0.22942664485086039505290500528645 2:0.2 3:0.2 12:1.03 18:0.62 19:0.41 25:2.49 26:0.62 36:0.2 37:0.2 48:0.2 50:0.086999997 55:2.7969999 56:127 57:512 #
-0.22942664485086039505290500528645 1:0.039999999 2:0.090000004 3:0.31 5:0.039999999 6:0.22 7:0.039999999 10:0.57999998 11:0.090000004 12:1.17 16:0.13 17:0.039999999 19:1.3 21:1.17 23:0.039999999 25:0.89999998 26:0.54000002 28:0.039999999 30:0.18000001 31:0.18000001 35:0.18000001 36:0.039999999 37:0.31 39:0.22 41:0.039999999 45:0.13 46:0.039999999 48:0.090000004 49:0.013 50:0.22400001 52:0.027000001 53:0.0060000001 55:1.784 56:29 57:1192 #
-0.22910337140925596255414120605565 3:5.0999999 5:2.04 12:1.02 19:1.02 27:1.02 50:1.094 55:1.29 56:5 57:40 #
-0.22873551870625852266982747096336 1:0.27000001 3:0.13 5:0.81999999 12:0.55000001 13:0.41 19:1.24 21:1.1 25:1.65 26:0.81999999 27:0.13 28:0.13 29:0.13 30:0.13 31:0.13 32:0.13 34:0.13 35:0.13 36:0.13 37:0.41 40:0.13 42:0.41 43:0.13 45:0.41 48:0.27000001 49:0.041000001 50:0.102 51:0.02 52:0.02 55:2.78 56:34 57:367 #
-0.22873551870625852266982747096336 27:33.330002 55:1 56:1 57:3 #
-0.22848467407393258099546073935926 8:0.38999999 12:0.38999999 25:0.38999999 29:0.38999999 30:0.38999999 33:0.38999999 36:0.38999999 37:0.38999999 50:0.048999999 55:2 56:38 57:124 #
-0.22998423723092231707454402567237 5:1.58 6:0.79000002 12:3.1700001 18:0.79000002 25:1.58 26:1.58 28:1.58 31:0.79000002 35:0.79000002 44:3.1700001 50:0.26300001 55:2.575 56:15 57:103 #
-0.22998423723092231707454402567237 37:1.36 46:0.68000001 48:0.68000001 50:0.13600001 55:4.3410001 56:46 57:178 #
-0.22905112710682973276021812125691 5:3.27 19:1.63 27:1.63 42:4.9099998 55:1.545 56:5 57:17 #
-0.2292272764430807185931371350307 8:0.40000001 12:0.81 13:0.40000001 19:1.22 25:2.8599999 26:2.45 29:0.40000001 30:0.40000001 37:0.40000001 39:0.40000001 44:0.40000001 48:2.45 49:0.126 50:0.063000001 51:0.063000001 52:0.063000001 55:1.6109999 56:12 57:116 #
-0.2292272764430807185931371350307 12:3.3299999 27:3.3299999 42:3.3299999 45:3.3299999 55:1.3 56:4 57:13 #
-0.2302381958125356842259634504444 5:2.0799999 11:0.82999998 12:0.82999998 16:0.82999998 18:1.66 19:2.9100001 21:0.41 50:0.131 52:0.329 54:0.064999998 55:2.9619999 56:11 57:157 #
-0.2292272764430807185931371350307 3:1.16 12:2.3199999 18:3.48 21:1.16 25:2.3199999 26:1.16 28:1.16 30:1.16 31:1.16 35:1.16 36:1.16 39:1.16 50:0.139 52:0.139 55:1.515 56:10 57:50 #
-0.22850851278311912206930855973042 8:0.5 12:1 13:0.5 19:1.5 25:1 26:0.5 29:0.5 30:0.5 44:0.5 48:2.5 50:0.075000003 52:0.075000003 55:1.483 56:6 57:89 #
-0.22933122246053416759536958124954 18:1.12 19:1.12 21:1.12 25:1.12 26:1.12 28:2.24 30:1.12 50:0.32600001 55:4.6890001 56:55 57:136 #
-0.2301426466395900538586261063756 12:0.5 18:0.5 19:1.5 21:0.5 25:2.01 26:1.5 27:1 28:1 35:0.5 45:1 50:0.168 51:0.083999999 52:0.083999999 54:0.168 55:2.303 56:15 57:129 #
-0.2301426466395900538586261063756 25:2.1700001 35:2.1700001 50:0.68199998 55:4.2080002 56:15 57:101 #
-0.2302381958125356842259634504444 3:1.1900001 18:1.1900001 21:1.1900001 25:4.7600002 26:2.3800001 28:1.1900001 30:1.1900001 31:1.1900001 35:1.1900001 36:1.1900001 50:0.28600001 52:0.28600001 54:0.14300001 55:2.724 56:13 57:79 #
-0.23038789691058647601806796956225 5:0.73000002 6:0.23999999 10:0.23999999 12:0.49000001 19:2.46 21:0.49000001 25:1.23 26:0.73000002 27:1.47 28:0.49000001 29:0.49000001 30:0.49000001 31:0.49000001 32:0.49000001 34:0.49000001 35:0.49000001 36:0.49000001 39:0.49000001 40:0.49000001 43:0.73000002 45:0.73000002 50:0.287 51:0.041000001 52:0.041000001 54:0.041000001 55:1.7920001 56:12 57:224 #
-0.22942664485086017300830008025514 10:1.5599999 19:1.5599999 25:1.5599999 26:1.5599999 28:3.1199999 36:1.5599999 50:0.484 55:3 56:11 57:81 #
-0.22966696850790857542534695312497 19:4.7600002 27:4.7600002 45:4.7600002 48:4.7600002 55:1.8 56:5 57:9 #
-0.22971742093212088597908859810559 1:0.0099999998 3:0.029999999 5:0.33000001 6:0.029999999 9:0.23 10:0.0099999998 12:0.090000004 16:0.13 18:0.0099999998 19:0.07 21:0.050000001 25:0.52999997 26:0.55000001 27:0.0099999998 33:0.47 35:0.0099999998 36:0.0099999998 37:0.44999999 38:0.0099999998 43:0.0099999998 47:0.050000001 49:0.2 50:0.127 51:0.064000003 53:0.0049999999 55:2.589 56:38 57:2349 #
-0.23034408597104405469480070678401 1:0.050000001 3:0.1 5:0.16 6:0.050000001 9:0.47999999 12:0.16 18:0.050000001 19:0.20999999 21:0.16 25:0.63999999 26:0.69 27:0.050000001 33:0.25999999 36:0.16 37:0.75 45:0.050000001 49:0.17200001 50:0.19499999 51:0.061999999 53:0.015 55:2.7579999 56:47 57:1073 #
-0.22865980104965566432895229809219 3:0.47 5:1.91 12:1.91 16:0.47 42:1.4299999 45:0.94999999 55:1.233 56:4 57:37 #
-0.22851574506008187626093786093406 2:14.28 55:1.8 56:5 57:9 #
-0.22851574506008187626093786093406 19:2.3699999 21:1.01 25:0.67000002 26:1.6900001 27:1.01 28:0.33000001 30:0.67000002 35:0.33000001 37:0.33000001 41:1.01 43:0.33000001 45:1.01 46:1.01 50:0.108 55:1.851 56:13 57:100 #
-0.22933122246053416759536958124954 3:0.38 5:0.38 12:0.38 13:0.38 19:1.14 21:0.38 45:0.38 50:0.414 52:0.27599999 55:1.104 56:2 57:53 #
-0.22933122246053416759536958124954 1:0.25999999 6:0.25999999 9:0.25999999 12:0.77999997 33:2.3499999 41:0.25999999 46:0.51999998 50:0.033 55:2.921 56:61 57:111 #
-0.22905112710682973276021812125691 3:3.4400001 5:3.4400001 19:3.4400001 27:3.4400001 50:0.60900003 55:1.5 56:4 57:15 #
-0.22991527623003621405572971525544 12:1.04 19:5.1999998 27:1.04 50:0.19499999 55:1.071 56:2 57:15 #
-0.22922727644308005245932235993678 19:8.1000004 45:2.7 55:1.8 56:5 57:9 #
-0.22903748159011871887713596152025 10:0.38999999 19:0.38999999 25:2.3499999 26:0.38999999 27:1.17 28:0.38999999 29:0.38999999 30:0.77999997 31:0.38999999 32:0.38999999 34:0.38999999 35:0.38999999 36:1.5599999 37:0.38999999 40:0.38999999 42:0.38999999 43:0.38999999 45:0.38999999 48:0.38999999 50:0.31400001 52:0.125 55:1.955 56:13 57:133 #
-0.2279171079755764051100186406984 19:8.1000004 45:2.7 55:1 56:1 57:5 #
-0.22714153747733811794518032911583 50:1.369 55:1.25 56:2 57:5 #
-0.22905112710682784538107625849079 6:0.64999998 8:0.64999998 10:0.64999998 12:1.97 27:0.64999998 45:0.64999998 49:0.108 50:0.108 53:0.108 55:1.924 56:9 57:102 #
-0.22972325847391306119504861271707 3:2.5 42:2.5 55:1 56:1 57:15 #
-0.22966694379649010837596279088757 3:0.58999997 5:0.58999997 12:2.3800001 18:1.1900001 19:0.58999997 25:1.78 26:1.1900001 28:0.58999997 30:0.58999997 31:0.58999997 35:0.58999997 36:0.58999997 39:1.1900001 50:0.177 52:0.088 55:1.8 56:10 57:81 #
-0.22901939123910119988636324706022 27:16.66 55:1.666 56:3 57:5 #
-0.22873551870625252746549449511804 25:1.63 36:1.63 55:2.187 56:5 57:35 #
-0.2290511271067949827795473538572 33:2.3199999 45:2.3199999 55:2 56:4 57:16 #
-0.22851574506007255038753100961912 3:1.09 12:1.09 19:3.29 30:2.1900001 55:1.1109999 56:2 57:20 #
-0.22905112687438611285273282192065 5:0.38 12:2.28 19:0.75999999 25:1.14 26:0.75999999 29:0.38 30:1.14 55:1.352 56:3 57:46 #
-0.22922727644303453331531272851862 10:1.85 19:3.7 27:1.85 52:0.34900001 55:1.47 56:4 57:25 #
-0.22848467407387929029027873184532 12:0.31999999 18:0.31999999 19:1.28 21:0.31999999 25:4.48 26:3.52 27:0.95999998 28:0.95999998 29:0.63999999 30:0.31999999 31:0.31999999 32:0.31999999 34:0.31999999 35:0.63999999 36:0.31999999 37:0.31999999 40:0.31999999 43:0.31999999 45:0.95999998 49:0.264 50:0.211 51:0.105 52:0.052000001 54:0.105 55:2.2579999 56:15 57:192 #
-0.22848467407387285099673590593738 5:1.17 10:1.17 19:2.3499999 27:1.17 28:1.17 55:1.551 56:10 57:45 #
-0.22964774178842362051256031918456 12:1.35 19:2.7 21:1.35 26:1.35 43:1.35 55:1.88 56:5 57:47 #
-0.22991528124036431091070653565112 6:1.34 18:0.67000002 19:1.34 27:0.67000002 33:1.34 44:0.67000002 45:0.67000002 50:0.111 55:1.285 56:5 57:27 #
-0.22991528123871518562992832812597 3:1.63 12:1.63 16:1.63 19:1.63 21:1.63 55:1.181 56:3 57:13 #
-0.2296313935234176595301391898829 2:0.25999999 3:0.25999999 5:0.25999999 8:0.25999999 11:0.25999999 12:1.0700001 17:0.52999997 19:1.0700001 21:1.0700001 25:1.34 50:0.111 53:0.037 55:1.564 56:8 57:194 #
-0.22851095843146873587414802386775 12:0.34999999 19:0.34999999 21:1.0599999 25:1.41 26:1.0599999 27:0.69999999 28:0.34999999 29:0.34999999 30:0.69999999 31:0.34999999 32:0.34999999 33:0.34999999 34:0.34999999 35:0.34999999 36:0.34999999 37:0.34999999 40:0.34999999 43:0.34999999 45:0.69999999 50:0.222 51:0.055 55:1.506 56:12 57:119 #
-0.22870491692182970400182284720358 12:0.88999999 19:0.88999999 25:1.78 26:1.78 28:0.88999999 35:0.88999999 36:0.88999999 48:0.88999999 50:0.537 54:0.26800001 55:2.2920001 56:12 57:94 #
-0.22922727640186624231688483632752 1:0.87 3:0.87 19:1.75 50:0.493 55:1.344 56:4 57:39 #
-0.22759162305838498419063853361877 46:1.2 50:0.163 55:1.153 56:3 57:15 #
-0.22964774175647251208687293910771 55:1.6 56:4 57:8 #
-0.22905112656873205523311298748013 3:0.81 5:1.63 19:0.81 27:0.81 38:0.81 55:1.09 56:2 57:12 #
-0.22964774184511260735064297477948 1:0.79000002 3:0.79000002 5:0.79000002 12:0.79000002 19:0.79000002 54:0.147 55:1.166 56:4 57:42 #
-0.22903748082075692238390729471575 12:0.85000002 25:0.41999999 26:0.41999999 36:1.28 55:1.536 56:8 57:106 #
-0.2287355177360897995342270405672 12:4.9000001 55:2.454 56:5 57:27 #
-0.22966696684191056920809614894097 1:0.23999999 3:0.12 6:0.12 7:0.23999999 12:0.37 19:0.86000001 21:0.23999999 25:1.24 26:0.62 27:0.49000001 28:0.23999999 29:0.23999999 30:0.23999999 31:0.23999999 32:0.23999999 33:0.37 34:0.23999999 35:0.23999999 36:0.23999999 37:0.23999999 39:0.23999999 40:0.23999999 42:0.12 43:0.23999999 44:0.86000001 45:0.23999999 49:0.017999999 50:0.29699999 51:0.055 55:1.801 56:13 57:227 #
-0.22951479172756850122283367454656 19:3.22 50:0.55199999 55:1.6 56:4 57:8 #
-0.22905110349964633020825033327128 19:4.1599998 52:0.74000001 55:1.625 56:6 57:13 #
-0.22991527857700766457327290481771 5:0.31 12:0.31 25:0.31 28:0.63 30:0.63 33:0.63 35:0.31 50:0.045000002 55:1.813 56:11 57:107 #
-0.22950487891407778118235682995874 3:0.55000001 19:1.65 21:0.55000001 27:0.55000001 38:0.55000001 44:1.1 45:0.55000001 50:0.092 55:1.84 56:5 57:46 #
-0.22971741647165222488524705113377 45:4.3400002 55:1 56:1 57:8 #
-0.22958651002875429814054086818942 6:0.14 10:0.14 18:0.28999999 19:0.74000001 21:0.14 25:0.14 26:0.14 27:0.58999997 33:0.14 37:0.58999997 45:0.44 50:0.29699999 55:1.803 56:27 57:238 #
-0.22922725150490008694248444953701 3:0.62 12:0.62 18:0.62 19:1.25 25:1.25 26:0.62 28:0.62 30:0.62 31:0.62 33:0.62 35:0.62 36:0.62 45:0.62 50:0.083999999 52:0.169 55:1.863 56:10 57:82 #
-0.2290511004390991256496334926851 19:4 52:0.72899997 55:1.875 56:4 57:15 #
-0.22964356781299455345646265413961 19:2.9400001 27:5.8800001 37:2.9400001 45:2.9400001 55:1.562 56:5 57:25 #
-0.2295552045934208251765085151419 3:0.31999999 5:0.31999999 12:0.63999999 19:0.31999999 25:0.63999999 26:0.63999999 36:0.31999999 37:0.63999999 50:0.039999999 55:1.677 56:10 57:156 #
-0.22848432774990945492987748366431 3:0.91000003 8:0.44999999 19:2.28 25:0.91000003 26:0.91000003 35:0.44999999 55:1.3200001 56:7 57:103 #
-0.22966049414633604719426784868119 5:0.50999999 13:0.50999999 19:1.55 27:0.50999999 33:1.03 52:0.28099999 55:1.363 56:5 57:45 #
-0.22965907020202216970439224041911 19:0.56 21:1.12 30:0.56 45:0.56 50:0.096000001 55:1.15 56:4 57:46 #
-0.22844158829399852095320966327563 49:0.32499999 55:1 56:1 57:14 #
-0.22970694834450733345931894291425 27:16.66 55:1 56:1 57:5 #
-0.22843721994102983430252606922295 2:1.12 9:1.12 26:1.12 27:2.24 37:1.12 48:1.12 49:0.361 55:2.875 56:16 57:115 #
-0.22798425144785339213626684795599 19:4.3400002 55:1.3329999 56:3 57:12 #
-0.22797681001233127684457713257871 3:0.079999998 6:0.25 8:0.25 9:0.079999998 12:1.17 13:0.079999998 14:0.25 17:0.41999999 25:3.1099999 33:0.16 36:0.25 37:0.25 49:0.034000002 50:0.079999998 55:2.023 56:27 57:694 #
-0.21381695795169275431391042729956 55:1 56:1 57:5 #
-0.22939403437415462061466087106965 12:1.4 17:0.69999999 19:1.4 21:1.4 27:0.69999999 31:0.69999999 35:1.4 40:2.1099999 50:0.26699999 51:0.066 55:17.952 56:200 57:377 #
-0.22706986517109994938579120571376 55:1.166 56:3 57:14 #
-0.2268113026626323858181422110647 27:25 55:2.3329999 56:5 57:7 #
-0.22196472235665443140106845021364 10:1.36 12:2.73 19:1.36 25:1.36 26:1.36 28:2.73 36:1.36 50:0.68000001 55:3.142 56:11 57:88 #
-0.2131777797260114848398870890378 50:0.55199999 55:1 56:1 57:4 #
-0.2025702889420687435872991954966 27:20 55:1 56:1 57:4 #
-0.11300462609597161645069718360901 1:0.2 2:0.059999999 3:0.2 5:0.40000001 12:0.94999999 13:0.27000001 16:0.059999999 17:0.059999999 25:3.47 33:0.059999999 36:0.34 37:0.059999999 43:0.13 44:0.059999999 45:0.059999999 48:0.13 49:0.027000001 50:0.090000004 53:0.017999999 55:2.4230001 56:26 57:693 #
-0.0013259603806164976802506316744257 27:20 55:1 56:1 57:5 #
-0.0050430154932027404512950852222275 12:1.24 33:6.2199998 55:1.6 56:7 57:64 #
-0.0046468400067967152722303580958396 25:9.5200005 26:4.7600002 27:4.7600002 28:4.7600002 29:4.7600002 30:4.7600002 31:4.7600002 32:4.7600002 34:4.7600002 35:4.7600002 36:4.7600002 40:4.7600002 50:1.257 55:3.3329999 56:11 57:30 #
-0.0014141144849560971508140028163325 19:8.1000004 45:2.7 55:1 56:1 57:5 #
