SVM-light Version V6.02
2 # kernel type
3 # kernel parameter -d 
1 # kernel parameter -g 
1 # kernel parameter -s 
1 # kernel parameter -r 
empty# kernel parameter -u 
57 # highest feature index 
263 # number of training documents 
261 # number of support vectors plus 1 
0.76800991 # threshold b, each following line is a SV (starting with alpha*y)
-0.23216038624239521137582187293447 27:20 55:1 56:1 57:4 #
-0.23216038624239521137582187293447 3:0.18000001 6:0.090000004 12:0.94 13:0.37 17:0.28 25:1.41 33:0.83999997 36:0.47 37:0.090000004 38:0.090000004 49:0.052000001 50:0.064999998 55:2.0220001 56:19 57:451 #
-0.23216038624239521137582187293447 19:0.72000003 37:1.4400001 41:1.4400001 43:0.72000003 45:1.4400001 46:1.4400001 51:0.114 52:0.114 54:0.114 55:1.645 56:12 57:51 #
-0.23206917035285401507138658416807 19:0.81 37:0.81 41:1.62 43:0.81 45:1.62 46:1.62 51:0.13699999 54:0.13699999 55:1.636 56:12 57:36 #
-0.2317884222163500984592587883526 45:1.36 55:1 56:1 57:8 #
0.49999999999999900079927783735911 1:0.17 3:0.079999998 5:0.41999999 6:0.079999998 7:0.079999998 8:0.41999999 9:0.079999998 10:0.079999998 12:0.60000002 13:0.17 14:0.17 17:0.17 18:0.079999998 19:1.2 21:3.1700001 23:0.34 24:0.079999998 50:0.081 51:0.027000001 52:0.108 53:0.013 55:4.0700002 56:48 57:574 #
0.49999999999999900079927783735911 1:0.52999997 3:1.0700001 5:0.52999997 7:1.0700001 12:0.52999997 16:0.52999997 17:0.52999997 19:4.3000002 21:1.0700001 23:1.61 45:0.52999997 52:1.183 53:0.25299999 55:5.454 56:68 57:180 #
0.49999999999999900079927783735911 1:0.50999999 2:0.50999999 7:0.50999999 10:0.50999999 15:0.50999999 16:2.0699999 18:2.0699999 19:1.03 21:1.03 50:0.13500001 52:0.067000002 55:2.6760001 56:17 57:91 #
0.49999999999999900079927783735911 2:0.54000002 3:0.54000002 5:2.1900001 7:1.09 12:0.54000002 13:0.54000002 16:0.54000002 17:3.29 19:3.8399999 21:1.64 50:0.241 52:1.045 53:0.32100001 55:5.0469999 56:140 57:212 #
0.49999999999999900079927783735911 3:0.38 5:1.15 10:0.76999998 12:0.38 16:0.38 17:0.76999998 19:2.7 21:1.15 23:0.38 45:1.15 50:0.061000001 52:0.98500001 53:0.184 55:3.9230001 56:78 57:255 #
-0.23206118000175801618922832858516 18:1.36 19:2.04 21:0.68000001 25:1.36 26:0.68000001 28:0.68000001 30:0.68000001 50:0.241 55:2.461 56:17 57:96 #
-0.23267867896300131747011619154364 12:0.85000002 18:0.85000002 19:2.5599999 25:0.85000002 26:0.85000002 28:0.85000002 35:0.85000002 37:1.7 43:0.85000002 45:0.85000002 49:0.142 51:0.142 55:1.717 56:12 57:67 #
-0.2320629342238876846593598202162 10:1.22 18:0.61000001 19:1.84 25:2.45 26:1.84 27:1.22 28:1.22 29:0.61000001 30:0.61000001 31:0.61000001 32:0.61000001 34:0.61000001 35:1.22 36:0.61000001 37:0.61000001 40:0.61000001 43:0.61000001 45:0.61000001 49:0.094999999 50:0.38 51:0.19 52:0.19 55:1.857 56:12 57:104 #
0.49999999999999900079927783735911 1:0.43000001 3:0.43000001 5:0.43000001 7:0.86000001 12:0.43000001 17:0.86000001 18:0.43000001 19:1.29 21:4.7600002 24:1.29 49:0.14 52:0.91500002 55:3.891 56:47 57:144 #
0.49999999999999900079927783735911 1:0.44999999 5:0.68000001 6:0.44999999 8:0.44999999 10:0.22 11:0.22 13:1.6 15:0.44999999 17:0.91000003 18:1.83 19:1.83 21:0.68000001 23:1.6 40:0.91000003 50:0.037 52:0.18700001 53:0.112 55:3.184 56:30 57:363 #
0.49999999999999900079927783735911 3:1.12 5:0.56 10:0.56 16:0.56 19:2.25 21:1.12 45:0.56 50:0.102 52:0.61500001 55:2.4030001 56:19 57:137 #
-0.23280507945305284334125417444739 19:0.5 25:1.01 27:0.5 45:0.5 49:0.079999998 50:0.56400001 53:0.161 55:1.712 56:20 57:137 #
-0.23267867896300131747011619154364 12:2.8099999 16:0.34999999 18:0.34999999 19:0.34999999 25:0.34999999 37:0.34999999 50:0.29300001 55:1.226 56:5 57:146 #
-0.23139921383193462478544688565307 12:0.54000002 13:0.54000002 19:0.54000002 36:0.54000002 39:0.54000002 42:2.7 44:0.54000002 50:0.086999997 52:0.086999997 55:2.3629999 56:5 57:52 #
0.49999999999999900079927783735911 3:0.70999998 5:0.70999998 16:0.70999998 19:1.42 21:0.70999998 45:0.70999998 50:0.121 52:1.094 55:2.0209999 56:16 57:95 #
0.49999999999999900079927783735911 3:0.55000001 5:0.55000001 10:0.55000001 16:0.55000001 19:1.67 21:0.55000001 45:0.55000001 50:0.098999999 52:0.89300001 55:2.122 56:16 57:121 #
0.49999999999999900079927783735911 3:1.3099999 5:0.64999998 12:0.64999998 19:5.2600002 20:1.97 21:4.5999999 24:1.3099999 40:0.64999998 52:0.81599998 53:0.068000004 55:3.1730001 56:43 57:165 #
-0.23205431572642987170240758132422 3:0.58999997 5:0.28999999 6:0.58999997 7:0.58999997 8:0.28999999 10:0.28999999 11:0.28999999 18:0.88999999 19:3.5799999 21:1.49 25:0.28999999 26:0.28999999 45:0.28999999 49:0.089000002 52:0.044 53:0.134 55:1.6 56:15 57:120 #
-0.23107246128599634449329869312351 1:0.22 3:0.22 5:0.44999999 13:0.68000001 16:0.22 19:0.68000001 20:0.22 37:0.22 41:0.68000001 43:0.22 44:1.83 45:0.22 46:0.91000003 50:0.26699999 51:0.037999999 55:1.649 56:13 57:94 #
-0.2319900908770287095705953106517 8:0.67000002 12:1.35 16:0.67000002 19:4.0500002 21:2.02 25:0.67000002 35:0.67000002 45:0.67000002 50:0.38600001 55:3.27 56:19 57:121 #
0.49999999999999900079927783735911 3:0.61000001 7:0.61000001 17:1.23 18:1.85 19:2.46 21:1.23 50:0.176 52:0.35299999 55:2.25 56:13 57:81 #
0.49999999999999900079927783735911 1:0.22 2:0.22 3:0.22 5:1.77 6:0.22 7:0.44 8:0.44 9:0.22 10:2.8800001 12:0.88 13:0.22 15:1.11 16:0.44 18:0.44 19:3.3299999 21:3.3299999 23:0.44 24:0.44 40:0.44 52:0.56300002 53:0.15000001 55:86.650002 56:1038 57:1733 #
0.49999999999999900079927783735911 1:0.34 2:0.41999999 3:0.25 5:0.079999998 6:0.41999999 7:0.079999998 8:0.25 9:0.079999998 10:1.63 11:0.34 12:0.50999999 13:0.94 15:0.17 16:0.079999998 19:3 21:0.94 23:0.34 24:0.34 45:0.17 50:0.063000001 52:0.287 53:0.223 54:0.079000004 55:3.3139999 56:62 57:537 #
-0.23126478098155320295425951826473 46:0.46000001 50:0.185 55:1.904 56:11 57:80 #
-0.23201510239466760499027486730483 3:0.62 12:0.62 18:0.62 19:1.25 25:1.25 26:0.62 28:0.62 30:0.62 31:0.62 33:0.62 35:0.62 36:0.62 45:0.62 50:0.083999999 52:0.169 55:1.863 56:10 57:82 #
-0.23210734947294187069388726740726 5:0.68000001 10:0.68000001 12:0.68000001 15:0.68000001 18:0.68000001 19:1.36 21:0.68000001 25:2.72 26:1.36 27:1.36 28:0.68000001 29:0.68000001 30:0.68000001 31:0.68000001 32:0.68000001 34:0.68000001 35:0.68000001 36:0.68000001 37:0.68000001 39:0.68000001 40:0.68000001 43:0.68000001 44:0.68000001 45:0.68000001 49:0.104 50:0.41800001 51:0.104 55:2.102 56:12 57:82 #
0.49999999999999900079927783735911 7:1.04 16:2.0799999 19:2.0799999 21:2.0799999 55:3.812 56:11 57:61 #
0.49999999999999900079927783735911 7:1.33 19:1.33 21:5.3299999 52:0.20200001 53:1.4170001 55:29.125 56:223 57:233 #
0.49999999999999900079927783735911 5:2.5 12:0.62 17:1.25 19:3.1199999 21:0.62 52:0.079999998 55:2.1110001 56:18 57:57 #
-0.22802206828851689923709500362747 2:1.17 9:1.17 26:1.17 27:2.3499999 37:1.17 48:1.17 49:0.37599999 55:2.925 56:16 57:117 #
-0.23267867896300131747011619154364 19:2.22 25:2.22 26:2.22 35:2.22 55:1.7690001 56:8 57:23 #
-0.23129738072452965536029978466104 27:1.8099999 33:3.6300001 45:1.8099999 55:1.181 56:3 57:13 #
0.49999999999999900079927783735911 3:0.57999998 5:1.17 7:0.57999998 12:0.57999998 16:0.57999998 19:1.76 52:0.829 55:2.529 56:8 57:86 #
0.49999999999999900079927783735911 2:0.89999998 16:0.89999998 18:1.8099999 19:3.6300001 21:2.72 45:0.89999998 52:0.16500001 53:0.16500001 55:6.2659998 56:41 57:94 #
0.49999999999999900079927783735911 1:0.07 2:0.02 3:0.15000001 5:0.25 6:0.2 8:0.02 9:0.15000001 12:0.25 13:0.25 14:0.07 16:0.050000001 17:0.22 19:0.050000001 21:0.02 23:0.37 24:0.02 29:0.02 36:0.050000001 37:0.30000001 38:0.02 40:0.02 43:0.02 45:0.02 49:0.011 50:0.022 53:0.022 55:1.423 56:20 57:965 #
-0.23139921404145846750566306582186 8:0.5 12:1 13:0.5 19:1.5 25:1 26:0.5 29:0.5 30:0.5 44:0.5 48:2.5 50:0.075000003 52:0.075000003 55:1.483 56:6 57:89 #
-0.23267867896300131747011619154364 5:6.25 55:2 56:6 57:10 #
-0.23131686999307232710521020635497 10:0.89999998 12:1.8099999 25:0.89999998 26:0.89999998 28:1.8099999 36:0.89999998 39:0.89999998 50:1.2079999 55:5.1110001 56:58 57:138 #
0.49999999999999900079927783735911 1:0.17 2:0.25999999 3:1.0700001 5:0.34999999 6:0.62 7:0.52999997 8:0.17 9:0.62 10:0.80000001 11:0.25999999 12:1.25 13:0.17 15:0.62 16:0.62 17:0.079999998 18:1.4299999 19:2.5 20:0.17 21:1.16 23:0.88999999 24:0.079999998 40:0.079999998 45:0.079999998 50:0.066 52:0.212 53:0.185 54:0.013 55:6.8150001 56:583 57:1329 #
0.49999999999999900079927783735911 3:0.47999999 5:0.95999998 9:0.47999999 16:0.95999998 17:0.95999998 19:1.4400001 21:0.47999999 23:0.95999998 45:0.47999999 50:0.133 51:0.066 52:0.46799999 53:0.26699999 55:3.3150001 56:61 57:242 #
0.49999999999999900079927783735911 1:0.46000001 3:0.46000001 8:0.46000001 12:1.38 15:2.3099999 17:0.46000001 18:0.46000001 19:2.77 21:2.3099999 23:1.38 40:0.46000001 50:0.49000001 52:0.081 53:0.81599998 55:3.4000001 56:12 57:102 #
-0.23182826440088466490863083890872 19:2.3699999 21:1.01 25:0.67000002 26:1.6900001 27:1.01 28:0.33000001 30:0.67000002 35:0.33000001 37:0.33000001 41:1.01 43:0.33000001 45:1.01 46:1.01 50:0.108 55:1.851 56:13 57:100 #
-0.23209231747114558719324861613131 12:2.8499999 52:0.47999999 55:2 56:7 57:26 #
-0.23216038624239521137582187293447 19:0.33000001 46:0.67000002 48:0.33000001 50:0.041999999 55:2.5190001 56:46 57:131 #
0.49999999999999900079927783735911 1:1.03 3:0.68000001 5:1.03 7:0.68000001 10:0.68000001 12:0.68000001 15:0.34 16:0.68000001 19:5.8600001 21:1.37 23:0.34 24:0.34 45:0.34 52:0.366 53:0.061000001 55:1.895 56:12 57:91 #
0.49999999999999900079927783735911 3:0.18000001 5:0.18000001 9:0.54000002 10:0.36000001 11:0.36000001 12:0.89999998 14:0.36000001 16:0.72000003 18:0.18000001 19:2.7 20:0.18000001 21:0.72000003 24:0.54000002 38:0.36000001 43:0.18000001 52:0.63300002 53:0.063000001 55:9.0430002 56:363 57:841 #
0.49999999999999900079927783735911 1:0.25999999 2:0.25999999 3:0.51999998 5:0.38999999 7:0.38999999 8:0.13 10:0.25999999 12:0.77999997 13:0.25999999 16:1.5700001 18:0.25999999 19:2.6099999 21:1.5700001 23:0.13 24:0.38999999 37:0.13 50:0.12899999 52:0.77899998 53:0.021 54:0.021 55:2.6889999 56:49 57:476 #
-0.23083560786897105998605184140615 19:0.56 21:1.12 30:0.56 45:0.56 50:0.096000001 55:1.15 56:4 57:46 #
-0.23209186555253180639368792981259 3:0.18000001 5:0.56 12:0.75 13:0.37 25:3.03 36:0.18000001 37:0.18000001 43:0.18000001 45:0.18000001 50:0.056000002 53:0.112 55:2.188 56:19 57:232 #
-0.23209186555253180639368792981259 3:0.80000001 5:2.4200001 12:0.40000001 18:0.40000001 19:5.2600002 21:1.61 25:0.40000001 26:0.40000001 45:1.61 52:0.27000001 55:2.3599999 56:35 57:59 #
0.49999999999999900079927783735911 3:0.31999999 5:0.64999998 6:0.64999998 7:0.31999999 8:0.31999999 12:0.31999999 13:0.31999999 16:0.31999999 17:0.31999999 19:2.28 21:3.25 24:0.31999999 45:0.31999999 50:0.104 53:0.15700001 54:0.052000001 55:1.5369999 56:10 57:143 #
0.49999999999999900079927783735911 3:0.31999999 5:0.63999999 6:0.63999999 7:0.31999999 8:0.31999999 12:0.31999999 13:0.31999999 16:0.31999999 17:0.31999999 19:2.27 21:3.24 24:0.31999999 45:0.31999999 50:0.106 53:0.15899999 54:0.052999999 55:1.5369999 56:10 57:143 #
0.49999999999999900079927783735911 1:0.19 2:0.19 3:0.38999999 5:0.19 8:0.58999997 12:0.38999999 16:0.58999997 17:0.38999999 18:1.37 19:4.52 21:3.1400001 24:0.19 37:0.19 52:0.25799999 53:0.032000002 55:3.112 56:43 57:305 #
-0.23202903354351378517606008244911 3:0.93000001 5:0.31 9:0.31 11:0.31 12:0.93000001 17:0.62 19:3.75 21:3.4300001 37:0.31 49:0.054000001 50:0.108 52:0.054000001 54:0.054000001 55:2.7349999 56:14 57:145 #
-0.23209186555253180639368792981259 12:7.6900001 25:3.8399999 26:3.8399999 29:7.6900001 42:7.6900001 52:0.58099997 55:1.615 56:4 57:21 #
-0.23216038624239987431252529859194 1:0.20999999 3:0.20999999 4:0.20999999 5:0.63 11:0.41999999 13:0.20999999 16:0.83999997 18:0.41999999 19:1.9 23:0.20999999 37:0.20999999 50:0.030999999 52:0.37400001 53:0.061999999 55:2.892 56:71 57:405 #
0.49999999999999900079927783735911 1:0.46000001 5:0.69 6:0.46000001 8:0.46000001 10:0.23 11:0.23 13:1.61 15:0.46000001 17:0.92000002 18:1.84 19:1.84 21:0.69 23:1.61 40:0.92000002 50:0.037 52:0.18799999 53:0.112 55:3.105 56:30 57:354 #
0.49999999999999900079927783735911 2:1.49 7:2.98 10:1.49 16:1.49 17:2.98 21:2.98 50:0.171 53:0.171 54:0.171 55:13 56:140 57:156 #
0.49999999999999900079927783735911 3:0.16 5:0.33000001 7:0.16 9:0.5 11:0.16 16:0.5 18:1.5 19:0.66000003 25:0.33000001 50:0.088 52:0.884 53:0.75199997 54:0.022 55:5.3280001 56:47 57:1087 #
-0.23199009083197874581117048364831 2:0.079999998 3:0.079999998 6:0.079999998 8:0.16 12:0.81 13:0.16 17:0.079999998 23:0.079999998 25:3.49 26:0.47999999 29:0.31999999 30:0.23999999 36:0.31999999 37:0.079999998 42:0.079999998 48:0.079999998 49:0.022 50:0.111 53:0.055 55:2.145 56:21 57:693 #
0.49999999999999900079927783735911 1:0.14 2:0.14 3:0.28999999 9:1.17 10:0.28999999 11:0.14 12:0.57999998 16:0.14 18:0.14 19:2.3499999 20:0.14 21:0.88 24:0.44 38:0.28999999 50:0.204 52:0.204 53:0.127 54:0.102 55:2.9619999 56:73 57:400 #
-0.23205188546521893222518428956391 19:1.17 25:4.6999998 26:2.3499999 55:2.882 56:21 57:49 #
-0.23139921403900487462124146986753 3:0.22 12:0.68000001 13:0.89999998 16:0.22 17:0.22 25:1.36 31:0.22 37:0.44999999 50:0.093999997 55:2.1819999 56:42 57:203 #
0.49999999999999900079927783735911 1:0.14 2:0.14 3:0.28999999 9:1.17 10:0.28999999 11:0.14 12:0.57999998 16:0.14 18:0.14 19:2.3499999 20:0.14 21:0.88 24:0.44 38:0.28999999 50:0.204 52:0.204 53:0.127 54:0.102 55:2.9619999 56:73 57:400 #
-0.232029033538094564548259768344 12:1.24 33:6.2199998 55:1.6 56:7 57:64 #
-0.23216038624239521137582187293447 27:13.33 45:6.6599998 52:1.149 55:1.5 56:3 57:12 #
-0.23202903353787329709945197464549 3:1.5599999 5:1.5599999 10:1.5599999 12:6.25 18:1.5599999 19:1.5599999 21:1.5599999 50:0.278 55:1 56:1 57:11 #
0.49999999999999900079927783735911 3:1.1 5:0.55000001 10:0.55000001 16:0.55000001 19:2.2 21:1.1 45:0.55000001 50:0.097000003 52:0.68300003 55:2.3380001 56:19 57:145 #
0.49999999999999900079927783735911 1:0.16 2:0.31999999 3:0.64999998 5:0.31999999 7:0.16 10:0.49000001 11:0.16 13:0.16 15:0.16 16:0.16 18:0.81 19:0.31999999 20:0.16 21:0.98000002 40:0.16 52:0.773 53:0.079999998 54:0.079999998 55:6.586 56:132 57:955 #
0.49999999999999900079927783735911 1:0.83999997 2:0.83999997 7:1.6900001 9:0.83999997 10:0.83999997 12:0.83999997 16:10.16 17:0.83999997 19:0.83999997 21:2.54 24:0.83999997 52:1.113 53:0.278 54:0.092 55:173 56:418 57:519 #
0.49999999999999900079927783735911 1:0.14 2:0.14 3:0.28999999 9:1.17 10:0.28999999 11:0.14 12:0.57999998 16:0.14 18:0.14 19:2.3499999 20:0.14 21:0.88 24:0.44 38:0.28999999 50:0.204 52:0.204 53:0.127 54:0.102 55:2.9619999 56:73 57:400 #
-0.23267867896300131747011619154364 33:8.3299999 50:0.68699998 55:1.903 56:17 57:59 #
-0.23267867896300131747011619154364 25:9.5200005 26:4.7600002 27:4.7600002 28:4.7600002 29:4.7600002 30:4.7600002 31:4.7600002 32:4.7600002 34:4.7600002 35:4.7600002 36:4.7600002 40:4.7600002 50:1.257 55:3.3329999 56:11 57:30 #
-0.23206917035317831121687959239352 5:0.27000001 10:0.27000001 12:0.54000002 14:0.54000002 17:0.54000002 19:1.63 25:4.8899999 26:1.35 27:0.27000001 28:0.27000001 29:0.27000001 30:0.27000001 31:0.27000001 32:0.27000001 34:0.27000001 35:0.27000001 36:0.27000001 39:0.27000001 40:0.27000001 43:0.27000001 45:0.81 50:0.192 51:0.153 55:4.6079998 56:35 57:424 #
0.49999999999999900079927783735911 19:1.29 21:0.63999999 55:1.103 56:3 57:32 #
0.49999999999999900079927783735911 1:0.17 3:0.079999998 5:0.43000001 6:0.079999998 7:0.079999998 8:0.43000001 9:0.079999998 10:0.079999998 12:0.60000002 13:0.17 14:0.17 17:0.17 18:0.079999998 19:1.2 21:3.1400001 23:0.34 24:0.079999998 50:0.081 51:0.027000001 52:0.088 53:0.013 55:4.1599998 56:48 57:1140 #
0.49999999999999900079927783735911 19:1.29 21:0.63999999 55:1.103 56:3 57:32 #
-0.23107266626782793639272028940468 19:0.99000001 21:0.99000001 27:1.98 37:0.99000001 44:0.99000001 45:0.99000001 55:1.478 56:5 57:34 #
-0.23107241962763286347026792100223 25:1.63 36:1.63 55:2.187 56:5 57:35 #
-0.23206917035317831121687959239352 19:2.6300001 35:2.6300001 42:2.6300001 52:0.414 55:2.7049999 56:13 57:46 #
0.49999999999999900079927783735911 2:0.54000002 3:0.54000002 5:1.09 6:0.54000002 7:2.1800001 10:0.54000002 12:0.54000002 18:0.54000002 19:3.27 21:1.09 45:0.54000002 50:0.15700001 52:0.47099999 54:0.078000002 55:15.08 56:147 57:377 #
0.49999999999999900079927783735911 3:0.41999999 12:0.85000002 16:0.85000002 18:0.85000002 19:4.6999998 21:0.85000002 22:5.5500002 37:0.41999999 50:0.082000002 53:0.082000002 54:0.248 55:7.1700001 56:42 57:294 #
0.49999999999999900079927783735911 16:1.05 21:2.0999999 44:1.05 52:1.806 55:1.293 56:5 57:75 #
-0.23208605182120867205242120689945 3:0.2 8:0.2 10:0.2 18:0.2 19:0.2 25:0.2 26:0.2 28:0.41 33:0.2 35:0.2 37:0.2 50:0.148 55:1.669 56:15 57:187 #
-0.23208605182120867205242120689945 2:0.22 5:0.66000003 6:0.22 8:0.44 9:0.44 10:0.88999999 13:0.22 14:0.22 16:1.33 19:0.88999999 21:0.44 24:0.22 25:3.3399999 26:3.5599999 27:0.66000003 28:0.22 29:0.22 30:0.22 31:0.22 32:0.22 34:0.22 35:0.22 36:0.22 37:1.11 40:0.22 43:0.22 45:0.22 49:0.148 50:0.37200001 51:0.111 52:0.37200001 53:0.223 55:3.425 56:42 57:411 #
-0.232029033538094564548259768344 19:2.6600001 25:1.33 28:1.33 50:0.47799999 55:2.1659999 56:18 57:52 #
0.49999999999999900079927783735911 3:0.44999999 5:0.22 6:0.22 9:0.67000002 10:0.44999999 11:0.22 12:0.89999998 16:0.22 19:1.35 21:1.12 22:0.22 23:0.22 24:0.22 36:0.44999999 49:0.064000003 50:0.25799999 52:0.12899999 53:0.193 55:7.2579999 56:71 57:617 #
0.49999999999999900079927783735911 2:0.55000001 3:0.55000001 5:1.11 6:0.55000001 7:2.23 10:0.55000001 12:0.55000001 18:0.55000001 19:3.3499999 21:1.11 45:0.55000001 50:0.15899999 52:0.479 54:0.079000004 55:16.739 56:147 57:385 #
0.49999999999999900079927783735911 6:1.12 8:2.24 11:1.12 12:1.12 19:4.4899998 23:1.12 52:0.81400001 55:2.5999999 56:15 57:39 #
-0.23206917035317831121687959239352 27:25 55:2.3329999 56:5 57:7 #
-0.23206917035317831121687959239352 2:0.039999999 3:0.25 5:0.039999999 6:0.039999999 9:0.16 10:0.079999998 11:0.2 12:0.62 16:0.16 17:0.039999999 19:0.70999998 21:0.41 23:0.12 25:2.01 26:0.41 28:0.12 30:0.079999998 31:0.12 35:0.039999999 37:0.2 44:0.079999998 45:0.079999998 48:0.039999999 49:0.012 50:0.27399999 51:0.012 52:0.030999999 53:0.056000002 55:1.83 56:23 57:1479 #
-0.23206917035317831121687959239352 12:4.3400002 17:0.62 21:0.62 25:3.0999999 30:0.62 36:0.62 39:0.62 45:0.62 50:0.16599999 52:0.333 55:4.2550001 56:34 57:200 #
0.49999999999999900079927783735911 3:1.4299999 5:0.70999998 8:0.70999998 10:0.70999998 17:2.8699999 18:2.8699999 19:1.4299999 21:3.5899999 52:0.93699998 55:11.888 56:116 57:214 #
0.49999999999999900079927783735911 3:0.47 5:0.94999999 9:0.47 16:0.94999999 17:0.94999999 19:1.42 21:0.47 23:0.94999999 45:0.47 50:0.131 51:0.064999998 52:0.461 53:0.26300001 55:3.493 56:61 57:255 #
0.49999999999999900079927783735911 3:0.15000001 5:0.31 7:0.15000001 9:0.63 10:0.15000001 11:0.15000001 16:1.11 18:1.27 19:0.79000002 25:0.94999999 37:0.31 40:0.15000001 50:0.088 52:0.86199999 53:0.70700002 54:0.022 55:5.4229999 56:51 57:1128 #
-0.090123991409200243651866912841797 2:0.38999999 3:0.19 5:0.19 6:0.090000004 12:0.28999999 15:0.28999999 18:0.28999999 19:0.88999999 21:0.28999999 25:0.49000001 26:0.49000001 37:0.19 41:4.75 43:0.090000004 45:0.090000004 46:5.7399998 49:1.353 50:0.079999998 52:0.016000001 55:1.679 56:17 57:178 #
0.49999999999999900079927783735911 19:0.38999999 21:0.38999999 25:3.5799999 26:0.38999999 30:0.38999999 44:0.38999999 45:0.38999999 55:2.5 56:21 57:130 #
0.49999999999999900079927783735911 6:2.3 12:0.75999999 13:0.75999999 19:2.3 21:1.53 50:0.829 52:2.766 53:0.829 55:5.6069999 56:25 57:157 #
0.49999999999999900079927783735911 1:0.079999998 2:0.16 3:0.31999999 5:1.38 6:0.16 7:0.079999998 9:0.23999999 10:0.079999998 12:1.3 14:0.079999998 16:0.47999999 17:0.079999998 18:0.079999998 19:3.5 21:0.73000002 23:0.079999998 24:0.16 35:0.079999998 50:0.085000001 51:0.061000001 52:0.38999999 53:0.097000003 54:0.012 55:5.5939999 56:119 57:1561 #
-0.23205879921439653834625005401904 19:4 52:0.72899997 55:1.875 56:4 57:15 #
-0.23277967073222238791885274622473 10:0.83999997 12:0.83999997 19:4.1999998 25:1.6799999 51:0.119 55:1.454 56:9 57:32 #
-0.232029033538094564548259768344 12:4.5799999 17:0.91000003 21:0.91000003 25:1.83 30:0.91000003 36:0.91000003 39:0.91000003 50:0.124 52:0.249 55:2.576 56:14 57:67 #
0.49999999999999900079927783735911 1:0.47999999 2:0.2 3:0.55000001 5:0.27000001 6:0.2 8:0.27000001 9:0.27000001 10:0.97000003 11:0.41 12:1.04 13:0.13 16:1.11 17:0.69 18:0.059999999 19:2.3699999 21:1.04 23:0.059999999 24:0.69 40:0.059999999 45:0.13 50:0.105 52:0.75 53:0.30500001 55:3.401 56:94 57:966 #
0.49999999999999900079927783735911 1:0.47999999 2:0.2 3:0.55000001 5:0.27000001 6:0.2 8:0.27000001 9:0.27000001 10:0.97000003 11:0.41 12:0.97000003 13:0.13 16:1.11 17:0.69 18:0.059999999 19:2.23 21:0.97000003 23:0.059999999 24:0.69 40:0.059999999 45:0.13 50:0.105 52:0.75 53:0.30500001 55:3.401 56:94 57:966 #
0.49999999999999900079927783735911 16:4 52:2.4530001 55:4.1529999 56:26 57:54 #
-0.11503109180193860083818435668945 2:0.38999999 3:0.19 5:0.19 6:0.090000004 12:0.28999999 15:0.28999999 18:0.28999999 19:0.88999999 21:0.28999999 25:0.49000001 26:0.49000001 37:0.19 41:4.75 43:0.090000004 45:0.090000004 46:5.7399998 49:1.352 50:0.079999998 52:0.016000001 55:1.679 56:17 57:178 #
-0.232029033538094564548259768344 3:0.86000001 8:0.86000001 12:1.73 25:3.47 26:5.21 47:0.86000001 50:0.125 55:1.8 56:9 57:72 #
-0.23206293422393764469546795226051 25:4.4099998 26:4.4099998 28:1.47 35:1.47 55:2.5650001 56:10 57:59 #
-0.23206293422393764469546795226051 1:0.059999999 3:0.19 5:0.25999999 6:0.059999999 8:0.19 10:0.059999999 12:1.12 13:0.059999999 14:0.19 17:0.51999998 20:0.58999997 21:0.059999999 23:0.38999999 25:3.23 33:0.059999999 36:0.19 37:0.13 44:0.059999999 49:0.071999997 50:0.117 53:0.063000001 55:2.1210001 56:25 57:751 #
0.49999999999999900079927783735911 1:0.80000001 3:0.80000001 5:1.6 16:0.80000001 17:0.80000001 19:1.6 21:2.4000001 23:0.80000001 52:1.62 53:0.347 55:2.6040001 56:22 57:125 #
0.49999999999999900079927783735911 3:0.33000001 5:0.99000001 6:0.99000001 7:0.33000001 8:0.33000001 12:0.33000001 13:0.33000001 16:0.33000001 17:0.33000001 19:1.98 21:3.3 24:0.33000001 45:0.33000001 50:0.108 53:0.162 54:0.054000001 55:2.1949999 56:50 57:202 #
0.49999999999999900079927783735911 1:0.07 2:0.37 3:0.81 5:0.50999999 6:0.28999999 7:0.07 9:0.07 10:0.37 11:0.07 12:1.48 13:0.14 15:0.07 17:0.14 18:0.44 19:3.55 21:1.85 24:0.14 37:0.14 49:0.048999999 50:0.068999998 52:0.15899999 53:0.15899999 54:0.0089999996 55:3.4560001 56:44 57:802 #
-0.23210741743133400660781262558885 3:0.27000001 10:0.82999998 12:0.55000001 25:0.55000001 26:0.27000001 28:0.55000001 30:0.27000001 46:0.27000001 49:0.082000002 50:0.164 55:2.2349999 56:51 57:199 #
-0.23182821809606724006158628981211 3:1.09 12:1.09 19:3.29 30:2.1900001 55:1.1109999 56:2 57:20 #
-0.23209186555253180639368792981259 4:0.14 5:0.41999999 8:0.14 12:0.98000002 14:0.14 17:0.69999999 25:1.8200001 26:0.28 29:0.28 30:0.69999999 36:0.28 37:0.14 45:0.14 50:0.077 55:1.502 56:6 57:257 #
0.49999999999999900079927783735911 3:0.62 5:1.24 6:0.62 16:0.31 19:2.48 21:0.93000001 23:0.31 37:0.31 50:0.086000003 52:0.043000001 55:1.7410001 56:14 57:155 #
0.49999999999999900079927783735911 2:0.34 3:0.69 5:0.34 7:0.17 10:0.50999999 11:0.17 13:0.17 15:0.17 16:0.17 18:0.86000001 19:0.17 20:0.17 21:0.86000001 40:0.17 52:0.66500002 53:0.082999997 54:0.082999997 55:6.2940001 56:132 57:963 #
0.49999999999999900079927783735911 2:0.79000002 16:0.79000002 17:0.79000002 18:1.58 19:3.1700001 21:1.58 45:0.79000002 50:0.271 52:0.271 53:0.13500001 55:3.257 56:26 57:114 #
0.49999999999999900079927783735911 3:0.72000003 5:1.8099999 10:0.36000001 12:0.36000001 17:0.72000003 19:0.72000003 21:0.36000001 33:0.36000001 49:0.052999999 50:0.26499999 55:1.543 56:13 57:88 #
-0.23131687034886116993703808475402 5:2.0799999 11:0.82999998 12:0.82999998 16:0.82999998 18:1.66 19:2.9100001 21:0.41 50:0.131 52:0.329 54:0.064999998 55:2.9619999 56:11 57:157 #
-0.23139921403900487462124146986753 25:7.6900001 26:2.5599999 55:2 56:6 57:24 #
-0.23216038624232737674901727586985 10:0.38999999 19:0.38999999 25:2.3499999 26:0.38999999 27:1.17 28:0.38999999 29:0.38999999 30:0.77999997 31:0.38999999 32:0.38999999 34:0.38999999 35:0.38999999 36:1.5599999 37:0.38999999 40:0.38999999 42:0.38999999 43:0.38999999 45:0.38999999 48:0.38999999 50:0.31400001 52:0.125 55:1.955 56:13 57:133 #
0.49999999999999900079927783735911 3:1 6:0.25 8:0.25 12:1.5 13:0.25 16:0.25 17:0.5 19:2.5 21:1.5 24:0.25 52:0.20299999 53:0.20299999 55:2.8659999 56:34 57:129 #
0.49999999999999900079927783735911 1:0.57999998 5:2.3299999 7:1.16 11:0.57999998 14:0.57999998 16:0.57999998 18:0.57999998 19:2.9200001 20:1.16 21:2.9200001 50:0.27000001 52:0.090000004 53:0.090000004 55:1.829 56:9 57:75 #
0.49999999999999900079927783735911 1:0.25 2:0.25 5:0.75 9:0.25 10:0.75 12:1.51 14:1.26 17:0.5 19:3.29 21:1.01 33:0.25 50:0.082000002 52:0.041000001 53:0.124 54:0.124 55:3.181 56:32 57:210 #
-0.23139921403900487462124146986753 4:0.15000001 5:0.46000001 8:0.15000001 12:0.92000002 14:0.15000001 17:0.46000001 25:2.1500001 26:0.30000001 29:0.30000001 30:0.92000002 36:0.30000001 37:0.15000001 45:0.15000001 50:0.085000001 55:1.535 56:6 57:238 #
-0.2320629342239372006062581021979 5:0.68000001 10:0.68000001 15:0.68000001 19:0.68000001 25:2.72 26:2.72 27:2.04 28:2.04 29:0.68000001 30:0.68000001 31:0.68000001 32:0.68000001 34:0.68000001 35:2.04 36:0.68000001 37:0.68000001 39:0.68000001 40:0.68000001 43:0.68000001 44:0.68000001 45:0.68000001 50:0.82800001 51:0.62099999 55:2.277 56:12 57:123 #
-0.23182826440076809149104519747198 19:1.92 21:0.63999999 26:3.2 36:0.63999999 49:0.213 52:0.106 55:2.714 56:47 57:95 #
0.49999999999999900079927783735911 5:6.25 7:3.1199999 12:3.1199999 19:6.25 55:9.4280005 56:60 57:66 #
0.49999999999999900079927783735911 2:0.17 7:0.17 8:0.51999998 10:0.17 11:0.34999999 12:0.51999998 17:0.17 18:0.69999999 19:0.88 21:0.69999999 22:1.9299999 23:0.34999999 49:0.028000001 50:0.14300001 51:0.028000001 52:0.085000001 53:0.057 54:0.229 55:3.5639999 56:39 57:417 #
-0.23208605182122110655029700865271 10:1.36 12:2.73 19:1.36 25:1.36 26:1.36 28:2.73 36:1.36 50:0.68000001 55:3.142 56:11 57:88 #
-0.23209186555253180639368792981259 3:0.2 5:0.2 10:0.80000001 12:1 19:0.2 21:0.2 25:1.4 26:1.6 27:0.2 28:0.2 29:0.2 30:0.2 31:0.2 32:0.2 34:0.2 35:0.40000001 36:0.2 37:1 39:0.2 40:0.2 43:0.2 44:0.80000001 48:0.2 50:0.42899999 51:0.029999999 55:2.7030001 56:50 57:346 #
-0.23244306990210361618665046989918 3:0.43000001 19:0.43000001 25:6.9200001 26:3.8900001 37:2.1600001 41:1.29 44:0.43000001 49:0.31799999 50:0.71700001 51:0.15899999 52:0.079000004 55:4.4109998 56:19 57:300 #
0.49999999999999900079927783735911 5:1.11 19:2.22 21:3.3299999 52:0.78399998 55:5.6869998 56:39 57:91 #
0.49999999999999900079927783735911 2:0.56999999 3:0.56999999 5:1.14 6:0.56999999 7:2.28 10:0.56999999 12:0.56999999 18:0.56999999 19:3.4200001 21:1.14 45:0.56999999 50:0.081 52:0.48699999 54:0.081 55:16.216999 56:147 57:373 #
0.49999999999999900079927783735911 2:0.56999999 3:0.56999999 5:1.14 6:0.56999999 7:2.28 10:0.56999999 12:0.56999999 18:0.56999999 19:3.4200001 21:1.14 45:0.56999999 50:0.081 52:0.48699999 54:0.081 55:16.216999 56:147 57:373 #
-0.23244306990210361618665046989918 1:0.050000001 3:0.1 5:0.15000001 6:0.050000001 9:0.56999999 12:0.25999999 18:0.050000001 19:0.20999999 21:0.15000001 25:0.63 26:0.68000001 27:0.050000001 33:0.73000002 37:0.41999999 47:0.050000001 49:0.193 50:0.17 51:0.059 53:0.014 55:3.461 56:66 57:1170 #
-0.23244306990210361618665046989918 1:0.07 3:0.14 5:0.07 9:0.74000001 12:0.22 14:0.07 18:0.07 19:0.28999999 21:0.22 25:0.74000001 26:0.81 27:0.07 33:0.22 37:0.44 49:0.116 50:0.2 51:0.041999999 53:0.021 55:2.79 56:36 57:681 #
-0.23244306990210361618665046989918 1:0.12 3:0.60000002 5:0.60000002 12:0.12 13:0.12 15:0.12 17:0.73000002 19:0.60000002 21:0.47999999 25:1.58 28:0.23999999 31:0.47999999 35:0.36000001 37:0.12 42:1.33 44:0.12 45:0.12 48:0.12 49:0.016000001 50:0.148 52:0.033 53:0.016000001 55:2.056 56:65 57:364 #
0.49999999999999900079927783735911 3:0.31999999 5:0.64999998 6:0.64999998 7:0.31999999 8:0.31999999 12:0.31999999 13:0.31999999 16:0.31999999 17:0.31999999 19:2.28 21:3.26 24:0.31999999 45:0.31999999 50:0.105 53:0.15800001 55:1.494 56:10 57:139 #
0.49999999999999900079927783735911 7:1.0700001 16:2.1500001 21:2.1500001 40:1.0700001 52:0.145 53:0.43700001 54:0.29100001 55:1.823 56:10 57:62 #
0.49999999999999900079927783735911 3:1.42 5:0.70999998 8:0.70999998 10:0.70999998 17:2.8499999 18:2.8499999 19:1.42 21:3.5699999 52:0.93099999 55:12.055 56:117 57:217 #
-0.23244306990210361618665046989918 3:0.41999999 5:0.41999999 6:0.14 12:1.5599999 13:0.14 17:0.28 19:0.14 21:0.14 25:3.1199999 27:0.14 29:1.27 30:0.41999999 36:0.56 37:0.28 39:0.14 43:0.14 45:0.14 49:0.057999998 50:0.018999999 51:0.018999999 55:2.345 56:17 57:333 #
-0.23244306986889229360571107463329 3:2.04 5:2.04 19:2.04 42:4.0799999 50:0.722 55:1.1 56:2 57:11 #
-0.23139921403900487462124146986753 12:2.77 19:2.77 25:5.5500002 26:2.77 27:2.77 28:2.77 29:5.5500002 30:2.77 31:2.77 32:2.77 34:2.77 35:2.77 36:2.77 40:2.77 50:1.229 55:3.25 56:11 57:39 #
0.49999999999999900079927783735911 3:0.38999999 5:1.17 10:0.77999997 12:0.38999999 16:0.38999999 17:0.77999997 19:2.73 21:1.17 23:0.38999999 45:1.17 50:0.061999999 52:0.86900002 53:0.186 55:4 56:78 57:256 #
0.49999999999999900079927783735911 3:0.47 5:0.94999999 9:0.47 16:0.94999999 17:0.94999999 19:1.42 21:0.47 23:0.94999999 45:0.47 50:0.133 51:0.066 52:0.40099999 53:0.26699999 55:3.4590001 56:61 57:256 #
0.49999999999999900079927783735911 1:0.54000002 3:1.08 5:0.54000002 7:1.08 12:0.54000002 16:0.54000002 17:0.54000002 19:4.3200002 21:1.08 23:1.62 45:0.54000002 52:1.182 53:0.25299999 55:5.454 56:68 57:180 #
-0.232029033538094564548259768344 12:1.42 21:4.2800002 25:2.8499999 26:1.42 27:4.2800002 28:1.42 29:1.42 30:1.42 31:1.42 32:1.42 34:1.42 35:1.42 36:1.42 37:1.42 39:1.42 40:1.42 43:1.42 45:1.42 50:0.419 55:2.1329999 56:12 57:64 #
-0.23209186555253180639368792981259 1:0.059999999 2:0.039999999 3:0.28999999 5:0.079999998 6:0.059999999 8:0.13 9:0.02 10:0.11 12:0.47 14:0.02 15:0.02 16:0.13 17:0.13 18:0.079999998 19:0.23999999 21:0.17 28:0.02 29:0.02 33:1.7 36:0.22 37:0.82999998 38:0.02 41:0.059999999 42:0.039999999 43:0.02 44:0.059999999 46:0.28999999 47:0.02 48:0.15000001 49:0.032000002 50:0.176 52:0.003 53:0.003 55:2.201 56:79 57:2631 #
-0.23210741743111240609209744434338 10:2.5 12:5 52:0.43599999 55:1.7 56:8 57:17 #
0.49999999999999900079927783735911 3:0.33000001 5:0.99000001 6:0.99000001 7:0.33000001 8:0.33000001 12:0.33000001 13:0.33000001 16:0.33000001 17:0.33000001 19:1.98 21:3.3 24:0.33000001 45:0.33000001 50:0.107 53:0.161 54:0.052999999 55:2.1949999 56:50 57:202 #
0.49999999999999900079927783735911 1:0.07 2:0.02 3:0.15000001 5:0.25 6:0.2 8:0.02 9:0.15000001 12:0.25 13:0.25 14:0.07 16:0.050000001 17:0.22 19:0.050000001 21:0.02 23:0.37 24:0.02 29:0.02 36:0.050000001 37:0.30000001 38:0.02 40:0.02 43:0.02 45:0.02 49:0.011 50:0.022 53:0.022 55:1.423 56:20 57:965 #
0.49999999999999900079927783735911 2:0.55000001 3:0.55000001 5:1.11 6:0.55000001 7:2.23 10:0.55000001 12:0.55000001 18:0.55000001 19:3.3499999 21:1.11 45:0.55000001 50:0.15899999 52:0.479 54:0.079000004 55:16.739 56:147 57:385 #
-0.23208605182120867205242120689945 3:0.31999999 5:0.49000001 6:0.16 12:1.48 17:0.31999999 19:0.16 21:0.16 25:1.3099999 29:1.3099999 30:0.49000001 36:0.64999998 37:0.16 45:0.16 50:0.022 55:1.638 56:6 57:154 #
-0.23213375799007274213892060288345 25:9.3000002 55:3.2219999 56:9 57:29 #
-0.23213375799007274213892060288345 3:3.4400001 18:3.4400001 21:3.4400001 55:1.727 56:4 57:19 #
0.49999999999999900079927783735911 3:0.15000001 5:0.31 7:0.15000001 9:0.63 10:0.15000001 11:0.15000001 16:1.11 18:1.27 19:0.79000002 25:0.94999999 37:0.31 40:0.15000001 50:0.088 52:0.86199999 53:0.70700002 54:0.022 55:5.4229999 56:51 57:1128 #
-0.23139921403900487462124146986753 5:0.33000001 10:0.66000003 19:0.66000003 21:0.33000001 25:7.6100001 26:2.6400001 33:0.33000001 37:1.3200001 41:2.3099999 42:0.33000001 44:0.33000001 49:0.34900001 50:0.52399999 51:0.116 55:3.6270001 56:19 57:341 #
-0.23139921403900487462124146986753 10:0.52999997 12:2.6800001 19:0.52999997 25:0.52999997 26:0.52999997 28:1.0700001 36:0.52999997 39:1.0700001 50:0.19400001 55:3.7309999 56:21 57:153 #
-0.23182826440076809149104519747198 12:3.5699999 21:10.71 27:3.5699999 55:1 56:1 57:7 #
-0.23277967073222238791885274622473 19:8.3299999 45:16.66 52:0.92500001 55:1.8329999 56:6 57:11 #
-0.23216009356839217847578993314528 12:0.85000002 25:0.41999999 26:0.41999999 36:1.28 55:1.536 56:8 57:106 #
-0.23205188546521893222518428956391 5:7.1399999 45:7.1399999 55:1.6 56:4 57:8 #
-0.23213375798994806409325519780396 3:1.96 16:1.96 42:3.9200001 45:3.9200001 55:1.647 56:4 57:28 #
-0.23206917035310736796560604489059 12:1.0599999 19:1.0599999 25:3.1900001 26:1.0599999 37:1.0599999 39:2.1199999 50:0.168 52:0.168 55:1.75 56:7 57:63 #
-0.23205188546510568947667252359679 45:7.6900001 55:1.3329999 56:2 57:4 #
-0.22052971244431740505120842499309 3:0.079999998 6:0.25 8:0.25 9:0.079999998 12:1.17 13:0.079999998 14:0.25 17:0.41999999 25:3.1099999 33:0.16 36:0.25 37:0.25 49:0.034000002 50:0.079999998 55:2.023 56:27 57:694 #
-0.23267867867226915690181954232685 10:1.85 19:3.7 27:1.85 52:0.34900001 55:1.47 56:4 57:25 #
-0.232029033538094564548259768344 10:0.28 12:0.56 25:1.13 26:0.83999997 28:0.56 30:0.83999997 35:0.56 37:0.56 48:0.28 50:0.26199999 55:3.25 56:75 57:286 #
-0.232029033538094564548259768344 6:0.14 10:0.14 18:0.28999999 19:0.74000001 21:0.14 25:0.14 26:0.14 27:0.58999997 33:0.14 37:0.58999997 45:0.44 50:0.29699999 55:1.803 56:27 57:238 #
-0.23213375799007274213892060288345 1:0.029999999 2:0.029999999 9:0.059999999 10:0.090000004 11:0.029999999 12:0.15000001 17:0.029999999 18:0.12 19:0.029999999 25:0.46000001 26:0.27000001 29:0.029999999 30:0.059999999 36:0.029999999 37:0.15000001 41:0.36000001 43:0.029999999 45:0.12 46:1.1900001 49:0.024 50:0.178 52:0.12800001 55:3.427 56:49 57:1827 #
-0.23199009083336474823511252907338 3:2.27 12:4.54 39:2.27 52:0.296 55:5.25 56:32 57:63 #
-0.23206293422393764469546795226051 12:1.58 33:4.7600002 44:6.3400002 55:1.2589999 56:3 57:34 #
-0.23131687000738188064730138648883 19:9.0900002 27:9.0900002 45:9.0900002 55:1 56:1 57:6 #
-0.23210741743111240609209744434338 10:2.98 15:1.49 25:1.49 26:1.49 37:1.49 43:1.49 50:0.20900001 51:0.20900001 55:3.5 56:17 57:49 #
-0.23210741743111240609209744434338 29:14.28 42:14.28 52:1.123 55:1.3 56:4 57:13 #
-0.23210741743111240609209744434338 12:2.1800001 19:1.45 25:2.1800001 28:0.72000003 44:1.45 50:0.122 55:1.785 56:18 57:75 #
-0.23213375528751534204729978227988 2:0.99000001 5:0.49000001 8:0.49000001 12:0.49000001 18:1.98 19:2.97 21:1.48 36:0.49000001 52:0.081 55:1.348 56:4 57:58 #
-0.23097676660883204036167626327369 19:8.1000004 45:2.7 55:1 56:1 57:5 #
-0.23107245663473408026078459442942 5:0.75999999 17:0.75999999 25:2.3 26:0.75999999 30:1.53 55:2.3 56:7 57:138 #
-0.23199009083336474823511252907338 2:0.2 3:0.2 12:1.03 18:0.62 19:0.41 25:2.49 26:0.62 36:0.2 37:0.2 48:0.2 50:0.086999997 55:2.7969999 56:127 57:512 #
-0.23199009083336474823511252907338 1:0.039999999 2:0.090000004 3:0.31 5:0.039999999 6:0.22 7:0.039999999 10:0.57999998 11:0.090000004 12:1.17 16:0.13 17:0.039999999 19:1.3 21:1.17 23:0.039999999 25:0.89999998 26:0.54000002 28:0.039999999 30:0.18000001 31:0.18000001 35:0.18000001 36:0.039999999 37:0.31 39:0.22 41:0.039999999 45:0.13 46:0.039999999 48:0.090000004 49:0.013 50:0.22400001 52:0.027000001 53:0.0060000001 55:1.784 56:29 57:1192 #
-0.23199009083336474823511252907338 12:1.4 17:0.69999999 19:1.4 21:1.4 27:0.69999999 31:0.69999999 35:1.4 40:2.1099999 50:0.26699999 51:0.066 55:17.952 56:200 57:377 #
-0.23199009083336474823511252907338 2:0.25999999 3:0.25999999 5:0.25999999 8:0.25999999 11:0.25999999 12:1.0700001 17:0.52999997 19:1.0700001 21:1.0700001 25:1.34 50:0.111 53:0.037 55:1.564 56:8 57:194 #
-0.23139921403866717253272611287684 3:5.0999999 5:2.04 12:1.02 19:1.02 27:1.02 50:1.094 55:1.29 56:5 57:40 #
-0.23107245663473408026078459442942 1:0.27000001 3:0.13 5:0.81999999 12:0.55000001 13:0.41 19:1.24 21:1.1 25:1.65 26:0.81999999 27:0.13 28:0.13 29:0.13 30:0.13 31:0.13 32:0.13 34:0.13 35:0.13 36:0.13 37:0.41 40:0.13 42:0.41 43:0.13 45:0.41 48:0.27000001 49:0.041000001 50:0.102 51:0.02 52:0.02 55:2.78 56:34 57:367 #
-0.23209186555253180639368792981259 27:33.330002 55:1 56:1 57:3 #
-0.23209186555253180639368792981259 8:0.38999999 12:0.38999999 25:0.38999999 29:0.38999999 30:0.38999999 33:0.38999999 36:0.38999999 37:0.38999999 50:0.048999999 55:2 56:38 57:124 #
-0.23205188546521893222518428956391 5:1.58 6:0.79000002 12:3.1700001 18:0.79000002 25:1.58 26:1.58 28:1.58 31:0.79000002 35:0.79000002 44:3.1700001 50:0.26300001 55:2.575 56:15 57:103 #
-0.23205188546521893222518428956391 37:1.36 46:0.68000001 48:0.68000001 50:0.13600001 55:4.3410001 56:46 57:178 #
-0.23205188546521893222518428956391 5:3.27 19:1.63 27:1.63 42:4.9099998 55:1.545 56:5 57:17 #
-0.23210741742235030393715078389505 8:0.40000001 12:0.81 13:0.40000001 19:1.22 25:2.8599999 26:2.45 29:0.40000001 30:0.40000001 37:0.40000001 39:0.40000001 44:0.40000001 48:2.45 49:0.126 50:0.063000001 51:0.063000001 52:0.063000001 55:1.6109999 56:12 57:116 #
-0.23208605182120867205242120689945 12:3.3299999 27:3.3299999 42:3.3299999 45:3.3299999 55:1.3 56:4 57:13 #
-0.23107245663473408026078459442942 3:1.16 12:2.3199999 18:3.48 21:1.16 25:2.3199999 26:1.16 28:1.16 30:1.16 31:1.16 35:1.16 36:1.16 39:1.16 50:0.139 52:0.139 55:1.515 56:10 57:50 #
-0.23199009083336474823511252907338 2:0.23999999 5:0.23999999 8:0.23999999 10:0.49000001 14:1.48 19:0.99000001 25:0.49000001 27:0.23999999 31:0.23999999 35:0.23999999 37:0.74000001 53:0.16 55:9.3100004 56:235 57:1108 #
-0.23199009083336474823511252907338 12:0.31999999 18:0.31999999 19:1.28 21:0.31999999 25:4.48 26:3.52 27:0.95999998 28:0.95999998 29:0.63999999 30:0.31999999 31:0.31999999 32:0.31999999 34:0.31999999 35:0.63999999 36:0.31999999 37:0.31999999 40:0.31999999 43:0.31999999 45:0.95999998 49:0.264 50:0.211 51:0.105 52:0.052000001 54:0.105 55:2.2579999 56:15 57:192 #
-0.23206293422393764469546795226051 5:0.73000002 6:0.23999999 10:0.23999999 12:0.49000001 19:2.46 21:0.49000001 25:1.23 26:0.73000002 27:1.47 28:0.49000001 29:0.49000001 30:0.49000001 31:0.49000001 32:0.49000001 34:0.49000001 35:0.49000001 36:0.49000001 39:0.49000001 40:0.49000001 43:0.73000002 45:0.73000002 50:0.287 51:0.041000001 52:0.041000001 54:0.041000001 55:1.7920001 56:12 57:224 #
-0.23277967073222238791885274622473 19:4.7600002 27:4.7600002 45:4.7600002 48:4.7600002 55:1.8 56:5 57:9 #
-0.23277967073222238791885274622473 1:0.0099999998 3:0.029999999 5:0.33000001 6:0.029999999 9:0.23 10:0.0099999998 12:0.090000004 16:0.13 18:0.0099999998 19:0.07 21:0.050000001 25:0.52999997 26:0.55000001 27:0.0099999998 33:0.47 35:0.0099999998 36:0.0099999998 37:0.44999999 38:0.0099999998 43:0.0099999998 47:0.050000001 49:0.2 50:0.127 51:0.064000003 53:0.0049999999 55:2.589 56:38 57:2349 #
-0.23208605182120867205242120689945 1:0.050000001 3:0.1 5:0.16 6:0.050000001 9:0.47999999 12:0.16 18:0.050000001 19:0.20999999 21:0.16 25:0.63999999 26:0.69 27:0.050000001 33:0.25999999 36:0.16 37:0.75 45:0.050000001 49:0.17200001 50:0.19499999 51:0.061999999 53:0.015 55:2.7579999 56:47 57:1073 #
-0.23129740903149098585345200262964 2:14.28 55:1.8 56:5 57:9 #
-0.23129740903149098585345200262964 1:0.25999999 6:0.25999999 9:0.25999999 12:0.77999997 33:2.3499999 41:0.25999999 46:0.51999998 50:0.033 55:2.921 56:61 57:111 #
-0.23131687000738188064730138648883 3:3.4400001 5:3.4400001 19:3.4400001 27:3.4400001 50:0.60900003 55:1.5 56:4 57:15 #
-0.23213375799007240907201321533648 12:4.25 19:6.3800001 27:2.1199999 55:1.133 56:3 57:17 #
-0.23277967032979729467001561715733 12:3.1900001 17:1.0599999 26:1.0599999 39:1.0599999 50:0.14300001 55:2.714 56:13 57:76 #
-0.23206293422393586833862855201005 19:8.1000004 45:2.7 55:1.8 56:5 57:9 #
-0.23131687000737288784080192272086 10:1.1900001 25:1.1900001 26:1.1900001 28:2.3800001 36:1.1900001 39:1.1900001 50:0.40400001 55:3.3789999 56:11 57:98 #
-0.23182826440075898766224327118834 25:2.1700001 35:2.1700001 50:0.68199998 55:4.2080002 56:15 57:101 #
-0.23131687000736333992279014637461 3:0.63999999 6:0.63999999 19:3.8399999 21:0.63999999 25:1.28 26:0.63999999 27:1.92 28:0.63999999 29:0.63999999 30:0.63999999 31:0.63999999 32:0.63999999 34:0.63999999 35:0.63999999 36:0.63999999 37:0.63999999 39:0.63999999 40:0.63999999 43:0.63999999 45:1.28 50:0.22499999 52:0.22499999 55:1.902 56:12 57:78 #
-0.23131687000731415704279925193987 12:0.5 18:0.5 19:1.5 21:0.5 25:2.01 26:1.5 27:1 28:1 35:0.5 45:1 50:0.168 51:0.083999999 52:0.083999999 54:0.168 55:2.303 56:15 57:129 #
-0.23131687000731104841833030150156 5:0.75999999 6:0.25 8:1.27 12:0.75999999 55:1.14 56:5 57:65 #
-0.2313168700073027217456456128275 42:3.7 52:0.523 55:2.5710001 56:10 57:36 #
-0.23182826440068704521024756104453 3:1.1900001 18:1.1900001 21:1.1900001 25:4.7600002 26:2.3800001 28:1.1900001 30:1.1900001 31:1.1900001 35:1.1900001 36:1.1900001 50:0.28600001 52:0.28600001 54:0.14300001 55:2.724 56:13 57:79 #
-0.23208605182110253473126704193419 41:1.4400001 43:1.4400001 45:2.8900001 46:1.4400001 51:0.227 55:1.64 56:12 57:41 #
-0.23206917035261834247883427906345 12:4.7600002 52:0.76899999 55:1.428 56:4 57:10 #
-0.23244064985365231468250613033888 1:0.87 3:0.87 19:1.75 50:0.493 55:1.344 56:4 57:39 #
-0.23208605174996743691906431195093 18:1.12 19:1.12 21:1.12 25:1.12 26:1.12 28:2.24 30:1.12 50:0.32600001 55:4.6890001 56:55 57:136 #
-0.23213375798202628974564731834107 5:1.4 12:2.8099999 52:0.23899999 55:1.923 56:7 57:50 #
-0.23277967072328165087924389808904 12:0.34999999 19:0.34999999 21:1.0599999 25:1.41 26:1.0599999 27:0.69999999 28:0.34999999 29:0.34999999 30:0.69999999 31:0.34999999 32:0.34999999 33:0.34999999 34:0.34999999 35:0.34999999 36:0.34999999 37:0.34999999 40:0.34999999 43:0.34999999 45:0.69999999 50:0.222 51:0.055 55:1.506 56:12 57:119 #
-0.23205188545508725894706003600731 16:1.38 19:1.38 27:2.77 37:1.38 45:1.38 48:1.38 55:1.666 56:9 57:35 #
-0.23215301827559853276028434265754 3:0.81 5:1.63 19:0.81 27:0.81 38:0.81 55:1.09 56:2 57:12 #
-0.23129740895276207357511566442554 5:0.51999998 18:0.51999998 21:0.51999998 25:0.51999998 26:0.51999998 27:0.51999998 28:1.05 30:0.51999998 42:0.51999998 50:0.16599999 55:3.888 56:55 57:140 #
-0.23244306970091566100222735258285 12:1.13 39:1.13 42:3.4000001 49:0.198 50:0.396 55:2.076 56:5 57:27 #
-0.23213375775888034358018785496824 3:0.38 5:0.38 12:0.38 13:0.38 19:1.14 21:0.38 45:0.38 50:0.414 52:0.27599999 55:1.104 56:2 57:53 #
-0.23267867754719417927589120154153 3:0.69999999 6:0.69999999 19:3.54 21:0.69999999 27:1.41 37:0.69999999 45:0.69999999 49:0.126 50:0.252 55:1.375 56:5 57:55 #
-0.23210741690944242110461459560611 6:1.34 18:0.67000002 19:1.34 27:0.67000002 33:1.34 44:0.67000002 45:0.67000002 50:0.111 55:1.285 56:5 57:27 #
-0.23129740720998814840214663490769 3:0.47 5:1.91 12:1.91 16:0.47 42:1.4299999 45:0.94999999 55:1.233 56:4 57:37 #
-0.232086048173573367137123568682 1:0.63999999 3:0.63999999 12:0.63999999 16:0.63999999 19:0.63999999 39:0.63999999 42:0.63999999 44:0.63999999 49:0.30899999 50:0.61900002 55:1.727 56:5 57:57 #
-0.23107244868798126891107358460431 10:1.5599999 19:1.5599999 25:1.5599999 26:1.5599999 28:3.1199999 36:1.5599999 50:0.484 55:3 56:11 57:81 #
-0.21288913902431821911775955413759 46:1.2 50:0.163 55:1.153 56:3 57:15 #
-0.026673290891827017290438561758492 2:0.38999999 3:0.19 5:0.19 6:0.090000004 12:0.28999999 15:0.28999999 18:0.28999999 19:0.88999999 21:0.28999999 25:0.49000001 26:0.49000001 37:0.19 41:4.75 43:0.090000004 45:0.090000004 46:5.7399998 49:1.353 50:0.079999998 52:0.016000001 55:1.679 56:17 57:178 #
-0.23206898045023818810683735591738 3:1.63 12:1.63 16:1.63 19:1.63 21:1.63 55:1.181 56:3 57:13 #
-0.23267863239614511305930477647053 19:1.21 39:1.21 42:1.21 55:1.166 56:2 57:21 #
-0.23107234439793422620113005905296 33:2.3199999 45:2.3199999 55:2 56:4 57:16 #
-0.23095737391585938191873594860226 3:1.36 5:0.68000001 6:0.68000001 19:2.05 27:1.36 37:0.68000001 50:0.35699999 55:1.294 56:5 57:44 #
-0.22073685111549334880720607543481 50:1.369 55:1.25 56:2 57:5 #
-0.23129711324711288433775280282134 5:0.31 12:0.31 25:0.31 28:0.63 30:0.63 33:0.63 35:0.31 50:0.045000002 55:1.813 56:11 57:107 #
-0.23198409195870317578425101601169 12:1.35 19:2.7 21:1.35 26:1.35 43:1.35 55:1.88 56:5 57:47 #
-0.2320597248889514352399032759422 55:1.6 56:4 57:8 #
-0.23205693385247649906943934183801 1:0.79000002 3:0.79000002 5:0.79000002 12:0.79000002 19:0.79000002 54:0.147 55:1.166 56:4 57:42 #
-0.23208193530389031877803063252941 19:4.3400002 55:1.3329999 56:3 57:12 #
-0.23215300627201973515667532410589 5:0.38 12:2.28 19:0.75999999 25:1.14 26:0.75999999 29:0.38 30:1.14 55:1.352 56:3 57:46 #
-0.23181325659790041893160150721087 12:4.9000001 55:2.454 56:5 57:27 #
-0.23126563081695261647752204225981 45:4.3400002 55:1 56:1 57:8 #
-0.23274735201034243980977578303282 12:1.75 29:0.87 39:1.75 48:0.87 55:1.795 56:11 57:79 #
-0.23122166115506523342837397194671 3:0.58999997 5:0.58999997 12:2.3800001 18:1.1900001 19:0.58999997 25:1.78 26:1.1900001 28:0.58999997 30:0.58999997 31:0.58999997 35:0.58999997 36:0.58999997 39:1.1900001 50:0.177 52:0.088 55:1.8 56:10 57:81 #
-0.22951921221491267122161161751137 5:0.50999999 13:0.50999999 19:1.55 27:0.50999999 33:1.03 52:0.28099999 55:1.363 56:5 57:45 #
-0.22987428687529498638753011618974 3:0.55000001 19:1.65 21:0.55000001 27:0.55000001 38:0.55000001 44:1.1 45:0.55000001 50:0.092 55:1.84 56:5 57:46 #
-0.22835858989917490191601245896891 2:1.12 9:1.12 26:1.12 27:2.24 37:1.12 48:1.12 49:0.361 55:2.875 56:16 57:115 #
-0.22068902142263568944002827265649 55:1 56:1 57:5 #
-0.14143091997596912712253924837569 1:0.2 2:0.059999999 3:0.2 5:0.40000001 12:0.94999999 13:0.27000001 16:0.059999999 17:0.059999999 25:3.47 33:0.059999999 36:0.34 37:0.059999999 43:0.13 44:0.059999999 45:0.059999999 48:0.13 49:0.028000001 50:0.093000002 53:0.017999999 55:2.4230001 56:26 57:693 #
-0.079822222653092467226088047027588 1:0.2 2:0.059999999 3:0.2 5:0.40000001 12:0.94999999 13:0.27000001 16:0.059999999 17:0.059999999 25:3.47 33:0.059999999 36:0.34 37:0.059999999 43:0.13 44:0.059999999 45:0.059999999 48:0.13 49:0.027000001 50:0.090000004 53:0.017999999 55:2.4230001 56:26 57:693 #
-0.21427017652361823873974344678572 55:1.166 56:3 57:14 #
-0.0011569913812391474650098643905949 19:8.1000004 45:2.7 55:1 56:1 57:5 #
