SVM-light Version V6.02
2 # kernel type
3 # kernel parameter -d 
1 # kernel parameter -g 
1 # kernel parameter -s 
1 # kernel parameter -r 
empty# kernel parameter -u 
57 # highest feature index 
131 # number of training documents 
129 # number of support vectors plus 1 
0.77230314 # threshold b, each following line is a SV (starting with alpha*y)
-0.22687560072382406683999533925089 10:1.1900001 25:1.1900001 26:1.1900001 28:2.3800001 36:1.1900001 39:1.1900001 50:0.40400001 55:3.3789999 56:11 57:98 #
-0.22683156370833101878048410071642 3:0.31999999 5:0.49000001 6:0.16 12:1.48 17:0.31999999 19:0.16 21:0.16 25:1.3099999 29:1.3099999 30:0.49000001 36:0.64999998 37:0.16 45:0.16 50:0.022 55:1.638 56:6 57:154 #
-0.22733229364668516847558521476458 5:0.31 12:0.31 25:0.31 28:0.63 30:0.63 33:0.63 35:0.31 50:0.045000002 55:1.813 56:11 57:107 #
-0.22669750124403531543748613330536 8:0.67000002 12:1.35 16:0.67000002 19:4.0500002 21:2.02 25:0.67000002 35:0.67000002 45:0.67000002 50:0.38600001 55:3.27 56:19 57:121 #
-0.22720747641220584434051943389932 25:9.3000002 55:3.2219999 56:9 57:29 #
0.50000000000000566213742558829836 1:0.17 3:0.079999998 5:0.41999999 6:0.079999998 7:0.079999998 8:0.41999999 9:0.079999998 10:0.079999998 12:0.60000002 13:0.17 14:0.17 17:0.17 18:0.079999998 19:1.2 21:3.1700001 23:0.34 24:0.079999998 50:0.081 51:0.027000001 52:0.108 53:0.013 55:4.0700002 56:48 57:574 #
0.50000000000000566213742558829836 1:0.52999997 3:1.0700001 5:0.52999997 7:1.0700001 12:0.52999997 16:0.52999997 17:0.52999997 19:4.3000002 21:1.0700001 23:1.61 45:0.52999997 52:1.183 53:0.25299999 55:5.454 56:68 57:180 #
0.50000000000000566213742558829836 1:0.50999999 2:0.50999999 7:0.50999999 10:0.50999999 15:0.50999999 16:2.0699999 18:2.0699999 19:1.03 21:1.03 50:0.13500001 52:0.067000002 55:2.6760001 56:17 57:91 #
0.50000000000000566213742558829836 2:0.54000002 3:0.54000002 5:2.1900001 7:1.09 12:0.54000002 13:0.54000002 16:0.54000002 17:3.29 19:3.8399999 21:1.64 50:0.241 52:1.045 53:0.32100001 55:5.0469999 56:140 57:212 #
0.50000000000000566213742558829836 3:0.38 5:1.15 10:0.76999998 12:0.38 16:0.38 17:0.76999998 19:2.7 21:1.15 23:0.38 45:1.15 50:0.061000001 52:0.98500001 53:0.184 55:3.9230001 56:78 57:255 #
-0.2268755990959598900502669494017 3:1.63 12:1.63 16:1.63 19:1.63 21:1.63 55:1.181 56:3 57:13 #
-0.22720747641220584434051943389932 3:3.4400001 18:3.4400001 21:3.4400001 55:1.727 56:4 57:19 #
-0.22669750120047793551236736675492 5:0.33000001 10:0.66000003 19:0.66000003 21:0.33000001 25:7.6100001 26:2.6400001 33:0.33000001 37:1.3200001 41:2.3099999 42:0.33000001 44:0.33000001 49:0.34900001 50:0.52399999 51:0.116 55:3.6270001 56:19 57:341 #
0.50000000000000566213742558829836 3:0.55000001 5:0.55000001 10:0.55000001 16:0.55000001 19:1.67 21:0.55000001 45:0.55000001 50:0.098999999 52:0.89300001 55:2.122 56:16 57:121 #
0.50000000000000566213742558829836 1:0.43000001 3:0.43000001 5:0.43000001 7:0.86000001 12:0.43000001 17:0.86000001 18:0.43000001 19:1.29 21:4.7600002 24:1.29 49:0.14 52:0.91500002 55:3.891 56:47 57:144 #
0.50000000000000566213742558829836 1:0.44999999 5:0.68000001 6:0.44999999 8:0.44999999 10:0.22 11:0.22 13:1.6 15:0.44999999 17:0.91000003 18:1.83 19:1.83 21:0.68000001 23:1.6 40:0.91000003 50:0.037 52:0.18700001 53:0.112 55:3.184 56:30 57:363 #
-0.22690088291251808705339954030933 3:0.58999997 5:0.28999999 6:0.58999997 7:0.58999997 8:0.28999999 10:0.28999999 11:0.28999999 18:0.88999999 19:3.5799999 21:1.49 25:0.28999999 26:0.28999999 45:0.28999999 49:0.089000002 52:0.044 53:0.134 55:1.6 56:15 57:120 #
-0.22669750120047793551236736675492 5:1.4 12:2.8099999 52:0.23899999 55:1.923 56:7 57:50 #
-0.22683156370833101878048410071642 10:0.52999997 12:2.6800001 19:0.52999997 25:0.52999997 26:0.52999997 28:1.0700001 36:0.52999997 39:1.0700001 50:0.19400001 55:3.7309999 56:21 57:153 #
0.50000000000000566213742558829836 3:1.12 5:0.56 10:0.56 16:0.56 19:2.25 21:1.12 45:0.56 50:0.102 52:0.61500001 55:2.4030001 56:19 57:137 #
0.50000000000000566213742558829836 3:1.3099999 5:0.64999998 12:0.64999998 19:5.2600002 20:1.97 21:4.5999999 24:1.3099999 40:0.64999998 52:0.81599998 53:0.068000004 55:3.1730001 56:43 57:165 #
0.50000000000000566213742558829836 3:0.61000001 7:0.61000001 17:1.23 18:1.85 19:2.46 21:1.23 50:0.176 52:0.35299999 55:2.25 56:13 57:81 #
-0.22790170793213371247531995322788 3:0.58999997 5:0.58999997 12:2.3800001 18:1.1900001 19:0.58999997 25:1.78 26:1.1900001 28:0.58999997 30:0.58999997 31:0.58999997 35:0.58999997 36:0.58999997 39:1.1900001 50:0.177 52:0.088 55:1.8 56:10 57:81 #
-0.22683156370836254911438345516217 3:0.63999999 6:0.63999999 19:3.8399999 21:0.63999999 25:1.28 26:0.63999999 27:1.92 28:0.63999999 29:0.63999999 30:0.63999999 31:0.63999999 32:0.63999999 34:0.63999999 35:0.63999999 36:0.63999999 37:0.63999999 39:0.63999999 40:0.63999999 43:0.63999999 45:1.28 50:0.22499999 52:0.22499999 55:1.902 56:12 57:78 #
-0.22683156369765966609008955856552 10:1.5599999 19:1.5599999 25:1.5599999 26:1.5599999 28:3.1199999 36:1.5599999 50:0.484 55:3 56:11 57:81 #
0.50000000000000566213742558829836 1:0.22 2:0.22 3:0.22 5:1.77 6:0.22 7:0.44 8:0.44 9:0.22 10:2.8800001 12:0.88 13:0.22 15:1.11 16:0.44 18:0.44 19:3.3299999 21:3.3299999 23:0.44 24:0.44 40:0.44 52:0.56300002 53:0.15000001 55:86.650002 56:1038 57:1733 #
0.50000000000000566213742558829836 1:0.34 2:0.41999999 3:0.25 5:0.079999998 6:0.41999999 7:0.079999998 8:0.25 9:0.079999998 10:1.63 11:0.34 12:0.50999999 13:0.94 15:0.17 16:0.079999998 19:3 21:0.94 23:0.34 24:0.34 45:0.17 50:0.063000001 52:0.287 53:0.223 54:0.079000004 55:3.3139999 56:62 57:537 #
0.50000000000000566213742558829836 7:1.04 16:2.0799999 19:2.0799999 21:2.0799999 55:3.812 56:11 57:61 #
-0.22683156370833101878048410071642 12:3.5699999 21:10.71 27:3.5699999 55:1 56:1 57:7 #
-0.22743332898022006194338473505923 5:0.50999999 13:0.50999999 19:1.55 27:0.50999999 33:1.03 52:0.28099999 55:1.363 56:5 57:45 #
-0.22720747641220584434051943389932 19:8.3299999 45:16.66 52:0.92500001 55:1.8329999 56:6 57:11 #
0.50000000000000566213742558829836 7:1.33 19:1.33 21:5.3299999 52:0.20200001 53:1.4170001 55:29.125 56:223 57:233 #
0.50000000000000566213742558829836 5:2.5 12:0.62 17:1.25 19:3.1199999 21:0.62 52:0.079999998 55:2.1110001 56:18 57:57 #
0.50000000000000566213742558829836 2:0.89999998 16:0.89999998 18:1.8099999 19:3.6300001 21:2.72 45:0.89999998 52:0.16500001 53:0.16500001 55:6.2659998 56:41 57:94 #
-0.22720747641220584434051943389932 25:9.5200005 26:4.7600002 27:4.7600002 28:4.7600002 29:4.7600002 30:4.7600002 31:4.7600002 32:4.7600002 34:4.7600002 35:4.7600002 36:4.7600002 40:4.7600002 50:1.257 55:3.3329999 56:11 57:30 #
-0.22784671997415706368173005103017 5:7.1399999 45:7.1399999 55:1.6 56:4 57:8 #
-0.22784671997415706368173005103017 3:1.96 16:1.96 42:3.9200001 45:3.9200001 55:1.647 56:4 57:28 #
0.50000000000000566213742558829836 1:0.07 2:0.02 3:0.15000001 5:0.25 6:0.2 8:0.02 9:0.15000001 12:0.25 13:0.25 14:0.07 16:0.050000001 17:0.22 19:0.050000001 21:0.02 23:0.37 24:0.02 29:0.02 36:0.050000001 37:0.30000001 38:0.02 40:0.02 43:0.02 45:0.02 49:0.011 50:0.022 53:0.022 55:1.423 56:20 57:965 #
0.50000000000000566213742558829836 1:0.17 2:0.25999999 3:1.0700001 5:0.34999999 6:0.62 7:0.52999997 8:0.17 9:0.62 10:0.80000001 11:0.25999999 12:1.25 13:0.17 15:0.62 16:0.62 17:0.079999998 18:1.4299999 19:2.5 20:0.17 21:1.16 23:0.88999999 24:0.079999998 40:0.079999998 45:0.079999998 50:0.066 52:0.212 53:0.185 54:0.013 55:6.8150001 56:583 57:1329 #
0.50000000000000566213742558829836 1:0.07 2:0.02 3:0.15000001 5:0.25 6:0.2 8:0.02 9:0.15000001 12:0.25 13:0.25 14:0.07 16:0.050000001 17:0.22 19:0.050000001 21:0.02 23:0.37 24:0.02 29:0.02 36:0.050000001 37:0.30000001 38:0.02 40:0.02 43:0.02 45:0.02 49:0.011 50:0.022 53:0.022 55:1.423 56:20 57:965 #
-0.22733258072544848538143469340866 12:1.0599999 19:1.0599999 25:3.1900001 26:1.0599999 37:1.0599999 39:2.1199999 50:0.168 52:0.168 55:1.75 56:7 57:63 #
-0.22683156370833101878048410071642 12:3.1900001 17:1.0599999 26:1.0599999 39:1.0599999 50:0.14300001 55:2.714 56:13 57:76 #
-0.2273325771506553016898521946132 1:0.63999999 3:0.63999999 12:0.63999999 16:0.63999999 19:0.63999999 39:0.63999999 42:0.63999999 44:0.63999999 49:0.30899999 50:0.61900002 55:1.727 56:5 57:57 #
0.50000000000000566213742558829836 3:0.47999999 5:0.95999998 9:0.47999999 16:0.95999998 17:0.95999998 19:1.4400001 21:0.47999999 23:0.95999998 45:0.47999999 50:0.133 51:0.066 52:0.46799999 53:0.26699999 55:3.3150001 56:61 57:242 #
0.50000000000000566213742558829836 1:0.46000001 3:0.46000001 8:0.46000001 12:1.38 15:2.3099999 17:0.46000001 18:0.46000001 19:2.77 21:2.3099999 23:1.38 40:0.46000001 50:0.49000001 52:0.081 53:0.81599998 55:3.4000001 56:12 57:102 #
0.50000000000000566213742558829836 1:1.03 3:0.68000001 5:1.03 7:0.68000001 10:0.68000001 12:0.68000001 15:0.34 16:0.68000001 19:5.8600001 21:1.37 23:0.34 24:0.34 45:0.34 52:0.366 53:0.061000001 55:1.895 56:12 57:91 #
-0.22683156370847668004131492125452 19:2.3699999 21:1.01 25:0.67000002 26:1.6900001 27:1.01 28:0.33000001 30:0.67000002 35:0.33000001 37:0.33000001 41:1.01 43:0.33000001 45:1.01 46:1.01 50:0.108 55:1.851 56:13 57:100 #
-0.22790170787436969668249275855487 3:0.47 5:1.91 12:1.91 16:0.47 42:1.4299999 45:0.94999999 55:1.233 56:4 57:37 #
-0.2273325807255182073873811532394 45:7.6900001 55:1.3329999 56:2 57:4 #
0.50000000000000566213742558829836 3:0.18000001 5:0.18000001 9:0.54000002 10:0.36000001 11:0.36000001 12:0.89999998 14:0.36000001 16:0.72000003 18:0.18000001 19:2.7 20:0.18000001 21:0.72000003 24:0.54000002 38:0.36000001 43:0.18000001 52:0.63300002 53:0.063000001 55:9.0430002 56:363 57:841 #
0.50000000000000566213742558829836 1:0.25999999 2:0.25999999 3:0.51999998 5:0.38999999 7:0.38999999 8:0.13 10:0.25999999 12:0.77999997 13:0.25999999 16:1.5700001 18:0.25999999 19:2.6099999 21:1.5700001 23:0.13 24:0.38999999 37:0.13 50:0.12899999 52:0.77899998 53:0.021 54:0.021 55:2.6889999 56:49 57:476 #
0.50000000000000566213742558829836 3:0.31999999 5:0.64999998 6:0.64999998 7:0.31999999 8:0.31999999 12:0.31999999 13:0.31999999 16:0.31999999 17:0.31999999 19:2.28 21:3.25 24:0.31999999 45:0.31999999 50:0.104 53:0.15700001 54:0.052000001 55:1.5369999 56:10 57:143 #
-0.22687560071423829022307927516522 16:1.38 19:1.38 27:2.77 37:1.38 45:1.38 48:1.38 55:1.666 56:9 57:35 #
-0.22669750120047788000121613549709 10:1.85 19:3.7 27:1.85 52:0.34900001 55:1.47 56:4 57:25 #
-0.22769686144784540005048256716691 10:0.28 12:0.56 25:1.13 26:0.83999997 28:0.56 30:0.83999997 35:0.56 37:0.56 48:0.28 50:0.26199999 55:3.25 56:75 57:286 #
0.50000000000000566213742558829836 1:0.19 2:0.19 3:0.38999999 5:0.19 8:0.58999997 12:0.38999999 16:0.58999997 17:0.38999999 18:1.37 19:4.52 21:3.1400001 24:0.19 37:0.19 52:0.25799999 53:0.032000002 55:3.112 56:43 57:305 #
0.50000000000000566213742558829836 1:0.46000001 5:0.69 6:0.46000001 8:0.46000001 10:0.23 11:0.23 13:1.61 15:0.46000001 17:0.92000002 18:1.84 19:1.84 21:0.69 23:1.61 40:0.92000002 50:0.037 52:0.18799999 53:0.112 55:3.105 56:30 57:354 #
0.50000000000000566213742558829836 2:1.49 7:2.98 10:1.49 16:1.49 17:2.98 21:2.98 50:0.171 53:0.171 54:0.171 55:13 56:140 57:156 #
-0.22790170794388564523558216023957 3:0.079999998 6:0.25 8:0.25 9:0.079999998 12:1.17 13:0.079999998 14:0.25 17:0.41999999 25:3.1099999 33:0.16 36:0.25 37:0.25 49:0.034000002 50:0.079999998 55:2.023 56:27 57:694 #
-0.22784671997415706368173005103017 6:0.14 10:0.14 18:0.28999999 19:0.74000001 21:0.14 25:0.14 26:0.14 27:0.58999997 33:0.14 37:0.58999997 45:0.44 50:0.29699999 55:1.803 56:27 57:238 #
-0.22790170794388564523558216023957 1:0.029999999 2:0.029999999 9:0.059999999 10:0.090000004 11:0.029999999 12:0.15000001 17:0.029999999 18:0.12 19:0.029999999 25:0.46000001 26:0.27000001 29:0.029999999 30:0.059999999 36:0.029999999 37:0.15000001 41:0.36000001 43:0.029999999 45:0.12 46:1.1900001 49:0.024 50:0.178 52:0.12800001 55:3.427 56:49 57:1827 #
0.50000000000000566213742558829836 3:0.16 5:0.33000001 7:0.16 9:0.5 11:0.16 16:0.5 18:1.5 19:0.66000003 25:0.33000001 50:0.088 52:0.884 53:0.75199997 54:0.022 55:5.3280001 56:47 57:1087 #
0.50000000000000566213742558829836 3:1.1 5:0.55000001 10:0.55000001 16:0.55000001 19:2.2 21:1.1 45:0.55000001 50:0.097000003 52:0.68300003 55:2.3380001 56:19 57:145 #
0.50000000000000566213742558829836 1:0.16 2:0.31999999 3:0.64999998 5:0.31999999 7:0.16 10:0.49000001 11:0.16 13:0.16 15:0.16 16:0.16 18:0.81 19:0.31999999 20:0.16 21:0.98000002 40:0.16 52:0.773 53:0.079999998 54:0.079999998 55:6.586 56:132 57:955 #
-0.22790170794388564523558216023957 3:0.27000001 10:0.82999998 12:0.55000001 25:0.55000001 26:0.27000001 28:0.55000001 30:0.27000001 46:0.27000001 49:0.082000002 50:0.164 55:2.2349999 56:51 57:199 #
-0.22790170794388564523558216023957 3:2.27 12:4.54 39:2.27 52:0.296 55:5.25 56:32 57:63 #
-0.22720747641220584434051943389932 12:1.58 33:4.7600002 44:6.3400002 55:1.2589999 56:3 57:34 #
0.50000000000000566213742558829836 3:0.72000003 5:1.8099999 10:0.36000001 12:0.36000001 17:0.72000003 19:0.72000003 21:0.36000001 33:0.36000001 49:0.052999999 50:0.26499999 55:1.543 56:13 57:88 #
0.50000000000000566213742558829836 1:0.83999997 2:0.83999997 7:1.6900001 9:0.83999997 10:0.83999997 12:0.83999997 16:10.16 17:0.83999997 19:0.83999997 21:2.54 24:0.83999997 52:1.113 53:0.278 54:0.092 55:173 56:418 57:519 #
0.50000000000000566213742558829836 19:1.29 21:0.63999999 55:1.103 56:3 57:32 #
-0.22769707176700726414253495022422 19:0.99000001 21:0.99000001 27:1.98 37:0.99000001 44:0.99000001 45:0.99000001 55:1.478 56:5 57:34 #
-0.22683152380290694249964644768625 25:1.63 36:1.63 55:2.187 56:5 57:35 #
-0.22687560072384527209976567974081 10:1.36 12:2.73 19:1.36 25:1.36 26:1.36 28:2.73 36:1.36 50:0.68000001 55:3.142 56:11 57:88 #
0.50000000000000566213742558829836 3:0.70999998 5:0.70999998 16:0.70999998 19:1.42 21:0.70999998 45:0.70999998 50:0.121 52:1.094 55:2.0209999 56:16 57:95 #
0.50000000000000566213742558829836 3:0.38999999 5:1.17 10:0.77999997 12:0.38999999 16:0.38999999 17:0.77999997 19:2.73 21:1.17 23:0.38999999 45:1.17 50:0.061999999 52:0.86900002 53:0.186 55:4 56:78 57:256 #
0.50000000000000566213742558829836 1:0.54000002 3:1.08 5:0.54000002 7:1.08 12:0.54000002 16:0.54000002 17:0.54000002 19:4.3200002 21:1.08 23:1.62 45:0.54000002 52:1.182 53:0.25299999 55:5.454 56:68 57:180 #
-0.2273325807255182073873811532394 19:9.0900002 27:9.0900002 45:9.0900002 55:1 56:1 57:6 #
-0.22784671997415706368173005103017 10:2.98 15:1.49 25:1.49 26:1.49 37:1.49 43:1.49 50:0.20900001 51:0.20900001 55:3.5 56:17 57:49 #
-0.22784671997415706368173005103017 29:14.28 42:14.28 52:1.123 55:1.3 56:4 57:13 #
0.50000000000000566213742558829836 3:0.31999999 5:0.63999999 6:0.63999999 7:0.31999999 8:0.31999999 12:0.31999999 13:0.31999999 16:0.31999999 17:0.31999999 19:2.27 21:3.24 24:0.31999999 45:0.31999999 50:0.106 53:0.15899999 54:0.052999999 55:1.5369999 56:10 57:143 #
0.50000000000000566213742558829836 19:1.29 21:0.63999999 55:1.103 56:3 57:32 #
-0.2273325807255182073873811532394 12:2.1800001 19:1.45 25:2.1800001 28:0.72000003 44:1.45 50:0.122 55:1.785 56:18 57:75 #
-0.22687560065768819228537722665351 5:0.51999998 18:0.51999998 21:0.51999998 25:0.51999998 26:0.51999998 27:0.51999998 28:1.05 30:0.51999998 42:0.51999998 50:0.16599999 55:3.888 56:55 57:140 #
-0.22784671997415550936949557581102 19:8.1000004 45:2.7 55:1 56:1 57:5 #
-0.22669750120047793551236736675492 5:0.75999999 17:0.75999999 25:2.3 26:0.75999999 30:1.53 55:2.3 56:7 57:138 #
-0.22669750120047793551236736675492 2:0.2 3:0.2 12:1.03 18:0.62 19:0.41 25:2.49 26:0.62 36:0.2 37:0.2 48:0.2 50:0.086999997 55:2.7969999 56:127 57:512 #
-0.22790170794388564523558216023957 1:0.039999999 2:0.090000004 3:0.31 5:0.039999999 6:0.22 7:0.039999999 10:0.57999998 11:0.090000004 12:1.17 16:0.13 17:0.039999999 19:1.3 21:1.17 23:0.039999999 25:0.89999998 26:0.54000002 28:0.039999999 30:0.18000001 31:0.18000001 35:0.18000001 36:0.039999999 37:0.31 39:0.22 41:0.039999999 45:0.13 46:0.039999999 48:0.090000004 49:0.013 50:0.22400001 52:0.027000001 53:0.0060000001 55:1.784 56:29 57:1192 #
-0.22784671997415706368173005103017 12:1.4 17:0.69999999 19:1.4 21:1.4 27:0.69999999 31:0.69999999 35:1.4 40:2.1099999 50:0.26699999 51:0.066 55:17.952 56:200 57:377 #
-0.22683156370833101878048410071642 2:0.25999999 3:0.25999999 5:0.25999999 8:0.25999999 11:0.25999999 12:1.0700001 17:0.52999997 19:1.0700001 21:1.0700001 25:1.34 50:0.111 53:0.037 55:1.564 56:8 57:194 #
-0.22683156370833090775818163820077 3:5.0999999 5:2.04 12:1.02 19:1.02 27:1.02 50:1.094 55:1.29 56:5 57:40 #
-0.22726467325455035339842879693606 1:0.27000001 3:0.13 5:0.81999999 12:0.55000001 13:0.41 19:1.24 21:1.1 25:1.65 26:0.81999999 27:0.13 28:0.13 29:0.13 30:0.13 31:0.13 32:0.13 34:0.13 35:0.13 36:0.13 37:0.41 40:0.13 42:0.41 43:0.13 45:0.41 48:0.27000001 49:0.041000001 50:0.102 51:0.02 52:0.02 55:2.78 56:34 57:367 #
-0.22726467325455035339842879693606 27:33.330002 55:1 56:1 57:3 #
-0.22720747641220584434051943389932 12:4.9000001 55:2.454 56:5 57:27 #
-0.22687560072383283760188987798756 8:0.38999999 12:0.38999999 25:0.38999999 29:0.38999999 30:0.38999999 33:0.38999999 36:0.38999999 37:0.38999999 50:0.048999999 55:2 56:38 57:124 #
-0.22687560072383283760188987798756 5:1.58 6:0.79000002 12:3.1700001 18:0.79000002 25:1.58 26:1.58 28:1.58 31:0.79000002 35:0.79000002 44:3.1700001 50:0.26300001 55:2.575 56:15 57:103 #
-0.22687560072383283760188987798756 37:1.36 46:0.68000001 48:0.68000001 50:0.13600001 55:4.3410001 56:46 57:178 #
-0.22720747641220584434051943389932 5:3.27 19:1.63 27:1.63 42:4.9099998 55:1.545 56:5 57:17 #
-0.22726467325455035339842879693606 8:0.40000001 12:0.81 13:0.40000001 19:1.22 25:2.8599999 26:2.45 29:0.40000001 30:0.40000001 37:0.40000001 39:0.40000001 44:0.40000001 48:2.45 49:0.126 50:0.063000001 51:0.063000001 52:0.063000001 55:1.6109999 56:12 57:116 #
-0.22726467325455035339842879693606 12:3.3299999 27:3.3299999 42:3.3299999 45:3.3299999 55:1.3 56:4 57:13 #
-0.22769686144784540005048256716691 3:1.16 12:2.3199999 18:3.48 21:1.16 25:2.3199999 26:1.16 28:1.16 30:1.16 31:1.16 35:1.16 36:1.16 39:1.16 50:0.139 52:0.139 55:1.515 56:10 57:50 #
-0.22720747400341012589564115842222 55:1 56:1 57:5 #
-0.22769686144784540005048256716691 2:0.23999999 5:0.23999999 8:0.23999999 10:0.49000001 14:1.48 19:0.99000001 25:0.49000001 27:0.23999999 31:0.23999999 35:0.23999999 37:0.74000001 53:0.16 55:9.3100004 56:235 57:1108 #
-0.22769686144784540005048256716691 8:0.5 12:1 13:0.5 19:1.5 25:1 26:0.5 29:0.5 30:0.5 44:0.5 48:2.5 50:0.075000003 52:0.075000003 55:1.483 56:6 57:89 #
-0.22769686144784540005048256716691 5:2.0799999 11:0.82999998 12:0.82999998 16:0.82999998 18:1.66 19:2.9100001 21:0.41 50:0.131 52:0.329 54:0.064999998 55:2.9619999 56:11 57:157 #
-0.22769686144784540005048256716691 12:0.31999999 18:0.31999999 19:1.28 21:0.31999999 25:4.48 26:3.52 27:0.95999998 28:0.95999998 29:0.63999999 30:0.31999999 31:0.31999999 32:0.31999999 34:0.31999999 35:0.63999999 36:0.31999999 37:0.31999999 40:0.31999999 43:0.31999999 45:0.95999998 49:0.264 50:0.211 51:0.105 52:0.052000001 54:0.105 55:2.2579999 56:15 57:192 #
-0.22720747641220584434051943389932 12:0.5 18:0.5 19:1.5 21:0.5 25:2.01 26:1.5 27:1 28:1 35:0.5 45:1 50:0.168 51:0.083999999 52:0.083999999 54:0.168 55:2.303 56:15 57:129 #
-0.22769686144784540005048256716691 5:0.73000002 6:0.23999999 10:0.23999999 12:0.49000001 19:2.46 21:0.49000001 25:1.23 26:0.73000002 27:1.47 28:0.49000001 29:0.49000001 30:0.49000001 31:0.49000001 32:0.49000001 34:0.49000001 35:0.49000001 36:0.49000001 39:0.49000001 40:0.49000001 43:0.73000002 45:0.73000002 50:0.287 51:0.041000001 52:0.041000001 54:0.041000001 55:1.7920001 56:12 57:224 #
-0.22769686144784540005048256716691 19:4.7600002 27:4.7600002 45:4.7600002 48:4.7600002 55:1.8 56:5 57:9 #
-0.22726467325455035339842879693606 1:0.0099999998 3:0.029999999 5:0.33000001 6:0.029999999 9:0.23 10:0.0099999998 12:0.090000004 16:0.13 18:0.0099999998 19:0.07 21:0.050000001 25:0.52999997 26:0.55000001 27:0.0099999998 33:0.47 35:0.0099999998 36:0.0099999998 37:0.44999999 38:0.0099999998 43:0.0099999998 47:0.050000001 49:0.2 50:0.127 51:0.064000003 53:0.0049999999 55:2.589 56:38 57:2349 #
-0.22726467325455035339842879693606 1:0.050000001 3:0.1 5:0.16 6:0.050000001 9:0.47999999 12:0.16 18:0.050000001 19:0.20999999 21:0.16 25:0.63999999 26:0.69 27:0.050000001 33:0.25999999 36:0.16 37:0.75 45:0.050000001 49:0.17200001 50:0.19499999 51:0.061999999 53:0.015 55:2.7579999 56:47 57:1073 #
-0.22726467325455035339842879693606 2:14.28 55:1.8 56:5 57:9 #
-0.22790170794388564523558216023957 1:0.25999999 6:0.25999999 9:0.25999999 12:0.77999997 33:2.3499999 41:0.25999999 46:0.51999998 50:0.033 55:2.921 56:61 57:111 #
-0.22790170794388564523558216023957 3:3.4400001 5:3.4400001 19:3.4400001 27:3.4400001 50:0.60900003 55:1.5 56:4 57:15 #
-0.22669750120047788000121613549709 19:1.21 39:1.21 42:1.21 55:1.166 56:2 57:21 #
-0.22726467325455024237612633442041 3:1.1900001 18:1.1900001 21:1.1900001 25:4.7600002 26:2.3800001 28:1.1900001 30:1.1900001 31:1.1900001 35:1.1900001 36:1.1900001 50:0.28600001 52:0.28600001 54:0.14300001 55:2.724 56:13 57:79 #
-0.22733250773354163332129473928944 33:2.3199999 45:2.3199999 55:2 56:4 57:16 #
-0.2272074764122054002513095838367 42:3.7 52:0.523 55:2.5710001 56:10 57:36 #
-0.2272646732545487990861943217169 19:8.1000004 45:2.7 55:1.8 56:5 57:9 #
-0.22769686144783651826628556591459 25:2.1700001 35:2.1700001 50:0.68199998 55:4.2080002 56:15 57:101 #
-0.22733258072544848538143469340866 5:0.75999999 6:0.25 8:1.27 12:0.75999999 55:1.14 56:5 57:65 #
-0.22784671994130423211544211881119 3:0.38 5:0.38 12:0.38 13:0.38 19:1.14 21:0.38 45:0.38 50:0.414 52:0.27599999 55:1.104 56:2 57:53 #
-0.22726467318794618677202379330993 18:1.12 19:1.12 21:1.12 25:1.12 26:1.12 28:2.24 30:1.12 50:0.32600001 55:4.6890001 56:55 57:136 #
-0.22733257934946990430624680357141 3:0.69999999 6:0.69999999 19:3.54 21:0.69999999 27:1.41 37:0.69999999 45:0.69999999 49:0.126 50:0.252 55:1.375 56:5 57:55 #
-0.22669749830113028465916613640729 2:0.99000001 5:0.49000001 8:0.49000001 12:0.49000001 18:1.98 19:2.97 21:1.48 36:0.49000001 52:0.081 55:1.348 56:4 57:58 #
-0.22669749880642231509852990711806 55:1.6 56:4 57:8 #
-0.226697419540679456773091260402 46:1.2 50:0.163 55:1.153 56:3 57:15 #
-0.22687531066479493802034994587302 12:0.85000002 25:0.41999999 26:0.41999999 36:1.28 55:1.536 56:8 57:106 #
-0.22692283942142832398047858077916 3:1.36 5:0.68000001 6:0.68000001 19:2.05 27:1.36 37:0.68000001 50:0.35699999 55:1.294 56:5 57:44 #
